<?xml version="1.0"?>
<MethodSetup Method="BDT::BDT">
  <GeneralInfo>
    <Info name="TMVA Release" value="4.1.2 [262402]"/>
    <Info name="ROOT Release" value="5.32/00 [335872]"/>
    <Info name="Creator" value="pigard"/>
    <Info name="Date" value="Sun Sep 13 14:08:40 2015"/>
    <Info name="Host" value="Linux cmsdev02.cern.ch 2.6.32-431.11.2.el6.x86_64 #1 SMP Wed Mar 26 09:39:43 CET 2014 x86_64 x86_64 x86_64 GNU/Linux"/>
    <Info name="Dir" value="/grid_mnt/vol__vol_U__u/llr/cms/pigard/myEID/job/TrigSpring15_50ns_data_1_VarD_TMVA412_Sig6BkgAll_MG_noSpec"/>
    <Info name="Training events" value="68561"/>
    <Info name="TrainingTime" value="4.45873772e+02"/>
    <Info name="AnalysisType" value="Classification"/>
  </GeneralInfo>
  <Options>
    <Option name="V" modified="Yes">False</Option>
    <Option name="VerbosityLevel" modified="No">Default</Option>
    <Option name="VarTransform" modified="No">None</Option>
    <Option name="H" modified="Yes">False</Option>
    <Option name="CreateMVAPdfs" modified="Yes">True</Option>
    <Option name="IgnoreNegWeightsInTraining" modified="No">False</Option>
    <Option name="NTrees" modified="Yes">2000</Option>
    <Option name="RenormByClass" modified="No">False</Option>
    <Option name="BoostType" modified="Yes">Grad</Option>
    <Option name="AdaBoostR2Loss" modified="No">quadratic</Option>
    <Option name="UseBaggedGrad" modified="Yes">False</Option>
    <Option name="GradBaggingFraction" modified="No">6.000000e-01</Option>
    <Option name="Shrinkage" modified="Yes">1.000000e-01</Option>
    <Option name="AdaBoostBeta" modified="No">1.000000e+00</Option>
    <Option name="UseRandomisedTrees" modified="No">False</Option>
    <Option name="UseNvars" modified="Yes">4</Option>
    <Option name="UsePoissonNvars" modified="No">True</Option>
    <Option name="UseNTrainEvents" modified="No">68561</Option>
    <Option name="UseWeightedTrees" modified="No">True</Option>
    <Option name="UseYesNoLeaf" modified="No">True</Option>
    <Option name="NodePurityLimit" modified="No">5.000000e-01</Option>
    <Option name="SeparationType" modified="No">giniindex</Option>
    <Option name="nEventsMin" modified="Yes">100</Option>
    <Option name="nCuts" modified="Yes">2000</Option>
    <Option name="UseFisherCuts" modified="No">False</Option>
    <Option name="MinLinCorrForFisher" modified="No">8.000000e-01</Option>
    <Option name="UseExclusiveVars" modified="No">False</Option>
    <Option name="PruneStrength" modified="Yes">5.000000e+00</Option>
    <Option name="PruneMethod" modified="Yes">costcomplexity</Option>
    <Option name="PruneBeforeBoost" modified="No">False</Option>
    <Option name="PruningValFraction" modified="No">5.000000e-01</Option>
    <Option name="NNodesMax" modified="Yes">5</Option>
    <Option name="MaxDepth" modified="Yes">6</Option>
    <Option name="DoBoostMonitor" modified="No">False</Option>
    <Option name="NegWeightTreatment" modified="Yes">pairnegweightsglobal</Option>
  </Options>
  <Variables NVar="21">
    <Variable VarIndex="0" Expression="ele_oldsigmaietaieta" Label="ele_oldsigmaietaieta" Title="ele_oldsigmaietaieta" Unit="" Internal="ele_oldsigmaietaieta" Type="F" Min="0.00000000e+00" Max="3.29996981e-02"/>
    <Variable VarIndex="1" Expression="ele_oldsigmaiphiiphi" Label="ele_oldsigmaiphiiphi" Title="ele_oldsigmaiphiiphi" Unit="" Internal="ele_oldsigmaiphiiphi" Type="F" Min="0.00000000e+00" Max="9.18947235e-02"/>
    <Variable VarIndex="2" Expression="ele_oldcircularity" Label="ele_oldcircularity" Title="ele_oldcircularity" Unit="" Internal="ele_oldcircularity" Type="F" Min="0.00000000e+00" Max="8.01748037e-01"/>
    <Variable VarIndex="3" Expression="ele_oldr9" Label="ele_oldr9" Title="ele_oldr9" Unit="" Internal="ele_oldr9" Type="F" Min="1.53310642e-01" Max="1.38970292e+00"/>
    <Variable VarIndex="4" Expression="ele_scletawidth" Label="ele_scletawidth" Title="ele_scletawidth" Unit="" Internal="ele_scletawidth" Type="F" Min="0.00000000e+00" Max="1.58038780e-01"/>
    <Variable VarIndex="5" Expression="ele_sclphiwidth" Label="ele_sclphiwidth" Title="ele_sclphiwidth" Unit="" Internal="ele_sclphiwidth" Type="F" Min="0.00000000e+00" Max="2.76384205e-01"/>
    <Variable VarIndex="6" Expression="ele_he" Label="ele_he" Title="ele_he" Unit="" Internal="ele_he" Type="F" Min="0.00000000e+00" Max="8.99993330e-02"/>
    <Variable VarIndex="7" Expression="ele_psEoverEraw" Label="ele_psEoverEraw" Title="ele_psEoverEraw" Unit="" Internal="ele_psEoverEraw" Type="F" Min="0.00000000e+00" Max="8.19482148e-01"/>
    <Variable VarIndex="8" Expression="ele_kfhits" Label="ele_kfhits" Title="ele_kfhits" Unit="" Internal="ele_kfhits" Type="I" Min="2.00000000e+00" Max="1.70000000e+01"/>
    <Variable VarIndex="9" Expression="ele_kfchi2" Label="ele_kfchi2" Title="ele_kfchi2" Unit="" Internal="ele_kfchi2" Type="F" Min="6.06077819e-08" Max="2.02452641e+01"/>
    <Variable VarIndex="10" Expression="ele_gsfchi2" Label="ele_gsfchi2" Title="ele_gsfchi2" Unit="" Internal="ele_gsfchi2" Type="F" Min="1.92495972e-01" Max="7.56708557e+02"/>
    <Variable VarIndex="11" Expression="ele_fbrem" Label="ele_fbrem" Title="ele_fbrem" Unit="" Internal="ele_fbrem" Type="F" Min="-9.99923229e-01" Max="9.98620749e-01"/>
    <Variable VarIndex="12" Expression="ele_gsfhits" Label="ele_gsfhits" Title="ele_gsfhits" Unit="" Internal="ele_gsfhits" Type="I" Min="4.00000000e+00" Max="1.70000000e+01"/>
    <Variable VarIndex="13" Expression="ele_expected_inner_hits" Label="ele_expected_inner_hits" Title="ele_expected_inner_hits" Unit="" Internal="ele_expected_inner_hits" Type="I" Min="0.00000000e+00" Max="5.00000000e+00"/>
    <Variable VarIndex="14" Expression="ele_conversionVertexFitProbability" Label="ele_conversionVertexFitProbability" Title="ele_conversionVertexFitProbability" Unit="" Internal="ele_conversionVertexFitProbability" Type="F" Min="-1.00000000e+00" Max="9.99997497e-01"/>
    <Variable VarIndex="15" Expression="ele_ep" Label="ele_ep" Title="ele_ep" Unit="" Internal="ele_ep" Type="F" Min="4.15544127e-05" Max="1.89893921e+02"/>
    <Variable VarIndex="16" Expression="ele_eelepout" Label="ele_eelepout" Title="ele_eelepout" Unit="" Internal="ele_eelepout" Type="F" Min="3.88565031e-03" Max="9.40854736e+02"/>
    <Variable VarIndex="17" Expression="ele_IoEmIop" Label="ele_IoEmIop" Title="ele_IoEmIop" Unit="" Internal="ele_IoEmIop" Type="F" Min="-1.36670899e+00" Max="4.46679682e-01"/>
    <Variable VarIndex="18" Expression="ele_deltaetain" Label="ele_deltaetain" Title="ele_deltaetain" Unit="" Internal="ele_deltaetain" Type="F" Min="-9.58790541e-01" Max="3.04600215e+00"/>
    <Variable VarIndex="19" Expression="ele_deltaphiin" Label="ele_deltaphiin" Title="ele_deltaphiin" Unit="" Internal="ele_deltaphiin" Type="F" Min="-1.46886945e+00" Max="1.18057573e+00"/>
    <Variable VarIndex="20" Expression="ele_deltaetaseed" Label="ele_deltaetaseed" Title="ele_deltaetaseed" Unit="" Internal="ele_deltaetaseed" Type="F" Min="-3.18410730e+00" Max="3.47844744e+00"/>
  </Variables>
  <Spectators NSpec="0"/>
  <Classes NClass="2">
    <Class Name="Signal" Index="0"/>
    <Class Name="Background" Index="1"/>
  </Classes>
  <Transformations NTransformations="0"/>
  <MVAPdfs>
    <PDF Name="BDT_PDFSig" MinNSmooth="0" MaxNSmooth="0" InterpolMethod="2" KDE_type="1" KDE_iter="1" KDE_border="1" KDE_finefactor="1.0000000000000000e+00">
      <Histogram Name="BDT_tr_S_original" NBins="1371" XMin="-9.9998694658279419e-01" XMax="9.9861598014831543e-01" HasEquidistantBins="1">
        0.00000000e+00 2.95343325e-02 4.43014987e-02 1.47671662e-02 2.95343325e-02 2.95343325e-02 2.95343325e-02 1.47671662e-02 4.43014987e-02 2.95343325e-02 4.43014987e-02 2.95343325e-02 2.95343325e-02 1.47671662e-02 4.43014987e-02 5.90686649e-02 2.95343325e-02 2.95343325e-02 7.38358349e-02 4.43014987e-02 0.00000000e+00 2.95343325e-02 1.47671662e-02 4.43014987e-02 8.86029974e-02 1.47671662e-02 2.95343325e-02 1.47671662e-02 1.47671662e-02 0.00000000e+00 4.43014987e-02 1.47671662e-02 2.95343325e-02 5.90686649e-02 2.95343325e-02 4.43014987e-02 4.43014987e-02 7.38358349e-02 2.95343325e-02 1.47671662e-02 5.90686649e-02 4.43014987e-02 1.47671662e-02 5.90686649e-02 5.90686649e-02 2.95343325e-02 2.95343325e-02 5.90686649e-02 2.95343325e-02 1.47671662e-02 1.47671662e-02 2.95343325e-02 1.47671662e-02 2.95343325e-02 5.90686649e-02 7.38358349e-02 5.90686649e-02 4.43014987e-02 4.43014987e-02 1.47671662e-02 1.47671662e-02 2.95343325e-02 8.86029974e-02 4.43014987e-02 2.95343325e-02 1.47671662e-02 5.90686649e-02 2.95343325e-02 2.95343325e-02 1.47671662e-02 2.95343325e-02 0.00000000e+00 1.47671662e-02 2.95343325e-02 0.00000000e+00 2.95343325e-02 2.95343325e-02 5.90686649e-02 2.95343325e-02 4.43014987e-02 1.47671662e-02 2.95343325e-02 2.95343325e-02 0.00000000e+00 2.95343325e-02 1.47671662e-02 4.43014987e-02 1.47671662e-02 4.43014987e-02 2.95343325e-02 1.47671662e-02 0.00000000e+00 0.00000000e+00 0.00000000e+00 0.00000000e+00 5.90686649e-02 0.00000000e+00 2.95343325e-02 0.00000000e+00 0.00000000e+00 5.90686649e-02 2.95343325e-02 1.47671662e-02 4.43014987e-02 1.47671662e-02 4.43014987e-02 7.38358349e-02 1.47671662e-02 2.95343325e-02 5.90686649e-02 4.43014987e-02 2.95343325e-02 2.95343325e-02 1.47671662e-02 2.95343325e-02 1.47671662e-02 2.95343325e-02 0.00000000e+00 2.95343325e-02 4.43014987e-02 4.43014987e-02 1.47671662e-02 0.00000000e+00 0.00000000e+00 4.43014987e-02 1.47671662e-02 2.95343325e-02 1.47671662e-02 5.90686649e-02 2.95343325e-02 1.47671662e-02 2.95343325e-02 1.47671662e-02 7.38358349e-02 1.47671662e-02 1.47671662e-02 0.00000000e+00 1.47671662e-02 2.95343325e-02 4.43014987e-02 0.00000000e+00 2.95343325e-02 4.43014987e-02 2.95343325e-02 5.90686649e-02 5.90686649e-02 2.95343325e-02 0.00000000e+00 2.95343325e-02 4.43014987e-02 0.00000000e+00 1.47671662e-02 1.47671662e-02 1.47671662e-02 0.00000000e+00 0.00000000e+00 2.95343325e-02 1.47671662e-02 5.90686649e-02 4.43014987e-02 4.43014987e-02 2.95343325e-02 2.95343325e-02 1.47671662e-02 7.38358349e-02 2.95343325e-02 7.38358349e-02 5.90686649e-02 0.00000000e+00 2.95343325e-02 0.00000000e+00 1.47671662e-02 4.43014987e-02 4.43014987e-02 1.47671662e-02 2.95343325e-02 1.47671662e-02 2.95343325e-02 1.47671662e-02 1.47671662e-02 2.95343325e-02 2.95343325e-02 7.38358349e-02 1.47671662e-02 1.47671662e-02 1.47671662e-02 4.43014987e-02 0.00000000e+00 1.47671662e-02 2.95343325e-02 5.90686649e-02 2.95343325e-02 1.47671662e-02 4.43014987e-02 2.95343325e-02 2.95343325e-02 1.47671662e-02 4.43014987e-02 1.47671662e-02 5.90686649e-02 4.43014987e-02 2.95343325e-02 4.43014987e-02 1.47671662e-02 1.47671662e-02 2.95343325e-02 1.47671662e-02 2.95343325e-02 2.95343325e-02 4.43014987e-02 4.43014987e-02 5.90686649e-02 4.43014987e-02 1.47671662e-02 4.43014987e-02 4.43014987e-02 7.38358349e-02 2.95343325e-02 1.47671662e-02 5.90686649e-02 2.95343325e-02 1.47671662e-02 2.95343325e-02 0.00000000e+00 0.00000000e+00 1.47671662e-02 5.90686649e-02 2.95343325e-02 1.47671662e-02 4.43014987e-02 2.95343325e-02 1.47671662e-02 1.47671662e-02 2.95343325e-02 2.95343325e-02 2.95343325e-02 4.43014987e-02 4.43014987e-02 5.90686649e-02 1.47671662e-02 1.47671662e-02 4.43014987e-02 2.95343325e-02 0.00000000e+00 2.95343325e-02 1.47671662e-02 1.47671662e-02 1.47671662e-02 1.47671662e-02 1.47671662e-02 2.95343325e-02 0.00000000e+00 5.90686649e-02 5.90686649e-02 4.43014987e-02 0.00000000e+00 2.95343325e-02 1.47671662e-02 4.43014987e-02 7.38358349e-02 1.47671662e-02 1.47671662e-02 5.90686649e-02 0.00000000e+00 4.43014987e-02 4.43014987e-02 4.43014987e-02 1.47671662e-02 4.43014987e-02 0.00000000e+00 4.43014987e-02 5.90686649e-02 4.43014987e-02 5.90686649e-02 5.90686649e-02 7.38358349e-02 2.95343325e-02 7.38358349e-02 0.00000000e+00 2.95343325e-02 2.95343325e-02 4.43014987e-02 1.47671662e-02 1.47671662e-02 2.95343325e-02 2.95343325e-02 4.43014987e-02 4.43014987e-02 1.47671662e-02 4.43014987e-02 4.43014987e-02 4.43014987e-02 5.90686649e-02 2.95343325e-02 4.43014987e-02 4.43014987e-02 1.47671662e-02 0.00000000e+00 1.47671662e-02 1.47671662e-02 4.43014987e-02 1.47671662e-02 2.95343325e-02 4.43014987e-02 4.43014987e-02 7.38358349e-02 5.90686649e-02 2.95343325e-02 4.43014987e-02 2.95343325e-02 2.95343325e-02 5.90686649e-02 2.95343325e-02 1.47671662e-02 4.43014987e-02 1.47671662e-02 5.90686649e-02 2.95343325e-02 2.95343325e-02 2.95343325e-02 2.95343325e-02 1.47671662e-02 5.90686649e-02 2.95343325e-02 4.43014987e-02 7.38358349e-02 5.90686649e-02 1.47671662e-02 1.47671662e-02 4.43014987e-02 4.43014987e-02 1.47671662e-02 4.43014987e-02 4.43014987e-02 1.47671662e-02 4.43014987e-02 4.43014987e-02 5.90686649e-02 4.43014987e-02 7.38358349e-02 1.47671662e-02 1.03370167e-01 4.43014987e-02 2.95343325e-02 1.47671662e-02 8.86029974e-02 7.38358349e-02 2.95343325e-02 1.47671662e-02 2.95343325e-02 4.43014987e-02 5.90686649e-02 4.43014987e-02 4.43014987e-02 2.95343325e-02 1.47671662e-02 4.43014987e-02 1.47671662e-02 4.43014987e-02 4.43014987e-02 1.47671662e-02 1.47671662e-02 2.95343325e-02 1.47671662e-02 7.38358349e-02 4.43014987e-02 1.47671662e-02 2.95343325e-02 2.95343325e-02 2.95343325e-02 4.43014987e-02 1.47671662e-02 1.47671662e-02 2.95343325e-02 4.43014987e-02 2.95343325e-02 2.95343325e-02 8.86029974e-02 5.90686649e-02 5.90686649e-02 1.47671662e-02 1.47671662e-02 2.95343325e-02 1.47671662e-02 1.47671662e-02 2.95343325e-02 1.47671662e-02 0.00000000e+00 2.95343325e-02 4.43014987e-02 4.43014987e-02 5.90686649e-02 0.00000000e+00 2.95343325e-02 2.95343325e-02 4.43014987e-02 5.90686649e-02 5.90686649e-02 1.47671662e-02 1.47671662e-02 2.95343325e-02 1.47671662e-02 0.00000000e+00 7.38358349e-02 2.95343325e-02 4.43014987e-02 4.43014987e-02 0.00000000e+00 4.43014987e-02 7.38358349e-02 7.38358349e-02 5.90686649e-02 2.95343325e-02 5.90686649e-02 1.47671662e-02 0.00000000e+00 4.43014987e-02 1.47671662e-02 5.90686649e-02 4.43014987e-02 1.47671662e-02 5.90686649e-02 1.47671662e-02 5.90686649e-02 2.95343325e-02 2.95343325e-02 5.90686649e-02 2.95343325e-02 2.95343325e-02 2.95343325e-02 4.43014987e-02 0.00000000e+00 7.38358349e-02 4.43014987e-02 2.95343325e-02 4.43014987e-02 1.18137330e-01 1.47671662e-02 1.47671662e-02 4.43014987e-02 7.38358349e-02 5.90686649e-02 4.43014987e-02 1.03370167e-01 2.95343325e-02 4.43014987e-02 2.95343325e-02 2.95343325e-02 1.47671662e-02 1.47671662e-02 5.90686649e-02 2.95343325e-02 8.86029974e-02 2.95343325e-02 4.43014987e-02 4.43014987e-02 4.43014987e-02 1.47671662e-02 0.00000000e+00 5.90686649e-02 2.95343325e-02 4.43014987e-02 5.90686649e-02 0.00000000e+00 8.86029974e-02 7.38358349e-02 7.38358349e-02 1.47671662e-02 1.47671662e-02 2.95343325e-02 5.90686649e-02 4.43014987e-02 4.43014987e-02 5.90686649e-02 2.95343325e-02 5.90686649e-02 2.95343325e-02 1.47671662e-02 0.00000000e+00 7.38358349e-02 1.47671662e-02 2.95343325e-02 4.43014987e-02 8.86029974e-02 4.43014987e-02 4.43014987e-02 4.43014987e-02 1.47671662e-02 8.86029974e-02 5.90686649e-02 2.95343325e-02 5.90686649e-02 1.47671662e-02 5.90686649e-02 4.43014987e-02 2.95343325e-02 5.90686649e-02 5.90686649e-02 2.95343325e-02 2.95343325e-02 4.43014987e-02 7.38358349e-02 2.95343325e-02 4.43014987e-02 2.95343325e-02 4.43014987e-02 2.95343325e-02 4.43014987e-02 1.47671662e-02 5.90686649e-02 2.95343325e-02 5.90686649e-02 2.95343325e-02 2.95343325e-02 7.38358349e-02 7.38358349e-02 7.38358349e-02 4.43014987e-02 7.38358349e-02 5.90686649e-02 2.95343325e-02 4.43014987e-02 1.47671662e-02 2.95343325e-02 4.43014987e-02 4.43014987e-02 5.90686649e-02 2.95343325e-02 4.43014987e-02 4.43014987e-02 1.47671662e-02 4.43014987e-02 2.95343325e-02 5.90686649e-02 5.90686649e-02 2.95343325e-02 5.90686649e-02 2.95343325e-02 4.43014987e-02 7.38358349e-02 4.43014987e-02 4.43014987e-02 5.90686649e-02 4.43014987e-02 4.43014987e-02 8.86029974e-02 7.38358349e-02 4.43014987e-02 2.95343325e-02 5.90686649e-02 7.38358349e-02 4.43014987e-02 0.00000000e+00 0.00000000e+00 2.95343325e-02 7.38358349e-02 5.90686649e-02 5.90686649e-02 1.47671662e-02 5.90686649e-02 1.47671662e-02 8.86029974e-02 8.86029974e-02 1.03370167e-01 4.43014987e-02 5.90686649e-02 5.90686649e-02 4.43014987e-02 1.47671662e-02 1.32904500e-01 5.90686649e-02 2.95343325e-02 4.43014987e-02 4.43014987e-02 5.90686649e-02 5.90686649e-02 2.95343325e-02 5.90686649e-02 2.95343325e-02 8.86029974e-02 0.00000000e+00 4.43014987e-02 1.18137330e-01 1.47671662e-02 7.38358349e-02 7.38358349e-02 8.86029974e-02 5.90686649e-02 2.95343325e-02 1.47671662e-02 2.95343325e-02 2.95343325e-02 5.90686649e-02 8.86029974e-02 4.43014987e-02 2.95343325e-02 5.90686649e-02 2.95343325e-02 1.47671662e-02 1.47671662e-02 5.90686649e-02 1.47671662e-02 4.43014987e-02 4.43014987e-02 4.43014987e-02 7.38358349e-02 5.90686649e-02 1.62438825e-01 4.43014987e-02 1.47671662e-02 7.38358349e-02 7.38358349e-02 8.86029974e-02 1.18137330e-01 5.90686649e-02 4.43014987e-02 4.43014987e-02 7.38358349e-02 8.86029974e-02 1.03370167e-01 4.43014987e-02 5.90686649e-02 7.38358349e-02 5.90686649e-02 1.47671670e-01 5.90686649e-02 7.38358349e-02 4.43014987e-02 4.43014987e-02 5.90686649e-02 1.03370167e-01 2.95343325e-02 1.18137330e-01 4.43014987e-02 1.18137330e-01 4.43014987e-02 1.18137330e-01 7.38358349e-02 4.43014987e-02 7.38358349e-02 4.43014987e-02 7.38358349e-02 4.43014987e-02 7.38358349e-02 5.90686649e-02 4.43014987e-02 7.38358349e-02 7.38358349e-02 7.38358349e-02 4.43014987e-02 5.90686649e-02 2.95343325e-02 7.38358349e-02 5.90686649e-02 7.38358349e-02 5.90686649e-02 5.90686649e-02 5.90686649e-02 2.95343325e-02 1.47671662e-02 0.00000000e+00 5.90686649e-02 2.95343325e-02 5.90686649e-02 2.95343325e-02 4.43014987e-02 1.32904500e-01 4.43014987e-02 4.43014987e-02 7.38358349e-02 7.38358349e-02 4.43014987e-02 7.38358349e-02 5.90686649e-02 5.90686649e-02 7.38358349e-02 0.00000000e+00 1.03370167e-01 8.86029974e-02 5.90686649e-02 7.38358349e-02 5.90686649e-02 5.90686649e-02 4.43014987e-02 2.95343325e-02 8.86029974e-02 4.43014987e-02 1.03370167e-01 2.95343325e-02 7.38358349e-02 7.38358349e-02 8.86029974e-02 8.86029974e-02 8.86029974e-02 1.47671662e-02 2.95343325e-02 4.43014987e-02 5.90686649e-02 8.86029974e-02 2.95343325e-02 2.95343325e-02 7.38358349e-02 4.43014987e-02 8.86029974e-02 4.43014987e-02 4.43014987e-02 1.18137330e-01 2.95343325e-02 7.38358349e-02 2.95343325e-02 5.90686649e-02 5.90686649e-02 2.95343325e-02 5.90686649e-02 4.43014987e-02 5.90686649e-02 7.38358349e-02 7.38358349e-02 7.38358349e-02 7.38358349e-02 2.95343325e-02 8.86029974e-02 7.38358349e-02 5.90686649e-02 5.90686649e-02 5.90686649e-02 5.90686649e-02 7.38358349e-02 1.03370167e-01 2.95343325e-02 8.86029974e-02 5.90686649e-02 1.47671662e-02 8.86029974e-02 5.90686649e-02 1.03370167e-01 4.43014987e-02 5.90686649e-02 8.86029974e-02 2.95343325e-02 8.86029974e-02 5.90686649e-02 5.90686649e-02 4.43014987e-02 7.38358349e-02 7.38358349e-02 7.38358349e-02 5.90686649e-02 1.03370167e-01 1.18137330e-01 1.03370167e-01 8.86029974e-02 8.86029974e-02 5.90686649e-02 8.86029974e-02 7.38358349e-02 5.90686649e-02 5.90686649e-02 8.86029974e-02 7.38358349e-02 8.86029974e-02 7.38358349e-02 7.38358349e-02 2.95343325e-02 4.43014987e-02 5.90686649e-02 7.38358349e-02 1.18137330e-01 1.18137330e-01 7.38358349e-02 2.95343325e-02 7.38358349e-02 5.90686649e-02 8.86029974e-02 1.32904500e-01 1.03370167e-01 1.32904500e-01 5.90686649e-02 7.38358349e-02 4.43014987e-02 8.86029974e-02 2.95343325e-02 1.18137330e-01 1.18137330e-01 2.95343325e-02 1.18137330e-01 5.90686649e-02 7.38358349e-02 5.90686649e-02 1.18137330e-01 2.95343325e-02 5.90686649e-02 1.62438825e-01 1.18137330e-01 1.77205995e-01 7.38358349e-02 5.90686649e-02 2.95343325e-02 5.90686649e-02 5.90686649e-02 1.47671670e-01 5.90686649e-02 7.38358349e-02 7.38358349e-02 1.03370167e-01 7.38358349e-02 8.86029974e-02 8.86029974e-02 7.38358349e-02 8.86029974e-02 8.86029974e-02 1.03370167e-01 4.43014987e-02 2.95343325e-02 7.38358349e-02 7.38358349e-02 1.03370167e-01 8.86029974e-02 7.38358349e-02 1.32904500e-01 8.86029974e-02 8.86029974e-02 8.86029974e-02 1.32904500e-01 4.43014987e-02 1.91973165e-01 8.86029974e-02 4.43014987e-02 0.00000000e+00 1.03370167e-01 7.38358349e-02 1.47671670e-01 8.86029974e-02 4.43014987e-02 7.38358349e-02 5.90686649e-02 1.32904500e-01 1.47671670e-01 1.03370167e-01 7.38358349e-02 4.43014987e-02 1.62438825e-01 7.38358349e-02 1.32904500e-01 1.18137330e-01 1.03370167e-01 5.90686649e-02 1.77205995e-01 1.47671670e-01 8.86029974e-02 4.43014987e-02 5.90686649e-02 8.86029974e-02 8.86029974e-02 1.47671670e-01 1.62438825e-01 1.18137330e-01 1.47671670e-01 1.47671670e-01 1.18137330e-01 4.43014987e-02 8.86029974e-02 1.18137330e-01 7.38358349e-02 8.86029974e-02 1.03370167e-01 1.03370167e-01 1.18137330e-01 7.38358349e-02 1.32904500e-01 1.18137330e-01 1.91973165e-01 1.47671662e-02 7.38358349e-02 8.86029974e-02 1.18137330e-01 1.32904500e-01 5.90686649e-02 1.03370167e-01 1.62438825e-01 1.47671670e-01 7.38358349e-02 1.32904500e-01 1.03370167e-01 8.86029974e-02 7.38358349e-02 2.95343325e-02 1.62438825e-01 1.77205995e-01 1.91973165e-01 8.86029974e-02 1.18137330e-01 5.90686649e-02 1.47671670e-01 4.43014987e-02 1.47671662e-02 8.86029974e-02 1.18137330e-01 1.47671670e-01 1.91973165e-01 1.47671670e-01 1.32904500e-01 1.18137330e-01 1.03370167e-01 5.90686649e-02 1.77205995e-01 5.90686649e-02 7.38358349e-02 1.03370167e-01 8.86029974e-02 4.43014987e-02 8.86029974e-02 1.32904500e-01 1.47671670e-01 8.86029974e-02 8.86029974e-02 7.38358349e-02 1.03370167e-01 1.18137330e-01 1.62438825e-01 1.47671670e-01 8.86029974e-02 1.32904500e-01 1.47671670e-01 1.32904500e-01 4.43014987e-02 1.62438825e-01 2.95343325e-02 8.86029974e-02 1.77205995e-01 1.47671670e-01 1.32904500e-01 1.18137330e-01 1.62438825e-01 1.32904500e-01 1.03370167e-01 1.32904500e-01 1.32904500e-01 1.18137330e-01 1.18137330e-01 1.32904500e-01 1.62438825e-01 1.62438825e-01 1.47671670e-01 1.03370167e-01 1.62438825e-01 1.18137330e-01 1.77205995e-01 1.77205995e-01 1.03370167e-01 1.03370167e-01 1.62438825e-01 7.38358349e-02 1.62438825e-01 2.06740335e-01 1.32904500e-01 1.91973165e-01 7.38358349e-02 1.32904500e-01 1.18137330e-01 1.62438825e-01 7.38358349e-02 8.86029974e-02 1.18137330e-01 1.77205995e-01 1.62438825e-01 1.47671670e-01 1.47671670e-01 1.47671670e-01 1.77205995e-01 1.32904500e-01 1.77205995e-01 8.86029974e-02 1.18137330e-01 1.32904500e-01 1.47671670e-01 1.32904500e-01 1.18137330e-01 8.86029974e-02 1.77205995e-01 1.62438825e-01 1.62438825e-01 1.32904500e-01 1.62438825e-01 7.38358349e-02 1.62438825e-01 1.77205995e-01 2.06740335e-01 2.51041830e-01 1.77205995e-01 1.77205995e-01 8.86029974e-02 1.91973165e-01 1.77205995e-01 1.77205995e-01 1.47671670e-01 1.47671670e-01 1.62438825e-01 1.03370167e-01 2.06740335e-01 1.32904500e-01 2.65809000e-01 2.65809000e-01 8.86029974e-02 1.32904500e-01 2.21507490e-01 1.18137330e-01 1.47671670e-01 1.32904500e-01 1.77205995e-01 1.32904500e-01 1.62438825e-01 5.90686649e-02 2.21507490e-01 1.18137330e-01 1.91973165e-01 1.77205995e-01 1.77205995e-01 1.91973165e-01 2.36274660e-01 1.91973165e-01 1.47671670e-01 1.18137330e-01 1.03370167e-01 1.91973165e-01 1.77205995e-01 1.32904500e-01 2.36274660e-01 1.62438825e-01 1.77205995e-01 1.91973165e-01 1.77205995e-01 1.18137330e-01 2.06740335e-01 1.47671670e-01 2.95343339e-01 1.47671670e-01 1.91973165e-01 1.91973165e-01 1.32904500e-01 1.77205995e-01 2.51041830e-01 1.91973165e-01 1.62438825e-01 1.91973165e-01 2.06740335e-01 1.77205995e-01 1.32904500e-01 2.51041830e-01 1.47671670e-01 2.21507490e-01 1.47671670e-01 2.06740335e-01 3.24877650e-01 1.03370167e-01 1.91973165e-01 3.39644819e-01 2.51041830e-01 2.80576169e-01 2.80576169e-01 2.80576169e-01 2.21507490e-01 2.65809000e-01 1.32904500e-01 1.18137330e-01 1.47671670e-01 1.18137330e-01 2.06740335e-01 2.06740335e-01 2.06740335e-01 2.65809000e-01 1.47671670e-01 2.51041830e-01 2.36274660e-01 2.36274660e-01 1.62438825e-01 2.06740335e-01 2.95343339e-01 2.06740335e-01 1.62438825e-01 2.36274660e-01 2.51041830e-01 1.91973165e-01 1.32904500e-01 2.21507490e-01 2.36274660e-01 2.51041830e-01 2.21507490e-01 2.21507490e-01 1.77205995e-01 3.24877650e-01 2.36274660e-01 2.51041830e-01 1.91973165e-01 3.24877650e-01 1.47671670e-01 2.36274660e-01 2.51041830e-01 2.80576169e-01 3.54411989e-01 1.77205995e-01 1.32904500e-01 2.65809000e-01 2.80576169e-01 1.62438825e-01 2.36274660e-01 2.65809000e-01 2.36274660e-01 3.39644819e-01 3.10110509e-01 2.36274660e-01 3.54411989e-01 2.06740335e-01 3.10110509e-01 2.65809000e-01 2.95343339e-01 3.24877650e-01 2.36274660e-01 2.36274660e-01 2.06740335e-01 2.21507490e-01 3.69179159e-01 1.62438825e-01 3.54411989e-01 2.80576169e-01 3.24877650e-01 3.24877650e-01 4.57782149e-01 2.06740335e-01 2.36274660e-01 3.69179159e-01 2.51041830e-01 2.21507490e-01 2.06740335e-01 3.39644819e-01 2.95343339e-01 1.91973165e-01 1.91973165e-01 1.91973165e-01 2.80576169e-01 2.65809000e-01 4.43014979e-01 3.83946329e-01 5.16850829e-01 2.65809000e-01 3.24877650e-01 2.06740335e-01 3.69179159e-01 3.83946329e-01 3.98713499e-01 3.39644819e-01 4.13480669e-01 2.51041830e-01 3.24877650e-01 4.72549319e-01 4.43014979e-01 6.94056809e-01 4.72549319e-01 4.57782149e-01 2.80576169e-01 4.57782149e-01 4.57782149e-01 3.54411989e-01 3.54411989e-01 4.72549319e-01 5.16850829e-01 5.16850829e-01 3.39644819e-01 3.54411989e-01 3.69179159e-01 3.54411989e-01 4.13480669e-01 4.57782149e-01 3.69179159e-01 3.10110509e-01 3.10110509e-01 3.83946329e-01 3.98713499e-01 5.46385169e-01 4.57782149e-01 4.72549319e-01 4.28247839e-01 4.57782149e-01 5.02083659e-01 3.24877650e-01 4.13480669e-01 5.31617999e-01 3.69179159e-01 4.13480669e-01 5.46385169e-01 5.02083659e-01 3.83946329e-01 4.87316489e-01 4.13480669e-01 6.64522469e-01 5.16850829e-01 5.02083659e-01 3.69179159e-01 3.69179159e-01 4.57782149e-01 5.31617999e-01 5.02083659e-01 5.16850829e-01 4.57782149e-01 6.34988129e-01 5.61152339e-01 6.94056809e-01 5.46385169e-01 4.57782149e-01 5.31617999e-01 4.28247839e-01 5.02083659e-01 3.24877650e-01 8.26961339e-01 6.05453849e-01 6.20221019e-01 6.20221019e-01 6.94056809e-01 7.67892659e-01 6.94056809e-01 6.49755299e-01 6.79289639e-01 6.49755299e-01 6.20221019e-01 6.94056809e-01 6.20221019e-01 6.34988129e-01 7.38358319e-01 6.94056809e-01 8.26961339e-01 6.49755299e-01 7.23591149e-01 6.79289639e-01 6.20221019e-01 7.08823979e-01 8.71262848e-01 9.00797129e-01 7.23591149e-01 8.41728508e-01 5.46385169e-01 6.34988129e-01 5.31617999e-01 6.79289639e-01 8.71262848e-01 8.26961339e-01 8.12194169e-01 8.71262848e-01 8.56495678e-01 8.71262848e-01 8.71262848e-01 6.64522469e-01 8.86029959e-01 8.86029959e-01 9.15564299e-01 1.07800317e+00 8.86029959e-01 9.45098639e-01 9.15564299e-01 8.86029959e-01 1.04846883e+00 1.19614053e+00 1.03370166e+00 8.26961339e-01 1.07800317e+00 1.38811362e+00 1.04846883e+00 1.06323600e+00 1.09277034e+00 1.09277034e+00 9.30331469e-01 1.18137336e+00 1.16660619e+00 9.74632978e-01 1.13707185e+00 1.25520909e+00 1.18137336e+00 1.19614053e+00 1.10753751e+00 1.37334645e+00 1.41764796e+00 1.22567487e+00 1.37334645e+00 1.21090770e+00 1.32904494e+00 1.19614053e+00 1.35857928e+00 1.47671664e+00 1.34381211e+00 1.40288079e+00 1.62438834e+00 1.43241513e+00 1.38811362e+00 1.72775853e+00 1.53578532e+00 1.69822419e+00 1.78682709e+00 2.22984219e+00 2.06740332e+00 1.62438834e+00 1.87543011e+00 1.74252570e+00 1.86066294e+00 1.96403313e+00 2.20030785e+00 2.05263615e+00 2.05263615e+00 2.27414370e+00 1.87543011e+00 2.42181540e+00 2.11170483e+00 2.15600634e+00 2.42181540e+00 2.08217049e+00 2.24460936e+00 2.67285705e+00 2.40704823e+00 2.53995252e+00 2.43658257e+00 2.71715856e+00 3.02726912e+00 2.83529592e+00 2.80576158e+00 3.16017365e+00 3.08633780e+00 2.96820045e+00 3.41121554e+00 3.16017365e+00 3.47028422e+00 3.51458549e+00 3.76562738e+00 3.67702436e+00 4.35631418e+00 4.07573795e+00 4.66642475e+00 4.79932928e+00 4.66642475e+00 5.24234390e+00 5.36048126e+00 5.18327522e+00 5.16850805e+00 6.01023674e+00 6.17267561e+00 6.49755335e+00 6.71906090e+00 7.07347250e+00 6.68952656e+00 7.14730835e+00 8.26961327e+00 7.85613251e+00 9.40668488e+00 9.55435658e+00 1.04551535e+01 1.00416727e+01 1.07504969e+01 1.16069927e+01 1.23010492e+01 1.28769693e+01 1.35710258e+01 1.45308914e+01 1.59633064e+01 1.82965183e+01 1.81636143e+01 1.96255646e+01 1.96846333e+01 2.04820595e+01 1.99356747e+01 1.78387375e+01 1.36300945e+01 7.01440382e+00 2.74669290e+00 4.13480669e-01 
      </Histogram>
    </PDF>
    <PDF Name="BDT_PDFBkg" MinNSmooth="0" MaxNSmooth="0" InterpolMethod="2" KDE_type="1" KDE_iter="1" KDE_border="1" KDE_finefactor="1.0000000000000000e+00">
      <Histogram Name="BDT_tr_B_original" NBins="1371" XMin="-9.9998694658279419e-01" XMax="9.9861598014831543e-01" HasEquidistantBins="1">
        3.32951393e+01 2.26828957e+01 1.95488701e+01 1.67251453e+01 1.31877298e+01 1.22258015e+01 1.04260645e+01 1.00847349e+01 9.40207577e+00 9.21589661e+00 8.53323746e+00 7.41615868e+00 7.63336849e+00 6.54732037e+00 6.33011055e+00 6.36114025e+00 5.61642170e+00 4.74758291e+00 5.27509212e+00 4.84067297e+00 4.80964279e+00 4.62346315e+00 4.12698364e+00 4.12698364e+00 4.22007370e+00 3.72359443e+00 4.18904352e+00 3.87874413e+00 3.41329479e+00 4.06492376e+00 3.53741479e+00 3.22711515e+00 4.03389406e+00 3.10299540e+00 3.63050461e+00 2.76166582e+00 3.07196546e+00 3.28917503e+00 2.57548618e+00 2.60651612e+00 2.94784570e+00 2.57548618e+00 2.11003685e+00 2.42033648e+00 2.26518655e+00 1.86179721e+00 2.11003685e+00 2.42033648e+00 2.35827637e+00 1.86179721e+00 2.01694703e+00 2.63754606e+00 1.70664740e+00 2.26518655e+00 2.23415661e+00 2.01694703e+00 1.70664740e+00 1.79973733e+00 1.39634788e+00 2.04797697e+00 2.04797697e+00 2.07900691e+00 1.45840776e+00 1.67561746e+00 1.73767734e+00 1.76870739e+00 1.61355758e+00 1.67561746e+00 1.48943782e+00 1.39634788e+00 1.76870739e+00 1.73767734e+00 1.58252764e+00 1.55149770e+00 1.42737782e+00 1.45840776e+00 1.52046776e+00 1.36531794e+00 1.36531794e+00 1.39634788e+00 1.24119818e+00 1.24119818e+00 1.11707830e+00 1.05501842e+00 1.42737782e+00 9.61928546e-01 1.30325806e+00 1.33428800e+00 1.27222812e+00 1.48943782e+00 1.45840776e+00 1.14810824e+00 1.36531794e+00 1.05501842e+00 9.92958486e-01 1.05501842e+00 1.05501842e+00 9.61928546e-01 1.17913818e+00 1.21016824e+00 1.11707830e+00 1.21016824e+00 1.33428800e+00 1.21016824e+00 1.11707830e+00 9.92958486e-01 1.08604836e+00 1.14810824e+00 1.24119818e+00 1.52046776e+00 8.06778789e-01 9.30898607e-01 1.05501842e+00 1.08604836e+00 1.02398849e+00 1.08604836e+00 1.33428800e+00 8.06778789e-01 1.08604836e+00 1.14810824e+00 7.75748849e-01 8.06778789e-01 7.13688910e-01 9.92958486e-01 7.13688910e-01 8.99868667e-01 9.30898607e-01 7.75748849e-01 9.30898607e-01 7.75748849e-01 6.20599091e-01 9.92958486e-01 8.99868667e-01 8.99868667e-01 9.61928546e-01 9.30898607e-01 6.20599091e-01 6.20599091e-01 8.37808728e-01 7.13688910e-01 7.13688910e-01 4.96479243e-01 8.68838668e-01 4.96479243e-01 5.89569092e-01 7.44718909e-01 7.13688910e-01 5.89569092e-01 6.82658970e-01 5.27509212e-01 8.37808728e-01 7.75748849e-01 6.20599091e-01 8.37808728e-01 5.27509212e-01 7.75748849e-01 5.89569092e-01 8.06778789e-01 4.65449303e-01 7.13688910e-01 6.82658970e-01 9.30898607e-01 8.06778789e-01 6.51629031e-01 6.51629031e-01 5.58539152e-01 7.13688910e-01 4.65449303e-01 8.37808728e-01 7.75748849e-01 6.51629031e-01 5.58539152e-01 7.13688910e-01 8.06778789e-01 5.27509212e-01 6.20599091e-01 5.58539152e-01 5.89569092e-01 6.51629031e-01 5.89569092e-01 7.13688910e-01 4.34419334e-01 4.03389394e-01 5.58539152e-01 6.51629031e-01 3.10299546e-01 6.51629031e-01 4.96479243e-01 5.89569092e-01 4.96479243e-01 5.89569092e-01 6.82658970e-01 5.89569092e-01 4.65449303e-01 6.51629031e-01 6.51629031e-01 7.13688910e-01 3.41329485e-01 3.72359455e-01 4.03389394e-01 7.13688910e-01 7.13688910e-01 4.34419334e-01 5.58539152e-01 5.27509212e-01 5.89569092e-01 4.96479243e-01 4.03389394e-01 2.79269576e-01 4.65449303e-01 4.34419334e-01 4.96479243e-01 4.65449303e-01 3.72359455e-01 5.89569092e-01 3.72359455e-01 4.03389394e-01 4.65449303e-01 5.58539152e-01 4.96479243e-01 4.03389394e-01 4.34419334e-01 6.20599091e-01 2.79269576e-01 2.17209667e-01 4.34419334e-01 3.72359455e-01 5.58539152e-01 2.79269576e-01 3.72359455e-01 5.58539152e-01 4.34419334e-01 4.96479243e-01 4.96479243e-01 4.34419334e-01 3.72359455e-01 4.65449303e-01 5.89569092e-01 3.41329485e-01 4.03389394e-01 4.34419334e-01 3.72359455e-01 5.89569092e-01 3.72359455e-01 4.65449303e-01 5.58539152e-01 4.03389394e-01 4.65449303e-01 3.41329485e-01 4.65449303e-01 6.20599091e-01 4.03389394e-01 4.65449303e-01 4.03389394e-01 2.48239622e-01 3.41329485e-01 4.65449303e-01 4.34419334e-01 4.96479243e-01 4.03389394e-01 3.72359455e-01 2.48239622e-01 3.10299546e-01 4.65449303e-01 4.03389394e-01 2.17209667e-01 2.48239622e-01 4.65449303e-01 1.24119811e-01 2.79269576e-01 4.34419334e-01 3.10299546e-01 4.65449303e-01 5.58539152e-01 3.72359455e-01 1.86179727e-01 4.96479243e-01 2.48239622e-01 4.03389394e-01 3.10299546e-01 4.03389394e-01 1.55149773e-01 3.72359455e-01 3.41329485e-01 4.65449303e-01 2.48239622e-01 1.55149773e-01 2.17209667e-01 3.10299546e-01 5.58539152e-01 4.96479243e-01 1.86179727e-01 3.41329485e-01 2.79269576e-01 2.79269576e-01 5.58539152e-01 3.10299546e-01 1.86179727e-01 3.41329485e-01 3.10299546e-01 3.72359455e-01 5.58539152e-01 2.17209667e-01 4.03389394e-01 2.79269576e-01 4.03389394e-01 2.79269576e-01 2.17209667e-01 3.10299546e-01 5.89569092e-01 3.72359455e-01 2.48239622e-01 5.58539152e-01 3.72359455e-01 4.34419334e-01 4.34419334e-01 2.79269576e-01 3.41329485e-01 3.41329485e-01 4.96479243e-01 4.03389394e-01 2.48239622e-01 4.03389394e-01 3.41329485e-01 3.10299546e-01 2.79269576e-01 4.34419334e-01 1.86179727e-01 3.41329485e-01 3.10299546e-01 4.03389394e-01 4.96479243e-01 2.48239622e-01 6.20599054e-02 3.10299546e-01 6.20599091e-01 1.86179727e-01 4.34419334e-01 4.65449303e-01 3.41329485e-01 4.65449303e-01 3.41329485e-01 1.86179727e-01 2.17209667e-01 3.10299546e-01 1.86179727e-01 3.41329485e-01 2.17209667e-01 5.89569092e-01 2.79269576e-01 2.17209667e-01 1.86179727e-01 2.48239622e-01 2.79269576e-01 5.89569092e-01 2.79269576e-01 3.10299546e-01 4.03389394e-01 2.48239622e-01 3.10299546e-01 2.48239622e-01 2.79269576e-01 1.24119811e-01 5.58539152e-01 3.10299546e-01 2.17209667e-01 2.48239622e-01 3.41329485e-01 2.17209667e-01 2.79269576e-01 4.03389394e-01 2.48239622e-01 2.48239622e-01 2.17209667e-01 4.03389394e-01 3.10299546e-01 1.55149773e-01 2.17209667e-01 3.41329485e-01 2.79269576e-01 1.86179727e-01 1.55149773e-01 2.17209667e-01 3.10299546e-01 1.86179727e-01 1.55149773e-01 2.17209667e-01 3.10299546e-01 1.55149773e-01 3.10299546e-01 1.24119811e-01 3.10299546e-01 2.79269576e-01 6.20599054e-02 2.79269576e-01 4.34419334e-01 2.48239622e-01 1.86179727e-01 2.48239622e-01 2.79269576e-01 2.17209667e-01 9.30898637e-02 1.55149773e-01 2.17209667e-01 1.55149773e-01 2.48239622e-01 2.17209667e-01 5.27509212e-01 2.79269576e-01 1.86179727e-01 9.30898637e-02 2.48239622e-01 1.24119811e-01 3.72359455e-01 3.72359455e-01 6.20599054e-02 4.34419334e-01 3.10299546e-01 2.17209667e-01 1.55149773e-01 3.10299546e-01 1.86179727e-01 1.86179727e-01 1.24119811e-01 1.55149773e-01 3.10299546e-01 2.17209667e-01 3.41329485e-01 2.79269576e-01 2.17209667e-01 4.65449303e-01 9.30898637e-02 2.17209667e-01 1.24119811e-01 1.86179727e-01 9.30898637e-02 2.48239622e-01 1.55149773e-01 1.86179727e-01 2.17209667e-01 2.17209667e-01 2.48239622e-01 1.55149773e-01 2.17209667e-01 2.79269576e-01 2.79269576e-01 3.10299546e-01 1.86179727e-01 9.30898637e-02 1.86179727e-01 1.55149773e-01 9.30898637e-02 1.86179727e-01 2.17209667e-01 2.79269576e-01 2.17209667e-01 3.10299546e-01 1.24119811e-01 2.48239622e-01 3.72359455e-01 1.55149773e-01 2.17209667e-01 2.48239622e-01 2.17209667e-01 1.86179727e-01 1.55149773e-01 1.86179727e-01 1.86179727e-01 2.79269576e-01 4.96479243e-01 1.55149773e-01 1.86179727e-01 3.41329485e-01 1.24119811e-01 2.79269576e-01 1.55149773e-01 1.86179727e-01 2.79269576e-01 1.24119811e-01 1.86179727e-01 1.86179727e-01 1.24119811e-01 2.17209667e-01 1.24119811e-01 2.17209667e-01 1.24119811e-01 2.17209667e-01 3.10299546e-01 1.86179727e-01 1.24119811e-01 2.48239622e-01 1.86179727e-01 1.86179727e-01 2.79269576e-01 1.55149773e-01 3.10299546e-01 6.20599054e-02 1.86179727e-01 1.86179727e-01 3.10299546e-01 2.79269576e-01 1.24119811e-01 1.86179727e-01 1.55149773e-01 2.48239622e-01 2.79269576e-01 2.17209667e-01 1.24119811e-01 1.24119811e-01 1.55149773e-01 3.72359455e-01 3.72359455e-01 2.17209667e-01 3.41329485e-01 2.48239622e-01 9.30898637e-02 3.72359455e-01 1.55149773e-01 2.17209667e-01 2.79269576e-01 2.48239622e-01 3.10299546e-01 2.48239622e-01 1.86179727e-01 3.41329485e-01 1.86179727e-01 2.17209667e-01 1.86179727e-01 1.24119811e-01 1.86179727e-01 9.30898637e-02 1.55149773e-01 6.20599054e-02 3.10299546e-01 3.41329485e-01 1.55149773e-01 1.86179727e-01 1.86179727e-01 2.48239622e-01 1.86179727e-01 1.24119811e-01 3.10299527e-02 1.86179727e-01 1.86179727e-01 2.79269576e-01 1.55149773e-01 2.48239622e-01 1.55149773e-01 9.30898637e-02 1.86179727e-01 1.55149773e-01 2.48239622e-01 2.17209667e-01 2.79269576e-01 1.86179727e-01 1.55149773e-01 1.86179727e-01 9.30898637e-02 2.79269576e-01 2.79269576e-01 2.48239622e-01 1.55149773e-01 1.24119811e-01 2.48239622e-01 9.30898637e-02 2.48239622e-01 1.24119811e-01 2.48239622e-01 1.86179727e-01 1.24119811e-01 1.55149773e-01 1.55149773e-01 1.24119811e-01 1.86179727e-01 6.20599054e-02 1.55149773e-01 1.86179727e-01 2.17209667e-01 1.24119811e-01 2.17209667e-01 2.17209667e-01 2.48239622e-01 2.48239622e-01 2.17209667e-01 1.55149773e-01 1.24119811e-01 1.86179727e-01 1.86179727e-01 1.86179727e-01 2.17209667e-01 6.20599054e-02 1.24119811e-01 1.55149773e-01 3.72359455e-01 1.55149773e-01 1.55149773e-01 1.24119811e-01 1.24119811e-01 2.17209667e-01 9.30898637e-02 2.17209667e-01 3.41329485e-01 3.10299527e-02 3.10299527e-02 1.86179727e-01 2.48239622e-01 2.17209667e-01 9.30898637e-02 2.48239622e-01 1.86179727e-01 1.86179727e-01 1.86179727e-01 1.86179727e-01 1.55149773e-01 2.48239622e-01 9.30898637e-02 6.20599054e-02 1.55149773e-01 1.86179727e-01 1.24119811e-01 1.24119811e-01 1.55149773e-01 2.17209667e-01 2.17209667e-01 1.55149773e-01 2.17209667e-01 1.55149773e-01 1.24119811e-01 3.10299546e-01 2.79269576e-01 1.24119811e-01 3.10299546e-01 1.24119811e-01 6.20599054e-02 1.86179727e-01 9.30898637e-02 2.17209667e-01 1.24119811e-01 1.55149773e-01 6.20599054e-02 1.86179727e-01 1.24119811e-01 2.79269576e-01 1.55149773e-01 6.20599054e-02 2.79269576e-01 9.30898637e-02 2.48239622e-01 1.55149773e-01 1.55149773e-01 2.48239622e-01 1.86179727e-01 1.55149773e-01 3.10299527e-02 2.48239622e-01 1.86179727e-01 3.41329485e-01 2.48239622e-01 6.20599054e-02 1.24119811e-01 1.24119811e-01 2.17209667e-01 1.24119811e-01 9.30898637e-02 1.24119811e-01 2.17209667e-01 1.55149773e-01 2.79269576e-01 1.86179727e-01 1.86179727e-01 2.17209667e-01 9.30898637e-02 1.24119811e-01 1.86179727e-01 6.20599054e-02 2.17209667e-01 2.17209667e-01 9.30898637e-02 2.48239622e-01 2.48239622e-01 2.17209667e-01 1.24119811e-01 6.20599054e-02 1.86179727e-01 1.24119811e-01 1.24119811e-01 1.24119811e-01 1.24119811e-01 3.10299527e-02 1.86179727e-01 1.86179727e-01 9.30898637e-02 6.20599054e-02 2.17209667e-01 1.86179727e-01 1.55149773e-01 2.17209667e-01 3.72359455e-01 2.48239622e-01 1.55149773e-01 1.86179727e-01 1.86179727e-01 9.30898637e-02 2.48239622e-01 2.17209667e-01 9.30898637e-02 1.24119811e-01 1.86179727e-01 9.30898637e-02 2.17209667e-01 1.55149773e-01 9.30898637e-02 1.24119811e-01 1.24119811e-01 1.24119811e-01 9.30898637e-02 2.79269576e-01 1.24119811e-01 9.30898637e-02 3.41329485e-01 9.30898637e-02 1.24119811e-01 1.55149773e-01 1.55149773e-01 3.10299527e-02 1.24119811e-01 1.55149773e-01 9.30898637e-02 2.79269576e-01 3.10299527e-02 1.24119811e-01 9.30898637e-02 2.17209667e-01 1.55149773e-01 6.20599054e-02 1.55149773e-01 1.24119811e-01 1.55149773e-01 1.24119811e-01 1.55149773e-01 1.55149773e-01 6.20599054e-02 2.17209667e-01 9.30898637e-02 6.20599054e-02 1.86179727e-01 1.86179727e-01 2.17209667e-01 2.79269576e-01 1.24119811e-01 1.55149773e-01 1.86179727e-01 1.24119811e-01 1.24119811e-01 9.30898637e-02 1.55149773e-01 9.30898637e-02 1.86179727e-01 2.48239622e-01 2.48239622e-01 3.10299527e-02 1.86179727e-01 1.55149773e-01 9.30898637e-02 1.86179727e-01 3.10299546e-01 1.55149773e-01 1.55149773e-01 9.30898637e-02 1.86179727e-01 3.10299527e-02 1.55149773e-01 1.24119811e-01 2.79269576e-01 1.55149773e-01 1.24119811e-01 0.00000000e+00 2.17209667e-01 6.20599054e-02 2.48239622e-01 1.55149773e-01 1.24119811e-01 1.24119811e-01 2.17209667e-01 1.86179727e-01 1.24119811e-01 1.24119811e-01 6.20599054e-02 1.86179727e-01 3.10299527e-02 1.24119811e-01 0.00000000e+00 1.55149773e-01 1.24119811e-01 1.24119811e-01 3.10299527e-02 1.24119811e-01 1.24119811e-01 1.55149773e-01 2.17209667e-01 9.30898637e-02 2.79269576e-01 9.30898637e-02 6.20599054e-02 1.55149773e-01 2.17209667e-01 1.24119811e-01 1.86179727e-01 6.20599054e-02 1.86179727e-01 9.30898637e-02 2.79269576e-01 2.17209667e-01 0.00000000e+00 3.10299527e-02 9.30898637e-02 2.48239622e-01 2.48239622e-01 6.20599054e-02 9.30898637e-02 2.48239622e-01 1.86179727e-01 1.24119811e-01 1.86179727e-01 9.30898637e-02 1.86179727e-01 6.20599054e-02 1.86179727e-01 9.30898637e-02 6.20599054e-02 1.55149773e-01 1.24119811e-01 6.20599054e-02 1.86179727e-01 1.24119811e-01 3.10299527e-02 2.17209667e-01 1.55149773e-01 6.20599054e-02 2.17209667e-01 6.20599054e-02 1.55149773e-01 9.30898637e-02 1.24119811e-01 9.30898637e-02 1.55149773e-01 1.86179727e-01 6.20599054e-02 1.86179727e-01 6.20599054e-02 9.30898637e-02 3.72359455e-01 1.55149773e-01 1.86179727e-01 1.55149773e-01 1.86179727e-01 1.55149773e-01 6.20599054e-02 1.24119811e-01 1.86179727e-01 1.24119811e-01 1.24119811e-01 9.30898637e-02 6.20599054e-02 1.86179727e-01 1.24119811e-01 1.86179727e-01 1.55149773e-01 9.30898637e-02 1.24119811e-01 1.24119811e-01 2.48239622e-01 0.00000000e+00 1.24119811e-01 6.20599054e-02 1.55149773e-01 2.17209667e-01 1.55149773e-01 9.30898637e-02 6.20599054e-02 1.55149773e-01 3.10299527e-02 2.17209667e-01 1.86179727e-01 2.17209667e-01 6.20599054e-02 0.00000000e+00 1.24119811e-01 9.30898637e-02 9.30898637e-02 3.10299527e-02 1.24119811e-01 6.20599054e-02 1.24119811e-01 1.24119811e-01 1.55149773e-01 3.10299527e-02 1.24119811e-01 1.86179727e-01 9.30898637e-02 1.86179727e-01 2.17209667e-01 1.24119811e-01 1.86179727e-01 9.30898637e-02 1.24119811e-01 6.20599054e-02 1.86179727e-01 1.86179727e-01 1.55149773e-01 0.00000000e+00 1.86179727e-01 1.24119811e-01 1.24119811e-01 1.86179727e-01 3.10299527e-02 1.24119811e-01 2.17209667e-01 9.30898637e-02 1.55149773e-01 1.86179727e-01 1.55149773e-01 9.30898637e-02 1.86179727e-01 1.55149773e-01 1.55149773e-01 9.30898637e-02 1.24119811e-01 1.24119811e-01 6.20599054e-02 9.30898637e-02 1.55149773e-01 1.55149773e-01 9.30898637e-02 1.24119811e-01 6.20599054e-02 2.17209667e-01 3.10299527e-02 1.24119811e-01 2.17209667e-01 1.55149773e-01 1.24119811e-01 9.30898637e-02 6.20599054e-02 1.55149773e-01 6.20599054e-02 1.86179727e-01 6.20599054e-02 1.55149773e-01 6.20599054e-02 3.10299527e-02 6.20599054e-02 6.20599054e-02 1.24119811e-01 9.30898637e-02 1.24119811e-01 0.00000000e+00 1.24119811e-01 1.86179727e-01 6.20599054e-02 1.86179727e-01 2.48239622e-01 6.20599054e-02 1.86179727e-01 9.30898637e-02 1.24119811e-01 6.20599054e-02 1.24119811e-01 6.20599054e-02 3.10299546e-01 2.48239622e-01 1.24119811e-01 2.17209667e-01 1.24119811e-01 1.24119811e-01 2.79269576e-01 1.24119811e-01 3.10299527e-02 9.30898637e-02 3.10299527e-02 2.48239622e-01 9.30898637e-02 9.30898637e-02 1.55149773e-01 1.86179727e-01 1.24119811e-01 3.10299527e-02 1.55149773e-01 9.30898637e-02 2.17209667e-01 1.24119811e-01 6.20599054e-02 9.30898637e-02 1.24119811e-01 1.55149773e-01 3.10299527e-02 1.24119811e-01 9.30898637e-02 1.24119811e-01 1.55149773e-01 1.55149773e-01 1.86179727e-01 1.24119811e-01 9.30898637e-02 1.55149773e-01 1.24119811e-01 1.55149773e-01 9.30898637e-02 2.17209667e-01 1.24119811e-01 6.20599054e-02 2.79269576e-01 1.55149773e-01 1.86179727e-01 1.55149773e-01 0.00000000e+00 6.20599054e-02 3.10299527e-02 1.86179727e-01 9.30898637e-02 9.30898637e-02 0.00000000e+00 1.55149773e-01 9.30898637e-02 6.20599054e-02 2.17209667e-01 9.30898637e-02 6.20599054e-02 1.24119811e-01 3.10299527e-02 9.30898637e-02 2.17209667e-01 3.10299527e-02 1.55149773e-01 9.30898637e-02 1.55149773e-01 1.86179727e-01 1.24119811e-01 9.30898637e-02 9.30898637e-02 2.48239622e-01 9.30898637e-02 6.20599054e-02 9.30898637e-02 2.17209667e-01 1.55149773e-01 1.24119811e-01 1.24119811e-01 1.55149773e-01 6.20599054e-02 1.55149773e-01 1.86179727e-01 1.55149773e-01 1.55149773e-01 1.55149773e-01 1.55149773e-01 6.20599054e-02 1.24119811e-01 6.20599054e-02 6.20599054e-02 1.55149773e-01 6.20599054e-02 1.24119811e-01 3.10299527e-02 1.55149773e-01 1.24119811e-01 9.30898637e-02 6.20599054e-02 2.79269576e-01 3.10299527e-02 6.20599054e-02 3.10299527e-02 1.24119811e-01 9.30898637e-02 1.24119811e-01 9.30898637e-02 1.24119811e-01 9.30898637e-02 1.55149773e-01 9.30898637e-02 2.48239622e-01 6.20599054e-02 9.30898637e-02 6.20599054e-02 9.30898637e-02 1.24119811e-01 2.79269576e-01 9.30898637e-02 9.30898637e-02 1.55149773e-01 3.10299546e-01 1.55149773e-01 9.30898637e-02 1.86179727e-01 6.20599054e-02 1.86179727e-01 0.00000000e+00 9.30898637e-02 6.20599054e-02 2.17209667e-01 3.10299546e-01 6.20599054e-02 3.10299527e-02 1.86179727e-01 1.86179727e-01 1.24119811e-01 1.86179727e-01 1.24119811e-01 1.55149773e-01 1.24119811e-01 1.24119811e-01 1.24119811e-01 9.30898637e-02 1.55149773e-01 9.30898637e-02 9.30898637e-02 9.30898637e-02 1.55149773e-01 9.30898637e-02 6.20599054e-02 9.30898637e-02 1.24119811e-01 9.30898637e-02 1.55149773e-01 1.24119811e-01 1.55149773e-01 9.30898637e-02 6.20599054e-02 1.86179727e-01 9.30898637e-02 6.20599054e-02 1.55149773e-01 9.30898637e-02 2.48239622e-01 3.10299527e-02 9.30898637e-02 6.20599054e-02 9.30898637e-02 3.10299527e-02 1.86179727e-01 9.30898637e-02 3.10299527e-02 6.20599054e-02 9.30898637e-02 3.10299527e-02 1.24119811e-01 2.48239622e-01 1.86179727e-01 0.00000000e+00 1.55149773e-01 3.10299527e-02 9.30898637e-02 1.55149773e-01 1.24119811e-01 1.55149773e-01 6.20599054e-02 1.86179727e-01 3.10299527e-02 1.86179727e-01 1.55149773e-01 6.20599054e-02 9.30898637e-02 1.55149773e-01 1.86179727e-01 6.20599054e-02 1.86179727e-01 1.24119811e-01 6.20599054e-02 1.24119811e-01 1.24119811e-01 2.17209667e-01 2.17209667e-01 1.55149773e-01 2.48239622e-01 3.10299527e-02 6.20599054e-02 2.17209667e-01 1.86179727e-01 1.55149773e-01 0.00000000e+00 2.17209667e-01 6.20599054e-02 1.86179727e-01 2.17209667e-01 6.20599054e-02 1.55149773e-01 2.48239622e-01 3.10299527e-02 6.20599054e-02 6.20599054e-02 1.86179727e-01 2.48239622e-01 1.55149773e-01 9.30898637e-02 6.20599054e-02 9.30898637e-02 9.30898637e-02 1.86179727e-01 2.17209667e-01 2.17209667e-01 1.24119811e-01 1.55149773e-01 1.24119811e-01 2.17209667e-01 3.10299527e-02 6.20599054e-02 1.86179727e-01 1.86179727e-01 2.48239622e-01 3.10299527e-02 3.10299527e-02 0.00000000e+00 1.24119811e-01 6.20599054e-02 9.30898637e-02 9.30898637e-02 6.20599054e-02 2.48239622e-01 1.55149773e-01 1.55149773e-01 6.20599054e-02 2.17209667e-01 1.55149773e-01 0.00000000e+00 6.20599054e-02 1.86179727e-01 9.30898637e-02 9.30898637e-02 2.17209667e-01 1.24119811e-01 1.86179727e-01 0.00000000e+00 1.55149773e-01 1.86179727e-01 1.24119811e-01 6.20599054e-02 1.24119811e-01 1.24119811e-01 9.30898637e-02 2.17209667e-01 3.10299527e-02 1.55149773e-01 3.10299527e-02 3.10299527e-02 1.55149773e-01 1.24119811e-01 6.20599054e-02 1.86179727e-01 9.30898637e-02 2.79269576e-01 1.24119811e-01 1.55149773e-01 2.79269576e-01 1.24119811e-01 1.55149773e-01 9.30898637e-02 9.30898637e-02 1.86179727e-01 9.30898637e-02 1.24119811e-01 9.30898637e-02 1.55149773e-01 1.24119811e-01 1.24119811e-01 1.55149773e-01 3.10299527e-02 2.48239622e-01 9.30898637e-02 1.55149773e-01 1.86179727e-01 1.24119811e-01 1.55149773e-01 1.55149773e-01 1.55149773e-01 2.17209667e-01 2.48239622e-01 9.30898637e-02 1.24119811e-01 2.48239622e-01 1.86179727e-01 3.10299546e-01 6.20599054e-02 3.10299527e-02 1.24119811e-01 1.86179727e-01 2.17209667e-01 6.20599054e-02 0.00000000e+00 6.20599054e-02 1.24119811e-01 6.20599054e-02 2.17209667e-01 1.86179727e-01 2.79269576e-01 3.10299546e-01 1.55149773e-01 1.55149773e-01 1.24119811e-01 9.30898637e-02 1.24119811e-01 1.55149773e-01 6.20599054e-02 2.48239622e-01 1.24119811e-01 3.10299527e-02 1.24119811e-01 1.55149773e-01 9.30898637e-02 2.17209667e-01 1.55149773e-01 1.86179727e-01 2.17209667e-01 1.55149773e-01 1.55149773e-01 2.79269576e-01 9.30898637e-02 6.20599054e-02 1.86179727e-01 1.86179727e-01 3.41329485e-01 9.30898637e-02 1.24119811e-01 9.30898637e-02 1.24119811e-01 1.86179727e-01 9.30898637e-02 1.24119811e-01 1.86179727e-01 1.55149773e-01 2.79269576e-01 2.17209667e-01 1.86179727e-01 2.48239622e-01 6.20599054e-02 1.55149773e-01 1.55149773e-01 1.86179727e-01 9.30898637e-02 3.10299546e-01 1.24119811e-01 1.24119811e-01 1.24119811e-01 2.48239622e-01 1.24119811e-01 1.55149773e-01 9.30898637e-02 2.17209667e-01 1.24119811e-01 9.30898637e-02 1.86179727e-01 6.20599054e-02 2.17209667e-01 1.55149773e-01 2.17209667e-01 1.24119811e-01 9.30898637e-02 3.10299527e-02 2.48239622e-01 1.24119811e-01 6.20599054e-02 1.86179727e-01 9.30898637e-02 6.20599054e-02 3.10299527e-02 1.24119811e-01 6.20599054e-02 6.20599054e-02 0.00000000e+00 3.10299527e-02 0.00000000e+00 0.00000000e+00 
      </Histogram>
    </PDF>
  </MVAPdfs>
  <Weights NTrees="2000" AnalysisType="1">
    <BinaryTree type="DecisionTree" boostWeight="1.0000000000000000e+00" itree="0">
      <Node pos="s" depth="0" NCoef="0" IVar="17" Cut="-9.1596506536006927e-03" cType="0" res="1.7755721509456635e-01" rms="4.6741142868995667e-01" purity="6.7755722999572754e-01" nType="0">
        <Node pos="l" depth="1" NCoef="0" IVar="-1" Cut="0.0000000000000000e+00" cType="1" res="6.6486835479736328e-02" rms="3.7348026037216187e-01" purity="8.3243417739868164e-01" nType="-99"/>
        <Node pos="r" depth="1" NCoef="0" IVar="11" Cut="2.1625971794128418e-01" cType="0" res="-1.4542549848556519e-01" rms="4.7838416695594788e-01" purity="3.5457450151443481e-01" nType="0">
          <Node pos="l" depth="2" NCoef="0" IVar="-1" Cut="0.0000000000000000e+00" cType="1" res="-6.2176533974707127e-03" rms="4.9903258681297302e-01" purity="4.6891173720359802e-01" nType="-99"/>
          <Node pos="r" depth="2" NCoef="0" IVar="-1" Cut="0.0000000000000000e+00" cType="1" res="-6.8827010691165924e-02" rms="3.6272728443145752e-01" purity="1.5586495399475098e-01" nType="-99"/>
        </Node>
      </Node>
    </BinaryTree>
    <BinaryTree type="DecisionTree" boostWeight="1.0000000000000000e+00" itree="1">
      <Node pos="s" depth="0" NCoef="0" IVar="17" Cut="-1.0972132906317711e-02" cType="0" res="1.5982811152935028e-01" rms="4.5561531186103821e-01" purity="6.7755722999572754e-01" nType="0">
        <Node pos="l" depth="1" NCoef="0" IVar="-1" Cut="0.0000000000000000e+00" cType="1" res="5.8354966342449188e-02" rms="3.8128757476806641e-01" purity="8.2182294130325317e-01" nType="-99"/>
        <Node pos="r" depth="1" NCoef="0" IVar="0" Cut="2.6104386895895004e-02" cType="1" res="-1.5309770405292511e-01" rms="4.6658366918563843e-01" purity="3.3214515447616577e-01" nType="0">
          <Node pos="l" depth="2" NCoef="0" IVar="-1" Cut="0.0000000000000000e+00" cType="1" res="-1.0683475993573666e-02" rms="4.9086421728134155e-01" purity="4.3296703696250916e-01" nType="-99"/>
          <Node pos="r" depth="2" NCoef="0" IVar="-1" Cut="0.0000000000000000e+00" cType="1" res="-6.8352617323398590e-02" rms="3.4615871310234070e-01" purity="1.4220444858074188e-01" nType="-99"/>
        </Node>
      </Node>
    </BinaryTree>
    <BinaryTree type="DecisionTree" boostWeight="1.0000000000000000e+00" itree="2">
      <Node pos="s" depth="0" NCoef="0" IVar="17" Cut="-8.2534095272421837e-03" cType="0" res="1.4392925798892975e-01" rms="4.4587597250938416e-01" purity="6.7755722999572754e-01" nType="0">
        <Node pos="l" depth="1" NCoef="0" IVar="-1" Cut="0.0000000000000000e+00" cType="1" res="5.6035656481981277e-02" rms="3.6849191784858704e-01" purity="8.3795517683029175e-01" nType="-99"/>
        <Node pos="r" depth="1" NCoef="0" IVar="11" Cut="1.6940677165985107e-01" cType="0" res="-1.1047015339136124e-01" rms="4.7121727466583252e-01" purity="3.6825695633888245e-01" nType="0">
          <Node pos="l" depth="2" NCoef="0" IVar="-1" Cut="0.0000000000000000e+00" cType="1" res="-3.2566750887781382e-03" rms="4.9173676967620850e-01" purity="4.7313377261161804e-01" nType="-99"/>
          <Node pos="r" depth="2" NCoef="0" IVar="-1" Cut="0.0000000000000000e+00" cType="1" res="-6.3196681439876556e-02" rms="3.4606865048408508e-01" purity="1.4331766963005066e-01" nType="-99"/>
        </Node>
      </Node>
    </BinaryTree>
    <BinaryTree type="DecisionTree" boostWeight="1.0000000000000000e+00" itree="3">
      <Node pos="s" depth="0" NCoef="0" IVar="17" Cut="-1.2784615159034729e-02" cType="0" res="1.2965738773345947e-01" rms="4.3732094764709473e-01" purity="6.7755722999572754e-01" nType="0">
        <Node pos="l" depth="1" NCoef="0" IVar="-1" Cut="0.0000000000000000e+00" cType="1" res="4.7536592930555344e-02" rms="3.8512042164802551e-01" purity="8.1163877248764038e-01" nType="-99"/>
        <Node pos="r" depth="1" NCoef="0" IVar="0" Cut="2.5957737118005753e-02" cType="1" res="-1.4387780427932739e-01" rms="4.5286872982978821e-01" purity="3.1438308954238892e-01" nType="0">
          <Node pos="l" depth="2" NCoef="0" IVar="-1" Cut="0.0000000000000000e+00" cType="1" res="-1.1210650205612183e-02" rms="4.8427271842956543e-01" purity="4.1438356041908264e-01" nType="-99"/>
          <Node pos="r" depth="2" NCoef="0" IVar="-1" Cut="0.0000000000000000e+00" cType="1" res="-6.0180075466632843e-02" rms="3.4400606155395508e-01" purity="1.4279417693614960e-01" nType="-99"/>
        </Node>
      </Node>
    </BinaryTree>
    <BinaryTree type="DecisionTree" boostWeight="1.0000000000000000e+00" itree="4">
      <Node pos="s" depth="0" NCoef="0" IVar="17" Cut="-6.4409268088638783e-03" cType="0" res="1.1680678278207779e-01" rms="4.3056634068489075e-01" purity="6.7755722999572754e-01" nType="0">
        <Node pos="l" depth="1" NCoef="0" IVar="-1" Cut="0.0000000000000000e+00" cType="1" res="4.9944981932640076e-02" rms="3.5766091942787170e-01" purity="8.4939759969711304e-01" nType="-99"/>
        <Node pos="r" depth="1" NCoef="0" IVar="0" Cut="2.6163702830672264e-02" cType="1" res="-7.7373459935188293e-02" rms="4.6588736772537231e-01" purity="4.0025159716606140e-01" nType="0">
          <Node pos="l" depth="2" NCoef="0" IVar="-1" Cut="0.0000000000000000e+00" cType="1" res="2.8186561539769173e-03" rms="4.8060411214828491e-01" purity="5.0894165039062500e-01" nType="-99"/>
          <Node pos="r" depth="2" NCoef="0" IVar="-1" Cut="0.0000000000000000e+00" cType="1" res="-5.5814463645219803e-02" rms="3.6510792374610901e-01" purity="1.7149958014488220e-01" nType="-99"/>
        </Node>
      </Node>
    </BinaryTree>
    <BinaryTree type="DecisionTree" boostWeight="1.0000000000000000e+00" itree="5">
      <Node pos="s" depth="0" NCoef="0" IVar="0" Cut="2.7227636426687241e-02" cType="1" res="1.0527562350034714e-01" rms="4.2395138740539551e-01" purity="6.7755722999572754e-01" nType="0">
        <Node pos="l" depth="1" NCoef="0" IVar="-1" Cut="0.0000000000000000e+00" cType="1" res="3.5764649510383606e-02" rms="3.9404326677322388e-01" purity="7.5262242555618286e-01" nType="-99"/>
        <Node pos="r" depth="1" NCoef="0" IVar="11" Cut="1.5685778856277466e-01" cType="0" res="-2.1312977373600006e-01" rms="4.2418655753135681e-01" purity="3.0345609784126282e-01" nType="0">
          <Node pos="l" depth="2" NCoef="0" IVar="-1" Cut="0.0000000000000000e+00" cType="1" res="-2.6063265278935432e-02" rms="4.5066195726394653e-01" purity="4.0881520509719849e-01" nType="-99"/>
          <Node pos="r" depth="2" NCoef="0" IVar="-1" Cut="0.0000000000000000e+00" cType="1" res="-8.1724442541599274e-02" rms="3.0882367491722107e-01" purity="1.0992819815874100e-01" nType="-99"/>
        </Node>
      </Node>
    </BinaryTree>
    <BinaryTree type="DecisionTree" boostWeight="1.0000000000000000e+00" itree="6">
      <Node pos="s" depth="0" NCoef="0" IVar="17" Cut="-1.4597098343074322e-02" cType="0" res="9.4829328358173370e-02" rms="4.1894781589508057e-01" purity="6.7755722999572754e-01" nType="0">
        <Node pos="l" depth="1" NCoef="0" IVar="-1" Cut="0.0000000000000000e+00" cType="1" res="3.7648417055606842e-02" rms="3.8070788979530334e-01" purity="8.0258941650390625e-01" nType="-99"/>
        <Node pos="r" depth="1" NCoef="0" IVar="11" Cut="3.2790929079055786e-01" cType="0" res="-1.4341351389884949e-01" rms="4.3864130973815918e-01" purity="2.9963624477386475e-01" nType="0">
          <Node pos="l" depth="2" NCoef="0" IVar="-1" Cut="0.0000000000000000e+00" cType="1" res="-9.4783781096339226e-03" rms="4.8117578029632568e-01" purity="4.2361342906951904e-01" nType="-99"/>
          <Node pos="r" depth="2" NCoef="0" IVar="-1" Cut="0.0000000000000000e+00" cType="1" res="-5.2551411092281342e-02" rms="3.5665759444236755e-01" purity="1.6219225525856018e-01" nType="-99"/>
        </Node>
      </Node>
    </BinaryTree>
    <BinaryTree type="DecisionTree" boostWeight="1.0000000000000000e+00" itree="7">
      <Node pos="s" depth="0" NCoef="0" IVar="11" Cut="1.4167386293411255e-01" cType="0" res="8.5447862744331360e-02" rms="4.1424539685249329e-01" purity="6.7755722999572754e-01" nType="0">
        <Node pos="l" depth="1" NCoef="0" IVar="-1" Cut="0.0000000000000000e+00" cType="1" res="3.2605133950710297e-02" rms="3.8592270016670227e-01" purity="7.5913804769515991e-01" nType="-99"/>
        <Node pos="r" depth="1" NCoef="0" IVar="6" Cut="2.9235165566205978e-02" cType="1" res="-1.8285153806209564e-01" rms="4.2077085375785828e-01" purity="3.3678171038627625e-01" nType="0">
          <Node pos="l" depth="2" NCoef="0" IVar="-1" Cut="0.0000000000000000e+00" cType="1" res="-1.2139359489083290e-02" rms="4.2942929267883301e-01" purity="4.7489592432975769e-01" nType="-99"/>
          <Node pos="r" depth="2" NCoef="0" IVar="-1" Cut="0.0000000000000000e+00" cType="1" res="-8.4155134856700897e-02" rms="3.1192326545715332e-01" purity="1.1463462561368942e-01" nType="-99"/>
        </Node>
      </Node>
    </BinaryTree>
    <BinaryTree type="DecisionTree" boostWeight="1.0000000000000000e+00" itree="8">
      <Node pos="s" depth="0" NCoef="0" IVar="0" Cut="2.6881312951445580e-02" cType="1" res="7.6986730098724365e-02" rms="4.0926885604858398e-01" purity="6.7755722999572754e-01" nType="0">
        <Node pos="l" depth="1" NCoef="0" IVar="-1" Cut="0.0000000000000000e+00" cType="1" res="3.0415834859013557e-02" rms="3.8216611742973328e-01" purity="7.5885307788848877e-01" nType="-99"/>
        <Node pos="r" depth="1" NCoef="0" IVar="6" Cut="2.8065759688615799e-02" cType="1" res="-1.8052692711353302e-01" rms="4.2026001214981079e-01" purity="3.3246633410453796e-01" nType="0">
          <Node pos="l" depth="2" NCoef="0" IVar="-1" Cut="0.0000000000000000e+00" cType="1" res="-1.9535468891263008e-02" rms="4.3372753262519836e-01" purity="4.3518748879432678e-01" nType="-99"/>
          <Node pos="r" depth="2" NCoef="0" IVar="-1" Cut="0.0000000000000000e+00" cType="1" res="-7.1538537740707397e-02" rms="3.5161790251731873e-01" purity="1.6759665310382843e-01" nType="-99"/>
        </Node>
      </Node>
    </BinaryTree>
    <BinaryTree type="DecisionTree" boostWeight="1.0000000000000000e+00" itree="9">
      <Node pos="s" depth="0" NCoef="0" IVar="17" Cut="-5.5346856825053692e-03" cType="0" res="6.9367460906505585e-02" rms="4.0522634983062744e-01" purity="6.7755722999572754e-01" nType="0">
        <Node pos="l" depth="1" NCoef="0" IVar="-1" Cut="0.0000000000000000e+00" cType="1" res="3.9869606494903564e-02" rms="3.3788743615150452e-01" purity="8.5488718748092651e-01" nType="-99"/>
        <Node pos="r" depth="1" NCoef="0" IVar="13" Cut="2.4987505748867989e-03" cType="1" res="-7.9531461000442505e-02" rms="4.4655030965805054e-01" purity="4.2013230919837952e-01" nType="0">
          <Node pos="l" depth="2" NCoef="0" IVar="-1" Cut="0.0000000000000000e+00" cType="1" res="-2.7943928726017475e-03" rms="4.4679203629493713e-01" purity="4.9048900604248047e-01" nType="-99"/>
          <Node pos="r" depth="2" NCoef="0" IVar="-1" Cut="0.0000000000000000e+00" cType="1" res="-5.7383004575967789e-02" rms="3.8548532128334045e-01" purity="2.1519519388675690e-01" nType="-99"/>
        </Node>
      </Node>
    </BinaryTree>
    <BinaryTree type="DecisionTree" boostWeight="1.0000000000000000e+00" itree="10">
      <Node pos="s" depth="0" NCoef="0" IVar="6" Cut="3.1214160844683647e-02" cType="1" res="6.2575303018093109e-02" rms="4.0058007836341858e-01" purity="6.7755722999572754e-01" nType="0">
        <Node pos="l" depth="1" NCoef="0" IVar="-1" Cut="0.0000000000000000e+00" cType="1" res="2.7592506259679794e-02" rms="3.7192845344543457e-01" purity="7.5058591365814209e-01" nType="-99"/>
        <Node pos="r" depth="1" NCoef="0" IVar="11" Cut="1.8939198553562164e-01" cType="0" res="-1.7492158710956573e-01" rms="4.2463207244873047e-01" purity="3.8025146722793579e-01" nType="0">
          <Node pos="l" depth="2" NCoef="0" IVar="-1" Cut="0.0000000000000000e+00" cType="1" res="-1.2197460979223251e-02" rms="4.4464826583862305e-01" purity="5.5435883998870850e-01" nType="-99"/>
          <Node pos="r" depth="2" NCoef="0" IVar="-1" Cut="0.0000000000000000e+00" cType="1" res="-7.6476909220218658e-02" rms="3.2736217975616455e-01" purity="1.3610519468784332e-01" nType="-99"/>
        </Node>
      </Node>
    </BinaryTree>
    <BinaryTree type="DecisionTree" boostWeight="1.0000000000000000e+00" itree="11">
      <Node pos="s" depth="0" NCoef="0" IVar="18" Cut="-8.1276083365082741e-03" cType="0" res="5.6377358734607697e-02" rms="3.9649382233619690e-01" purity="6.7755722999572754e-01" nType="0">
        <Node pos="l" depth="1" NCoef="0" IVar="-1" Cut="0.0000000000000000e+00" cType="1" res="2.1075325086712837e-02" rms="3.8264676928520203e-01" purity="7.2423243522644043e-01" nType="-99"/>
        <Node pos="r" depth="1" NCoef="0" IVar="20" Cut="-6.4819571562111378e-03" cType="0" res="-3.2144737243652344e-01" rms="3.4359344840049744e-01" purity="1.7230080068111420e-01" nType="0">
          <Node pos="l" depth="2" NCoef="0" IVar="-1" Cut="0.0000000000000000e+00" cType="1" res="-3.5105831921100616e-02" rms="4.3029189109802246e-01" purity="3.8190954923629761e-01" nType="-99"/>
          <Node pos="r" depth="2" NCoef="0" IVar="-1" Cut="0.0000000000000000e+00" cType="1" res="-8.8380195200443268e-02" rms="2.4967876076698303e-01" purity="6.2762603163719177e-02" nType="-99"/>
        </Node>
      </Node>
    </BinaryTree>
    <BinaryTree type="DecisionTree" boostWeight="1.0000000000000000e+00" itree="12">
      <Node pos="s" depth="0" NCoef="0" IVar="18" Cut="7.8835571184754372e-03" cType="1" res="5.0770796835422516e-02" rms="3.9325273036956787e-01" purity="6.7755722999572754e-01" nType="0">
        <Node pos="l" depth="1" NCoef="0" IVar="-1" Cut="0.0000000000000000e+00" cType="1" res="2.0239243283867836e-02" rms="3.7772887945175171e-01" purity="7.2475445270538330e-01" nType="-99"/>
        <Node pos="r" depth="1" NCoef="0" IVar="20" Cut="5.6615327484905720e-03" cType="1" res="-3.1304222345352173e-01" rms="3.6172938346862793e-01" purity="1.9807942211627960e-01" nType="0">
          <Node pos="l" depth="2" NCoef="0" IVar="-1" Cut="0.0000000000000000e+00" cType="1" res="-3.1836949288845062e-02" rms="4.3867406249046326e-01" purity="4.1542884707450867e-01" nType="-99"/>
          <Node pos="r" depth="2" NCoef="0" IVar="-1" Cut="0.0000000000000000e+00" cType="1" res="-8.6702451109886169e-02" rms="2.7771580219268799e-01" purity="8.6270645260810852e-02" nType="-99"/>
        </Node>
      </Node>
    </BinaryTree>
    <BinaryTree type="DecisionTree" boostWeight="1.0000000000000000e+00" itree="13">
      <Node pos="s" depth="0" NCoef="0" IVar="17" Cut="-1.8222061917185783e-02" cType="0" res="4.5728102326393127e-02" rms="3.8999265432357788e-01" purity="6.7755722999572754e-01" nType="0">
        <Node pos="l" depth="1" NCoef="0" IVar="-1" Cut="0.0000000000000000e+00" cType="1" res="2.4603722617030144e-02" rms="3.6458414793014526e-01" purity="7.8591012954711914e-01" nType="-99"/>
        <Node pos="r" depth="1" NCoef="0" IVar="13" Cut="2.4987505748867989e-03" cType="1" res="-1.6204027831554413e-01" rms="4.1019430756568909e-01" purity="2.7635639905929565e-01" nType="0">
          <Node pos="l" depth="2" NCoef="0" IVar="-1" Cut="0.0000000000000000e+00" cType="1" res="-2.3051707074046135e-02" rms="4.2893719673156738e-01" purity="3.3607348799705505e-01" nType="-99"/>
          <Node pos="r" depth="2" NCoef="0" IVar="-1" Cut="0.0000000000000000e+00" cType="1" res="-6.1995118856430054e-02" rms="3.2568857073783875e-01" purity="1.3069120049476624e-01" nType="-99"/>
        </Node>
      </Node>
    </BinaryTree>
    <BinaryTree type="DecisionTree" boostWeight="1.0000000000000000e+00" itree="14">
      <Node pos="s" depth="0" NCoef="0" IVar="11" Cut="1.6264808177947998e-01" cType="0" res="4.1204851120710373e-02" rms="3.8710376620292664e-01" purity="6.7755722999572754e-01" nType="0">
        <Node pos="l" depth="1" NCoef="0" IVar="-1" Cut="0.0000000000000000e+00" cType="1" res="2.3335916921496391e-02" rms="3.6493304371833801e-01" purity="7.6479029655456543e-01" nType="-99"/>
        <Node pos="r" depth="1" NCoef="0" IVar="16" Cut="9.1295576095581055e-01" cType="0" res="-1.5951389074325562e-01" rms="3.9793771505355835e-01" purity="3.6369124054908752e-01" nType="0">
          <Node pos="l" depth="2" NCoef="0" IVar="-1" Cut="0.0000000000000000e+00" cType="1" res="-1.7224937677383423e-02" rms="4.0034702420234680e-01" purity="4.6793809533119202e-01" nType="-99"/>
          <Node pos="r" depth="2" NCoef="0" IVar="-1" Cut="0.0000000000000000e+00" cType="1" res="-8.7520234286785126e-02" rms="2.8492525219917297e-01" purity="8.4791719913482666e-02" nType="-99"/>
        </Node>
      </Node>
    </BinaryTree>
    <BinaryTree type="DecisionTree" boostWeight="1.0000000000000000e+00" itree="15">
      <Node pos="s" depth="0" NCoef="0" IVar="13" Cut="1.0019990205764771e+00" cType="1" res="3.7129867821931839e-02" rms="3.8349589705467224e-01" purity="6.7755722999572754e-01" nType="0">
        <Node pos="l" depth="1" NCoef="0" IVar="-1" Cut="0.0000000000000000e+00" cType="1" res="1.4096981845796108e-02" rms="3.7277880311012268e-01" purity="7.0307236909866333e-01" nType="-99"/>
        <Node pos="r" depth="1" NCoef="0" IVar="17" Cut="-1.1181336827576160e-02" cType="0" res="-4.8163130879402161e-01" rms="2.5691685080528259e-01" purity="5.1062244921922684e-02" nType="0">
          <Node pos="l" depth="2" NCoef="0" IVar="-1" Cut="0.0000000000000000e+00" cType="1" res="-1.5055869519710541e-01" rms="2.5854235887527466e-01" purity="7.1808509528636932e-02" nType="-99"/>
          <Node pos="r" depth="2" NCoef="0" IVar="-1" Cut="0.0000000000000000e+00" cType="1" res="-8.1353254616260529e-02" rms="2.0096963644027710e-01" purity="3.6012861877679825e-02" nType="-99"/>
        </Node>
      </Node>
    </BinaryTree>
    <BinaryTree type="DecisionTree" boostWeight="1.0000000000000000e+00" itree="16">
      <Node pos="s" depth="0" NCoef="0" IVar="18" Cut="-6.1262124218046665e-03" cType="0" res="3.3479470759630203e-02" rms="3.8079783320426941e-01" purity="6.7755722999572754e-01" nType="0">
        <Node pos="l" depth="1" NCoef="0" IVar="-1" Cut="0.0000000000000000e+00" cType="1" res="1.7483992502093315e-02" rms="3.6528530716896057e-01" purity="7.3335868120193481e-01" nType="-99"/>
        <Node pos="r" depth="1" NCoef="0" IVar="20" Cut="-6.4819571562111378e-03" cType="0" res="-2.4830885231494904e-01" rms="3.7580791115760803e-01" purity="2.6156121492385864e-01" nType="0">
          <Node pos="l" depth="2" NCoef="0" IVar="-1" Cut="0.0000000000000000e+00" cType="1" res="-2.3394696414470673e-02" rms="4.2877319455146790e-01" purity="4.8053729534149170e-01" nType="-99"/>
          <Node pos="r" depth="2" NCoef="0" IVar="-1" Cut="0.0000000000000000e+00" cType="1" res="-8.2258537411689758e-02" rms="2.7311244606971741e-01" purity="8.2492716610431671e-02" nType="-99"/>
        </Node>
      </Node>
    </BinaryTree>
    <BinaryTree type="DecisionTree" boostWeight="1.0000000000000000e+00" itree="17">
      <Node pos="s" depth="0" NCoef="0" IVar="18" Cut="5.8821612037718296e-03" cType="1" res="3.0146794393658638e-02" rms="3.7783497571945190e-01" purity="6.7755722999572754e-01" nType="0">
        <Node pos="l" depth="1" NCoef="0" IVar="-1" Cut="0.0000000000000000e+00" cType="1" res="1.7144471406936646e-02" rms="3.6039209365844727e-01" purity="7.3391115665435791e-01" nType="-99"/>
        <Node pos="r" depth="1" NCoef="0" IVar="20" Cut="5.6615327484905720e-03" cType="1" res="-2.4216210842132568e-01" rms="3.8497671484947205e-01" purity="2.8286248445510864e-01" nType="0">
          <Node pos="l" depth="2" NCoef="0" IVar="-1" Cut="0.0000000000000000e+00" cType="1" res="-1.9450671970844269e-02" rms="4.2823678255081177e-01" purity="5.1284855604171753e-01" nType="-99"/>
          <Node pos="r" depth="2" NCoef="0" IVar="-1" Cut="0.0000000000000000e+00" cType="1" res="-8.0151297152042389e-02" rms="2.9925191402435303e-01" purity="1.1145069450139999e-01" nType="-99"/>
        </Node>
      </Node>
    </BinaryTree>
    <BinaryTree type="DecisionTree" boostWeight="1.0000000000000000e+00" itree="18">
      <Node pos="s" depth="0" NCoef="0" IVar="0" Cut="2.7788352221250534e-02" cType="1" res="2.7151830494403839e-02" rms="3.7479916214942932e-01" purity="6.7755722999572754e-01" nType="0">
        <Node pos="l" depth="1" NCoef="0" IVar="-1" Cut="0.0000000000000000e+00" cType="1" res="1.6647389158606529e-02" rms="3.5899943113327026e-01" purity="7.4274957180023193e-01" nType="-99"/>
        <Node pos="r" depth="1" NCoef="0" IVar="17" Cut="1.8799606477841735e-03" cType="1" res="-2.2259791195392609e-01" rms="3.7676176428794861e-01" purity="2.6332724094390869e-01" nType="0">
          <Node pos="l" depth="2" NCoef="0" IVar="-1" Cut="0.0000000000000000e+00" cType="1" res="-4.5646738260984421e-02" rms="3.6860749125480652e-01" purity="2.7153670787811279e-01" nType="-99"/>
          <Node pos="r" depth="2" NCoef="0" IVar="-1" Cut="0.0000000000000000e+00" cType="1" res="-9.9068708717823029e-02" rms="3.7115547060966492e-01" purity="1.9499999284744263e-01" nType="-99"/>
        </Node>
      </Node>
    </BinaryTree>
    <BinaryTree type="DecisionTree" boostWeight="1.0000000000000000e+00" itree="19">
      <Node pos="s" depth="0" NCoef="0" IVar="6" Cut="2.5187220424413681e-02" cType="1" res="2.4477165192365646e-02" rms="3.7232887744903564e-01" purity="6.7755722999572754e-01" nType="0">
        <Node pos="l" depth="1" NCoef="0" IVar="-1" Cut="0.0000000000000000e+00" cType="1" res="2.0327195525169373e-02" rms="3.4506011009216309e-01" purity="7.6193344593048096e-01" nType="-99"/>
        <Node pos="r" depth="1" NCoef="0" IVar="11" Cut="2.0365200936794281e-01" cType="0" res="-1.4273248612880707e-01" rms="4.0053194761276245e-01" purity="4.2298001050949097e-01" nType="0">
          <Node pos="l" depth="2" NCoef="0" IVar="-1" Cut="0.0000000000000000e+00" cType="1" res="-1.2455166317522526e-02" rms="4.1618776321411133e-01" purity="5.9083276987075806e-01" nType="-99"/>
          <Node pos="r" depth="2" NCoef="0" IVar="-1" Cut="0.0000000000000000e+00" cType="1" res="-6.4602039754390717e-02" rms="3.3498248457908630e-01" purity="1.7828340828418732e-01" nType="-99"/>
        </Node>
      </Node>
    </BinaryTree>
    <BinaryTree type="DecisionTree" boostWeight="1.0000000000000000e+00" itree="20">
      <Node pos="s" depth="0" NCoef="0" IVar="13" Cut="1.0019990205764771e+00" cType="1" res="2.2059062495827675e-02" rms="3.6935135722160339e-01" purity="6.7755722999572754e-01" nType="0">
        <Node pos="l" depth="1" NCoef="0" IVar="-1" Cut="0.0000000000000000e+00" cType="1" res="1.0430117137730122e-02" rms="3.6069908738136292e-01" purity="7.0307236909866333e-01" nType="-99"/>
        <Node pos="r" depth="1" NCoef="0" IVar="17" Cut="-1.1356391012668610e-02" cType="0" res="-4.4449260830879211e-01" rms="2.5491508841514587e-01" purity="5.1062244921922684e-02" nType="0">
          <Node pos="l" depth="2" NCoef="0" IVar="-1" Cut="0.0000000000000000e+00" cType="1" res="-1.2941545248031616e-01" rms="2.6032093167304993e-01" purity="7.1491613984107971e-02" nType="-99"/>
          <Node pos="r" depth="2" NCoef="0" IVar="-1" Cut="0.0000000000000000e+00" cType="1" res="-7.7980145812034607e-02" rms="2.0532134175300598e-01" purity="3.6129031330347061e-02" nType="-99"/>
        </Node>
      </Node>
    </BinaryTree>
    <BinaryTree type="DecisionTree" boostWeight="1.0000000000000000e+00" itree="21">
      <Node pos="s" depth="0" NCoef="0" IVar="17" Cut="-6.4409268088638783e-03" cType="0" res="1.9881898537278175e-02" rms="3.6713287234306335e-01" purity="6.7755722999572754e-01" nType="0">
        <Node pos="l" depth="1" NCoef="0" IVar="-1" Cut="0.0000000000000000e+00" cType="1" res="2.5938903912901878e-02" rms="3.1589642167091370e-01" purity="8.4939759969711304e-01" nType="-99"/>
        <Node pos="r" depth="1" NCoef="0" IVar="13" Cut="2.4987505748867989e-03" cType="1" res="-9.8476529121398926e-02" rms="4.1057443618774414e-01" purity="4.0025159716606140e-01" nType="0">
          <Node pos="l" depth="2" NCoef="0" IVar="-1" Cut="0.0000000000000000e+00" cType="1" res="-1.0551786050200462e-02" rms="4.1502839326858521e-01" purity="4.6959251165390015e-01" nType="-99"/>
          <Node pos="r" depth="2" NCoef="0" IVar="-1" Cut="0.0000000000000000e+00" cType="1" res="-5.4277777671813965e-02" rms="3.5920241475105286e-01" purity="2.0191317796707153e-01" nType="-99"/>
        </Node>
      </Node>
    </BinaryTree>
    <BinaryTree type="DecisionTree" boostWeight="1.0000000000000000e+00" itree="22">
      <Node pos="s" depth="0" NCoef="0" IVar="18" Cut="-6.1262124218046665e-03" cType="0" res="1.7955606803297997e-02" rms="3.6447501182556152e-01" purity="6.7755722999572754e-01" nType="0">
        <Node pos="l" depth="1" NCoef="0" IVar="-1" Cut="0.0000000000000000e+00" cType="1" res="1.3359752483665943e-02" rms="3.5142183303833008e-01" purity="7.3335868120193481e-01" nType="-99"/>
        <Node pos="r" depth="1" NCoef="0" IVar="20" Cut="-6.4819571562111378e-03" cType="0" res="-2.2843834757804871e-01" rms="3.6558544635772705e-01" purity="2.6156121492385864e-01" nType="0">
          <Node pos="l" depth="2" NCoef="0" IVar="-1" Cut="0.0000000000000000e+00" cType="1" res="-2.4050919339060783e-02" rms="4.2078351974487305e-01" purity="4.8053729534149170e-01" nType="-99"/>
          <Node pos="r" depth="2" NCoef="0" IVar="-1" Cut="0.0000000000000000e+00" cType="1" res="-7.6824754476547241e-02" rms="2.7292147278785706e-01" purity="8.2492716610431671e-02" nType="-99"/>
        </Node>
      </Node>
    </BinaryTree>
    <BinaryTree type="DecisionTree" boostWeight="1.0000000000000000e+00" itree="23">
      <Node pos="s" depth="0" NCoef="0" IVar="18" Cut="5.8821612037718296e-03" cType="1" res="1.6156269237399101e-02" rms="3.6213353276252747e-01" purity="6.7755722999572754e-01" nType="0">
        <Node pos="l" depth="1" NCoef="0" IVar="-1" Cut="0.0000000000000000e+00" cType="1" res="1.3258374296128750e-02" rms="3.4740194678306580e-01" purity="7.3391115665435791e-01" nType="-99"/>
        <Node pos="r" depth="1" NCoef="0" IVar="20" Cut="5.6615327484905720e-03" cType="1" res="-2.2102680802345276e-01" rms="3.7424755096435547e-01" purity="2.8286248445510864e-01" nType="0">
          <Node pos="l" depth="2" NCoef="0" IVar="-1" Cut="0.0000000000000000e+00" cType="1" res="-1.9969288259744644e-02" rms="4.1942545771598816e-01" purity="5.1284855604171753e-01" nType="-99"/>
          <Node pos="r" depth="2" NCoef="0" IVar="-1" Cut="0.0000000000000000e+00" cType="1" res="-7.4185766279697418e-02" rms="2.9836755990982056e-01" purity="1.1145069450139999e-01" nType="-99"/>
        </Node>
      </Node>
    </BinaryTree>
    <BinaryTree type="DecisionTree" boostWeight="1.0000000000000000e+00" itree="24">
      <Node pos="s" depth="0" NCoef="0" IVar="6" Cut="4.0524438023567200e-02" cType="1" res="1.4540784060955048e-02" rms="3.5975328087806702e-01" purity="6.7755722999572754e-01" nType="0">
        <Node pos="l" depth="1" NCoef="0" IVar="-1" Cut="0.0000000000000000e+00" cType="1" res="1.3025133870542049e-02" rms="3.4471753239631653e-01" purity="7.3464167118072510e-01" nType="-99"/>
        <Node pos="r" depth="1" NCoef="0" IVar="11" Cut="2.3991294205188751e-01" cType="0" res="-1.9876606762409210e-01" rms="3.7737342715263367e-01" purity="3.2288268208503723e-01" nType="0">
          <Node pos="l" depth="2" NCoef="0" IVar="-1" Cut="0.0000000000000000e+00" cType="1" res="-2.6011634618043900e-02" rms="4.1753035783767700e-01" purity="5.1456308364868164e-01" nType="-99"/>
          <Node pos="r" depth="2" NCoef="0" IVar="-1" Cut="0.0000000000000000e+00" cType="1" res="-7.1226999163627625e-02" rms="3.0296728014945984e-01" purity="1.2392795830965042e-01" nType="-99"/>
        </Node>
      </Node>
    </BinaryTree>
    <BinaryTree type="DecisionTree" boostWeight="1.0000000000000000e+00" itree="25">
      <Node pos="s" depth="0" NCoef="0" IVar="0" Cut="2.6815347373485565e-02" cType="1" res="1.3091063126921654e-02" rms="3.5761284828186035e-01" purity="6.7755722999572754e-01" nType="0">
        <Node pos="l" depth="1" NCoef="0" IVar="-1" Cut="0.0000000000000000e+00" cType="1" res="1.4613126404583454e-02" rms="3.4075075387954712e-01" purity="7.6000148057937622e-01" nType="-99"/>
        <Node pos="r" depth="1" NCoef="0" IVar="0" Cut="2.9096258804202080e-02" cType="1" res="-1.5521687269210815e-01" rms="3.7557387351989746e-01" purity="3.3877336978912354e-01" nType="0">
          <Node pos="l" depth="2" NCoef="0" IVar="-1" Cut="0.0000000000000000e+00" cType="1" res="-2.2313797846436501e-02" rms="3.8566395640373230e-01" purity="4.4650423526763916e-01" nType="-99"/>
          <Node pos="r" depth="2" NCoef="0" IVar="-1" Cut="0.0000000000000000e+00" cType="1" res="-5.7681798934936523e-02" rms="3.4459799528121948e-01" purity="2.0010226964950562e-01" nType="-99"/>
        </Node>
      </Node>
    </BinaryTree>
    <BinaryTree type="DecisionTree" boostWeight="1.0000000000000000e+00" itree="26">
      <Node pos="s" depth="0" NCoef="0" IVar="13" Cut="1.0019990205764771e+00" cType="1" res="1.1796096339821815e-02" rms="3.5568934679031372e-01" purity="6.7755722999572754e-01" nType="0">
        <Node pos="l" depth="1" NCoef="0" IVar="-1" Cut="0.0000000000000000e+00" cType="1" res="7.6181064359843731e-03" rms="3.4923613071441650e-01" purity="7.0307236909866333e-01" nType="-99"/>
        <Node pos="r" depth="1" NCoef="0" IVar="17" Cut="-9.0806856751441956e-03" cType="0" res="-3.9361971616744995e-01" rms="2.5914317369461060e-01" purity="5.1062244921922684e-02" nType="0">
          <Node pos="l" depth="2" NCoef="0" IVar="-1" Cut="0.0000000000000000e+00" cType="1" res="-1.1980699002742767e-01" rms="2.6918295025825500e-01" purity="7.6452597975730896e-02" nType="-99"/>
          <Node pos="r" depth="2" NCoef="0" IVar="-1" Cut="0.0000000000000000e+00" cType="1" res="-7.2838768362998962e-02" rms="2.1001246571540833e-01" purity="3.6427732557058334e-02" nType="-99"/>
        </Node>
      </Node>
    </BinaryTree>
    <BinaryTree type="DecisionTree" boostWeight="1.0000000000000000e+00" itree="27">
      <Node pos="s" depth="0" NCoef="0" IVar="11" Cut="1.2269717454910278e-01" cType="0" res="1.0625502094626427e-02" rms="3.5391348600387573e-01" purity="6.7755722999572754e-01" nType="0">
        <Node pos="l" depth="1" NCoef="0" IVar="-1" Cut="0.0000000000000000e+00" cType="1" res="1.2928041629493237e-02" rms="3.4226301312446594e-01" purity="7.5278508663177490e-01" nType="-99"/>
        <Node pos="r" depth="1" NCoef="0" IVar="16" Cut="9.1295576095581055e-01" cType="0" res="-1.6879360377788544e-01" rms="3.5509258508682251e-01" purity="3.1010213494300842e-01" nType="0">
          <Node pos="l" depth="2" NCoef="0" IVar="-1" Cut="0.0000000000000000e+00" cType="1" res="-2.4900339543819427e-02" rms="3.6309665441513062e-01" purity="4.0882822871208191e-01" nType="-99"/>
          <Node pos="r" depth="2" NCoef="0" IVar="-1" Cut="0.0000000000000000e+00" cType="1" res="-8.0273084342479706e-02" rms="2.7380350232124329e-01" purity="8.1864692270755768e-02" nType="-99"/>
        </Node>
      </Node>
    </BinaryTree>
    <BinaryTree type="DecisionTree" boostWeight="1.0000000000000000e+00" itree="28">
      <Node pos="s" depth="0" NCoef="0" IVar="17" Cut="-2.3659510537981987e-02" cType="0" res="9.5624281093478203e-03" rms="3.5176432132720947e-01" purity="6.7755722999572754e-01" nType="0">
        <Node pos="l" depth="1" NCoef="0" IVar="-1" Cut="0.0000000000000000e+00" cType="1" res="1.3039579614996910e-02" rms="3.3461210131645203e-01" purity="7.6685959100723267e-01" nType="-99"/>
        <Node pos="r" depth="1" NCoef="0" IVar="3" Cut="7.9670661687850952e-01" cType="0" res="-1.6524747014045715e-01" rms="3.7802129983901978e-01" purity="2.5178766250610352e-01" nType="0">
          <Node pos="l" depth="2" NCoef="0" IVar="-1" Cut="0.0000000000000000e+00" cType="1" res="-2.1149750798940659e-02" rms="4.0627887845039368e-01" purity="3.4738588333129883e-01" nType="-99"/>
          <Node pos="r" depth="2" NCoef="0" IVar="-1" Cut="0.0000000000000000e+00" cType="1" res="-5.5535424500703812e-02" rms="3.3097240328788757e-01" purity="1.5353122353553772e-01" nType="-99"/>
        </Node>
      </Node>
    </BinaryTree>
    <BinaryTree type="DecisionTree" boostWeight="1.0000000000000000e+00" itree="29">
      <Node pos="s" depth="0" NCoef="0" IVar="18" Cut="-6.1262124218046665e-03" cType="0" res="8.6046438664197922e-03" rms="3.5006284713745117e-01" purity="6.7755722999572754e-01" nType="0">
        <Node pos="l" depth="1" NCoef="0" IVar="-1" Cut="0.0000000000000000e+00" cType="1" res="1.0420049540698528e-02" rms="3.3902058005332947e-01" purity="7.3335868120193481e-01" nType="-99"/>
        <Node pos="r" depth="1" NCoef="0" IVar="20" Cut="-6.4819571562111378e-03" cType="0" res="-2.0587335526943207e-01" rms="3.5650742053985596e-01" purity="2.6156121492385864e-01" nType="0">
          <Node pos="l" depth="2" NCoef="0" IVar="-1" Cut="0.0000000000000000e+00" cType="1" res="-2.3987984284758568e-02" rms="4.1338399052619934e-01" purity="4.8053729534149170e-01" nType="-99"/>
          <Node pos="r" depth="2" NCoef="0" IVar="-1" Cut="0.0000000000000000e+00" cType="1" res="-7.1650728583335876e-02" rms="2.7265933156013489e-01" purity="8.2492716610431671e-02" nType="-99"/>
        </Node>
      </Node>
    </BinaryTree>
    <BinaryTree type="DecisionTree" boostWeight="1.0000000000000000e+00" itree="30">
      <Node pos="s" depth="0" NCoef="0" IVar="18" Cut="5.8821612037718296e-03" cType="1" res="7.7299163676798344e-03" rms="3.4821316599845886e-01" purity="6.7755722999572754e-01" nType="0">
        <Node pos="l" depth="1" NCoef="0" IVar="-1" Cut="0.0000000000000000e+00" cType="1" res="1.0469601489603519e-02" rms="3.3563402295112610e-01" purity="7.3391115665435791e-01" nType="-99"/>
        <Node pos="r" depth="1" NCoef="0" IVar="20" Cut="5.6615327484905720e-03" cType="1" res="-1.9820865988731384e-01" rms="3.6473968625068665e-01" purity="2.8286248445510864e-01" nType="0">
          <Node pos="l" depth="2" NCoef="0" IVar="-1" Cut="0.0000000000000000e+00" cType="1" res="-2.0081011578440666e-02" rms="4.1170939803123474e-01" purity="5.1284855604171753e-01" nType="-99"/>
          <Node pos="r" depth="2" NCoef="0" IVar="-1" Cut="0.0000000000000000e+00" cType="1" res="-6.8639434874057770e-02" rms="2.9730322957038879e-01" purity="1.1145069450139999e-01" nType="-99"/>
        </Node>
      </Node>
    </BinaryTree>
    <BinaryTree type="DecisionTree" boostWeight="1.0000000000000000e+00" itree="31">
      <Node pos="s" depth="0" NCoef="0" IVar="13" Cut="2.4987505748867989e-03" cType="1" res="6.9462773390114307e-03" rms="3.4635129570960999e-01" purity="6.7755722999572754e-01" nType="0">
        <Node pos="l" depth="1" NCoef="0" IVar="-1" Cut="0.0000000000000000e+00" cType="1" res="1.2317506596446037e-02" rms="3.2607871294021606e-01" purity="7.3625510931015015e-01" nType="-99"/>
        <Node pos="r" depth="1" NCoef="0" IVar="14" Cut="-9.9900054931640625e-01" cType="1" res="-1.5500782430171967e-01" rms="3.8507726788520813e-01" purity="4.1718861460685730e-01" nType="0">
          <Node pos="l" depth="2" NCoef="0" IVar="-1" Cut="0.0000000000000000e+00" cType="1" res="-2.4064499884843826e-02" rms="3.8199034333229065e-01" purity="5.0871634483337402e-01" nType="-99"/>
          <Node pos="r" depth="2" NCoef="0" IVar="-1" Cut="0.0000000000000000e+00" cType="1" res="-8.3929397165775299e-02" rms="3.2541471719741821e-01" purity="1.4199492335319519e-01" nType="-99"/>
        </Node>
      </Node>
    </BinaryTree>
    <BinaryTree type="DecisionTree" boostWeight="1.0000000000000000e+00" itree="32">
      <Node pos="s" depth="0" NCoef="0" IVar="6" Cut="2.3613018915057182e-02" cType="1" res="6.2669371254742146e-03" rms="3.4419697523117065e-01" purity="6.7755722999572754e-01" nType="0">
        <Node pos="l" depth="1" NCoef="0" IVar="-1" Cut="0.0000000000000000e+00" cType="1" res="1.4595715329051018e-02" rms="3.2127448916435242e-01" purity="7.6509749889373779e-01" nType="-99"/>
        <Node pos="r" depth="1" NCoef="0" IVar="11" Cut="2.3942178487777710e-01" cType="0" res="-1.1592664569616318e-01" rms="3.7445834279060364e-01" purity="4.3601271510124207e-01" nType="0">
          <Node pos="l" depth="2" NCoef="0" IVar="-1" Cut="0.0000000000000000e+00" cType="1" res="-1.1842647567391396e-02" rms="3.8918522000312805e-01" purity="6.0600250959396362e-01" nType="-99"/>
          <Node pos="r" depth="2" NCoef="0" IVar="-1" Cut="0.0000000000000000e+00" cType="1" res="-5.4216969758272171e-02" rms="3.3136266469955444e-01" purity="2.0898962020874023e-01" nType="-99"/>
        </Node>
      </Node>
    </BinaryTree>
    <BinaryTree type="DecisionTree" boostWeight="1.0000000000000000e+00" itree="33">
      <Node pos="s" depth="0" NCoef="0" IVar="18" Cut="-8.1276083365082741e-03" cType="0" res="5.6483456864953041e-03" rms="3.4228858351707458e-01" purity="6.7755722999572754e-01" nType="0">
        <Node pos="l" depth="1" NCoef="0" IVar="-1" Cut="0.0000000000000000e+00" cType="1" res="7.8546134755015373e-03" rms="3.3593612909317017e-01" purity="7.2423243522644043e-01" nType="-99"/>
        <Node pos="r" depth="1" NCoef="0" IVar="18" Cut="-1.3357990421354771e-02" cType="0" res="-2.3048315942287445e-01" rms="3.2076531648635864e-01" purity="1.7230080068111420e-01" nType="0">
          <Node pos="l" depth="2" NCoef="0" IVar="-1" Cut="0.0000000000000000e+00" cType="1" res="-4.1766360402107239e-02" rms="3.5671669244766235e-01" purity="2.7421653270721436e-01" nType="-99"/>
          <Node pos="r" depth="2" NCoef="0" IVar="-1" Cut="0.0000000000000000e+00" cType="1" res="-7.1996562182903290e-02" rms="2.6923465728759766e-01" purity="7.6588630676269531e-02" nType="-99"/>
        </Node>
      </Node>
    </BinaryTree>
    <BinaryTree type="DecisionTree" boostWeight="1.0000000000000000e+00" itree="34">
      <Node pos="s" depth="0" NCoef="0" IVar="14" Cut="-9.9900048971176147e-01" cType="1" res="5.0686211325228214e-03" rms="3.4087598323822021e-01" purity="6.7755722999572754e-01" nType="0">
        <Node pos="l" depth="1" NCoef="0" IVar="-1" Cut="0.0000000000000000e+00" cType="1" res="8.7663382291793823e-03" rms="3.2482984662055969e-01" purity="7.1528792381286621e-01" nType="-99"/>
        <Node pos="r" depth="1" NCoef="0" IVar="13" Cut="2.4987505748867989e-03" cType="1" res="-1.9513821601867676e-01" rms="3.9436757564544678e-01" purity="3.7915799021720886e-01" nType="0">
          <Node pos="l" depth="2" NCoef="0" IVar="-1" Cut="0.0000000000000000e+00" cType="1" res="-2.9517568647861481e-02" rms="4.1620078682899475e-01" purity="5.4331576824188232e-01" nType="-99"/>
          <Node pos="r" depth="2" NCoef="0" IVar="-1" Cut="0.0000000000000000e+00" cType="1" res="-7.7125430107116699e-02" rms="3.2463333010673523e-01" purity="1.4199492335319519e-01" nType="-99"/>
        </Node>
      </Node>
    </BinaryTree>
    <BinaryTree type="DecisionTree" boostWeight="1.0000000000000000e+00" itree="35">
      <Node pos="s" depth="0" NCoef="0" IVar="18" Cut="7.8835571184754372e-03" cType="1" res="4.5665400102734566e-03" rms="3.3924916386604309e-01" purity="6.7755722999572754e-01" nType="0">
        <Node pos="l" depth="1" NCoef="0" IVar="-1" Cut="0.0000000000000000e+00" cType="1" res="7.7580786310136318e-03" rms="3.3131495118141174e-01" purity="7.2475445270538330e-01" nType="-99"/>
        <Node pos="r" depth="1" NCoef="0" IVar="18" Cut="1.0923244990408421e-02" cType="1" res="-2.2060251235961914e-01" rms="3.3682063221931458e-01" purity="1.9807942211627960e-01" nType="0">
          <Node pos="l" depth="2" NCoef="0" IVar="-1" Cut="0.0000000000000000e+00" cType="1" res="-3.0153466388583183e-02" rms="3.8212975859642029e-01" purity="3.5919135808944702e-01" nType="-99"/>
          <Node pos="r" depth="2" NCoef="0" IVar="-1" Cut="0.0000000000000000e+00" cType="1" res="-6.7252978682518005e-02" rms="2.9714712500572205e-01" purity="1.1277072131633759e-01" nType="-99"/>
        </Node>
      </Node>
    </BinaryTree>
    <BinaryTree type="DecisionTree" boostWeight="1.0000000000000000e+00" itree="36">
      <Node pos="s" depth="0" NCoef="0" IVar="11" Cut="1.6564439237117767e-01" cType="0" res="4.0966016240417957e-03" rms="3.3783286809921265e-01" purity="6.7755722999572754e-01" nType="0">
        <Node pos="l" depth="1" NCoef="0" IVar="-1" Cut="0.0000000000000000e+00" cType="1" res="1.1823433451354504e-02" rms="3.2527139782905579e-01" purity="7.6546609401702881e-01" nType="-99"/>
        <Node pos="r" depth="1" NCoef="0" IVar="16" Cut="9.1295576095581055e-01" cType="0" res="-1.2309198081493378e-01" rms="3.5024809837341309e-01" purity="3.6816084384918213e-01" nType="0">
          <Node pos="l" depth="2" NCoef="0" IVar="-1" Cut="0.0000000000000000e+00" cType="1" res="-1.6706753522157669e-02" rms="3.5286009311676025e-01" purity="4.7262376546859741e-01" nType="-99"/>
          <Node pos="r" depth="2" NCoef="0" IVar="-1" Cut="0.0000000000000000e+00" cType="1" res="-7.4934691190719604e-02" rms="2.8310272097587585e-01" purity="8.6299367249011993e-02" nType="-99"/>
        </Node>
      </Node>
    </BinaryTree>
    <BinaryTree type="DecisionTree" boostWeight="1.0000000000000000e+00" itree="37">
      <Node pos="s" depth="0" NCoef="0" IVar="17" Cut="-4.6284445561468601e-03" cType="0" res="3.6784659605473280e-03" rms="3.3598035573959351e-01" purity="6.7755722999572754e-01" nType="0">
        <Node pos="l" depth="1" NCoef="0" IVar="-1" Cut="0.0000000000000000e+00" cType="1" res="2.0838703960180283e-02" rms="2.8539550304412842e-01" purity="8.5956847667694092e-01" nType="-99"/>
        <Node pos="r" depth="1" NCoef="0" IVar="14" Cut="-9.9900054931640625e-01" cType="1" res="-7.2546638548374176e-02" rms="3.7793797254562378e-01" purity="4.4421514868736267e-01" nType="0">
          <Node pos="l" depth="2" NCoef="0" IVar="-1" Cut="0.0000000000000000e+00" cType="1" res="-1.0607610456645489e-02" rms="3.7258088588714600e-01" purity="4.8671671748161316e-01" nType="-99"/>
          <Node pos="r" depth="2" NCoef="0" IVar="-1" Cut="0.0000000000000000e+00" cType="1" res="-5.2375093102455139e-02" rms="3.6963570117950439e-01" purity="2.4469295144081116e-01" nType="-99"/>
        </Node>
      </Node>
    </BinaryTree>
    <BinaryTree type="DecisionTree" boostWeight="1.0000000000000000e+00" itree="38">
      <Node pos="s" depth="0" NCoef="0" IVar="13" Cut="1.0019990205764771e+00" cType="1" res="3.3476818352937698e-03" rms="3.3439871668815613e-01" purity="6.7755722999572754e-01" nType="0">
        <Node pos="l" depth="1" NCoef="0" IVar="-1" Cut="0.0000000000000000e+00" cType="1" res="4.9238489009439945e-03" rms="3.3019670844078064e-01" purity="7.0307236909866333e-01" nType="-99"/>
        <Node pos="r" depth="1" NCoef="0" IVar="17" Cut="-9.0806856751441956e-03" cType="0" res="-3.2361418008804321e-01" rms="2.6293444633483887e-01" purity="5.1062244921922684e-02" nType="0">
          <Node pos="l" depth="2" NCoef="0" IVar="-1" Cut="0.0000000000000000e+00" cType="1" res="-1.0323644429445267e-01" rms="2.7500993013381958e-01" purity="7.6452597975730896e-02" nType="-99"/>
          <Node pos="r" depth="2" NCoef="0" IVar="-1" Cut="0.0000000000000000e+00" cType="1" res="-6.4605437219142914e-02" rms="2.1009735763072968e-01" purity="3.6427732557058334e-02" nType="-99"/>
        </Node>
      </Node>
    </BinaryTree>
    <BinaryTree type="DecisionTree" boostWeight="1.0000000000000000e+00" itree="39">
      <Node pos="s" depth="0" NCoef="0" IVar="0" Cut="2.6815347373485565e-02" cType="1" res="3.0063029844313860e-03" rms="3.3309689164161682e-01" purity="6.7755722999572754e-01" nType="0">
        <Node pos="l" depth="1" NCoef="0" IVar="-1" Cut="0.0000000000000000e+00" cType="1" res="1.0701803490519524e-02" rms="3.1865710020065308e-01" purity="7.6000148057937622e-01" nType="-99"/>
        <Node pos="r" depth="1" NCoef="0" IVar="17" Cut="1.8799606477841735e-03" cType="1" res="-1.3024264574050903e-01" rms="3.5714182257652283e-01" purity="3.3877336978912354e-01" nType="0">
          <Node pos="l" depth="2" NCoef="0" IVar="-1" Cut="0.0000000000000000e+00" cType="1" res="-2.8855096548795700e-02" rms="3.4671211242675781e-01" purity="3.4958413243293762e-01" nType="-99"/>
          <Node pos="r" depth="2" NCoef="0" IVar="-1" Cut="0.0000000000000000e+00" cType="1" res="-8.3923518657684326e-02" rms="3.7382438778877258e-01" purity="2.3589341342449188e-01" nType="-99"/>
        </Node>
      </Node>
    </BinaryTree>
    <BinaryTree type="DecisionTree" boostWeight="1.0000000000000000e+00" itree="40">
      <Node pos="s" depth="0" NCoef="0" IVar="20" Cut="5.6615327484905720e-03" cType="1" res="2.7231867425143719e-03" rms="3.3168670535087585e-01" purity="6.7755722999572754e-01" nType="0">
        <Node pos="l" depth="1" NCoef="0" IVar="-1" Cut="0.0000000000000000e+00" cType="1" res="8.2666408270597458e-03" rms="3.2079678773880005e-01" purity="7.3366004228591919e-01" nType="-99"/>
        <Node pos="r" depth="1" NCoef="0" IVar="18" Cut="3.0335495248436928e-03" cType="1" res="-1.6463373601436615e-01" rms="3.5545647144317627e-01" purity="2.9501652717590332e-01" nType="0">
          <Node pos="l" depth="2" NCoef="0" IVar="-1" Cut="0.0000000000000000e+00" cType="1" res="-1.0422772727906704e-02" rms="3.9794710278511047e-01" purity="5.7647061347961426e-01" nType="-99"/>
          <Node pos="r" depth="2" NCoef="0" IVar="-1" Cut="0.0000000000000000e+00" cType="1" res="-5.9926297515630722e-02" rms="3.1081578135490417e-01" purity="1.4415834844112396e-01" nType="-99"/>
        </Node>
      </Node>
    </BinaryTree>
    <BinaryTree type="DecisionTree" boostWeight="1.0000000000000000e+00" itree="41">
      <Node pos="s" depth="0" NCoef="0" IVar="20" Cut="-4.3273046612739563e-03" cType="0" res="2.4364865384995937e-03" rms="3.3029529452323914e-01" purity="6.7755722999572754e-01" nType="0">
        <Node pos="l" depth="1" NCoef="0" IVar="-1" Cut="0.0000000000000000e+00" cType="1" res="9.3964450061321259e-03" rms="3.1546521186828613e-01" purity="7.3842370510101318e-01" nType="-99"/>
        <Node pos="r" depth="1" NCoef="0" IVar="18" Cut="-3.1539823394268751e-03" cType="0" res="-1.4848846197128296e-01" rms="3.6513683199882507e-01" purity="3.5174202919006348e-01" nType="0">
          <Node pos="l" depth="2" NCoef="0" IVar="-1" Cut="0.0000000000000000e+00" cType="1" res="-7.9296091571450233e-03" rms="3.9710903167724609e-01" purity="6.0221129655838013e-01" nType="-99"/>
          <Node pos="r" depth="2" NCoef="0" IVar="-1" Cut="0.0000000000000000e+00" cType="1" res="-5.7662311941385269e-02" rms="3.2412147521972656e-01" purity="2.0008926093578339e-01" nType="-99"/>
        </Node>
      </Node>
    </BinaryTree>
    <BinaryTree type="DecisionTree" boostWeight="1.0000000000000000e+00" itree="42">
      <Node pos="s" depth="0" NCoef="0" IVar="13" Cut="2.4987505748867989e-03" cType="1" res="2.1869444753974676e-03" rms="3.2874438166618347e-01" purity="6.7755722999572754e-01" nType="0">
        <Node pos="l" depth="1" NCoef="0" IVar="-1" Cut="0.0000000000000000e+00" cType="1" res="9.7935553640127182e-03" rms="3.1176051497459412e-01" purity="7.3625510931015015e-01" nType="-99"/>
        <Node pos="r" depth="1" NCoef="0" IVar="3" Cut="8.8804161548614502e-01" cType="0" res="-1.2943187355995178e-01" rms="3.6755552887916565e-01" purity="4.1718861460685730e-01" nType="0">
          <Node pos="l" depth="2" NCoef="0" IVar="-1" Cut="0.0000000000000000e+00" cType="1" res="-3.8349532987922430e-03" rms="3.6627933382987976e-01" purity="6.6909021139144897e-01" nType="-99"/>
          <Node pos="r" depth="2" NCoef="0" IVar="-1" Cut="0.0000000000000000e+00" cType="1" res="-5.5023360997438431e-02" rms="3.4703847765922546e-01" purity="2.4681021273136139e-01" nType="-99"/>
        </Node>
      </Node>
    </BinaryTree>
    <BinaryTree type="DecisionTree" boostWeight="1.0000000000000000e+00" itree="43">
      <Node pos="s" depth="0" NCoef="0" IVar="6" Cut="4.1468959301710129e-02" cType="1" res="1.9684981089085340e-03" rms="3.2716733217239380e-01" purity="6.7755722999572754e-01" nType="0">
        <Node pos="l" depth="1" NCoef="0" IVar="-1" Cut="0.0000000000000000e+00" cType="1" res="8.1740785390138626e-03" rms="3.1659010052680969e-01" purity="7.3315143585205078e-01" nType="-99"/>
        <Node pos="r" depth="1" NCoef="0" IVar="15" Cut="8.3724319934844971e-01" cType="0" res="-1.5691335499286652e-01" rms="3.4920462965965271e-01" purity="3.1789955496788025e-01" nType="0">
          <Node pos="l" depth="2" NCoef="0" IVar="-1" Cut="0.0000000000000000e+00" cType="1" res="-3.5500194877386093e-02" rms="3.4135279059410095e-01" purity="3.3399185538291931e-01" nType="-99"/>
          <Node pos="r" depth="2" NCoef="0" IVar="-1" Cut="0.0000000000000000e+00" cType="1" res="-8.7692797183990479e-02" rms="3.3590126037597656e-01" purity="1.9722221791744232e-01" nType="-99"/>
        </Node>
      </Node>
    </BinaryTree>
    <BinaryTree type="DecisionTree" boostWeight="1.0000000000000000e+00" itree="44">
      <Node pos="s" depth="0" NCoef="0" IVar="18" Cut="-6.1262124218046665e-03" cType="0" res="1.7809838755056262e-03" rms="3.2585307955741882e-01" purity="6.7755722999572754e-01" nType="0">
        <Node pos="l" depth="1" NCoef="0" IVar="-1" Cut="0.0000000000000000e+00" cType="1" res="7.2790957055985928e-03" rms="3.1787452101707458e-01" purity="7.3335868120193481e-01" nType="-99"/>
        <Node pos="r" depth="1" NCoef="0" IVar="20" Cut="-6.4819571562111378e-03" cType="0" res="-1.5994817018508911e-01" rms="3.3882725238800049e-01" purity="2.6156121492385864e-01" nType="0">
          <Node pos="l" depth="2" NCoef="0" IVar="-1" Cut="0.0000000000000000e+00" cType="1" res="-2.0850853994488716e-02" rms="3.9679148793220520e-01" purity="4.8053729534149170e-01" nType="-99"/>
          <Node pos="r" depth="2" NCoef="0" IVar="-1" Cut="0.0000000000000000e+00" cType="1" res="-6.1515916138887405e-02" rms="2.6642417907714844e-01" purity="8.2492716610431671e-02" nType="-99"/>
        </Node>
      </Node>
    </BinaryTree>
    <BinaryTree type="DecisionTree" boostWeight="1.0000000000000000e+00" itree="45">
      <Node pos="s" depth="0" NCoef="0" IVar="20" Cut="5.6615327484905720e-03" cType="1" res="1.5826105372980237e-03" rms="3.2471698522567749e-01" purity="6.7755722999572754e-01" nType="0">
        <Node pos="l" depth="1" NCoef="0" IVar="-1" Cut="0.0000000000000000e+00" cType="1" res="7.5844824314117432e-03" rms="3.1450006365776062e-01" purity="7.3366004228591919e-01" nType="-99"/>
        <Node pos="r" depth="1" NCoef="0" IVar="18" Cut="3.0335495248436928e-03" cType="1" res="-1.5252922475337982e-01" rms="3.5034030675888062e-01" purity="2.9501652717590332e-01" nType="0">
          <Node pos="l" depth="2" NCoef="0" IVar="-1" Cut="0.0000000000000000e+00" cType="1" res="-1.0548943653702736e-02" rms="3.9365002512931824e-01" purity="5.7647061347961426e-01" nType="-99"/>
          <Node pos="r" depth="2" NCoef="0" IVar="-1" Cut="0.0000000000000000e+00" cType="1" res="-5.6443374603986740e-02" rms="3.0859318375587463e-01" purity="1.4415834844112396e-01" nType="-99"/>
        </Node>
      </Node>
