<?xml version="1.0"?>
<MethodSetup Method="BDT::BDT">
  <GeneralInfo>
    <Info name="TMVA Release" value="4.1.2 [262402]"/>
    <Info name="ROOT Release" value="5.32/00 [335872]"/>
    <Info name="Creator" value="pigard"/>
    <Info name="Date" value="Sun Sep 13 14:10:05 2015"/>
    <Info name="Host" value="Linux cmsdev02.cern.ch 2.6.32-431.11.2.el6.x86_64 #1 SMP Wed Mar 26 09:39:43 CET 2014 x86_64 x86_64 x86_64 GNU/Linux"/>
    <Info name="Dir" value="/grid_mnt/vol__vol_U__u/llr/cms/pigard/myEID/job/TrigSpring15_50ns_data_1_VarD_TMVA412_Sig6BkgAll_MG_noSpec"/>
    <Info name="Training events" value="86467"/>
    <Info name="TrainingTime" value="4.94421904e+02"/>
    <Info name="AnalysisType" value="Classification"/>
  </GeneralInfo>
  <Options>
    <Option name="V" modified="Yes">False</Option>
    <Option name="VerbosityLevel" modified="No">Default</Option>
    <Option name="VarTransform" modified="No">None</Option>
    <Option name="H" modified="Yes">False</Option>
    <Option name="CreateMVAPdfs" modified="Yes">True</Option>
    <Option name="IgnoreNegWeightsInTraining" modified="No">False</Option>
    <Option name="NTrees" modified="Yes">2000</Option>
    <Option name="RenormByClass" modified="No">False</Option>
    <Option name="BoostType" modified="Yes">Grad</Option>
    <Option name="AdaBoostR2Loss" modified="No">quadratic</Option>
    <Option name="UseBaggedGrad" modified="Yes">False</Option>
    <Option name="GradBaggingFraction" modified="No">6.000000e-01</Option>
    <Option name="Shrinkage" modified="Yes">1.000000e-01</Option>
    <Option name="AdaBoostBeta" modified="No">1.000000e+00</Option>
    <Option name="UseRandomisedTrees" modified="No">False</Option>
    <Option name="UseNvars" modified="Yes">4</Option>
    <Option name="UsePoissonNvars" modified="No">True</Option>
    <Option name="UseNTrainEvents" modified="No">86467</Option>
    <Option name="UseWeightedTrees" modified="No">True</Option>
    <Option name="UseYesNoLeaf" modified="No">True</Option>
    <Option name="NodePurityLimit" modified="No">5.000000e-01</Option>
    <Option name="SeparationType" modified="No">giniindex</Option>
    <Option name="nEventsMin" modified="Yes">100</Option>
    <Option name="nCuts" modified="Yes">2000</Option>
    <Option name="UseFisherCuts" modified="No">False</Option>
    <Option name="MinLinCorrForFisher" modified="No">8.000000e-01</Option>
    <Option name="UseExclusiveVars" modified="No">False</Option>
    <Option name="PruneStrength" modified="Yes">5.000000e+00</Option>
    <Option name="PruneMethod" modified="Yes">costcomplexity</Option>
    <Option name="PruneBeforeBoost" modified="No">False</Option>
    <Option name="PruningValFraction" modified="No">5.000000e-01</Option>
    <Option name="NNodesMax" modified="Yes">5</Option>
    <Option name="MaxDepth" modified="Yes">6</Option>
    <Option name="DoBoostMonitor" modified="No">False</Option>
    <Option name="NegWeightTreatment" modified="Yes">pairnegweightsglobal</Option>
  </Options>
  <Variables NVar="20">
    <Variable VarIndex="0" Expression="ele_oldsigmaietaieta" Label="ele_oldsigmaietaieta" Title="ele_oldsigmaietaieta" Unit="" Internal="ele_oldsigmaietaieta" Type="F" Min="6.41694001e-04" Max="1.19987549e-02"/>
    <Variable VarIndex="1" Expression="ele_oldsigmaiphiiphi" Label="ele_oldsigmaiphiiphi" Title="ele_oldsigmaiphiiphi" Unit="" Internal="ele_oldsigmaiphiiphi" Type="F" Min="3.47830611e-03" Max="2.74247788e-02"/>
    <Variable VarIndex="2" Expression="ele_oldcircularity" Label="ele_oldcircularity" Title="ele_oldcircularity" Unit="" Internal="ele_oldcircularity" Type="F" Min="2.71211807e-02" Max="7.85146296e-01"/>
    <Variable VarIndex="3" Expression="ele_oldr9" Label="ele_oldr9" Title="ele_oldr9" Unit="" Internal="ele_oldr9" Type="F" Min="2.28766143e-01" Max="1.73757839e+00"/>
    <Variable VarIndex="4" Expression="ele_scletawidth" Label="ele_scletawidth" Title="ele_scletawidth" Unit="" Internal="ele_scletawidth" Type="F" Min="2.03738641e-03" Max="3.37085724e-02"/>
    <Variable VarIndex="5" Expression="ele_sclphiwidth" Label="ele_sclphiwidth" Title="ele_sclphiwidth" Unit="" Internal="ele_sclphiwidth" Type="F" Min="2.84249545e-03" Max="2.03310549e-01"/>
    <Variable VarIndex="6" Expression="ele_he" Label="ele_he" Title="ele_he" Unit="" Internal="ele_he" Type="F" Min="0.00000000e+00" Max="8.99985656e-02"/>
    <Variable VarIndex="7" Expression="ele_kfhits" Label="ele_kfhits" Title="ele_kfhits" Unit="" Internal="ele_kfhits" Type="I" Min="3.00000000e+00" Max="1.30000000e+01"/>
    <Variable VarIndex="8" Expression="ele_kfchi2" Label="ele_kfchi2" Title="ele_kfchi2" Unit="" Internal="ele_kfchi2" Type="F" Min="1.39988174e-07" Max="2.92976208e+01"/>
    <Variable VarIndex="9" Expression="ele_gsfchi2" Label="ele_gsfchi2" Title="ele_gsfchi2" Unit="" Internal="ele_gsfchi2" Type="F" Min="8.89282599e-02" Max="8.23620911e+02"/>
    <Variable VarIndex="10" Expression="ele_fbrem" Label="ele_fbrem" Title="ele_fbrem" Unit="" Internal="ele_fbrem" Type="F" Min="-9.99668360e-01" Max="9.95568275e-01"/>
    <Variable VarIndex="11" Expression="ele_gsfhits" Label="ele_gsfhits" Title="ele_gsfhits" Unit="" Internal="ele_gsfhits" Type="I" Min="4.00000000e+00" Max="1.80000000e+01"/>
    <Variable VarIndex="12" Expression="ele_expected_inner_hits" Label="ele_expected_inner_hits" Title="ele_expected_inner_hits" Unit="" Internal="ele_expected_inner_hits" Type="I" Min="0.00000000e+00" Max="3.00000000e+00"/>
    <Variable VarIndex="13" Expression="ele_conversionVertexFitProbability" Label="ele_conversionVertexFitProbability" Title="ele_conversionVertexFitProbability" Unit="" Internal="ele_conversionVertexFitProbability" Type="F" Min="-1.00000000e+00" Max="9.99318123e-01"/>
    <Variable VarIndex="14" Expression="ele_ep" Label="ele_ep" Title="ele_ep" Unit="" Internal="ele_ep" Type="F" Min="1.50259270e-03" Max="2.33717682e+02"/>
    <Variable VarIndex="15" Expression="ele_eelepout" Label="ele_eelepout" Title="ele_eelepout" Unit="" Internal="ele_eelepout" Type="F" Min="7.14764418e-03" Max="7.06671021e+02"/>
    <Variable VarIndex="16" Expression="ele_IoEmIop" Label="ele_IoEmIop" Title="ele_IoEmIop" Unit="" Internal="ele_IoEmIop" Type="F" Min="-4.51830149e+00" Max="1.84656158e-01"/>
    <Variable VarIndex="17" Expression="ele_deltaetain" Label="ele_deltaetain" Title="ele_deltaetain" Unit="" Internal="ele_deltaetain" Type="F" Min="-1.05467498e-01" Max="3.60384524e-01"/>
    <Variable VarIndex="18" Expression="ele_deltaphiin" Label="ele_deltaphiin" Title="ele_deltaphiin" Unit="" Internal="ele_deltaphiin" Type="F" Min="-6.03290439e-01" Max="6.17183208e-01"/>
    <Variable VarIndex="19" Expression="ele_deltaetaseed" Label="ele_deltaetaseed" Title="ele_deltaetaseed" Unit="" Internal="ele_deltaetaseed" Type="F" Min="-4.34235156e-01" Max="2.72854042e+00"/>
  </Variables>
  <Spectators NSpec="0"/>
  <Classes NClass="2">
    <Class Name="Signal" Index="0"/>
    <Class Name="Background" Index="1"/>
  </Classes>
  <Transformations NTransformations="0"/>
  <MVAPdfs>
    <PDF Name="BDT_PDFSig" MinNSmooth="0" MaxNSmooth="0" InterpolMethod="2" KDE_type="1" KDE_iter="1" KDE_border="1" KDE_finefactor="1.0000000000000000e+00">
      <Histogram Name="BDT_tr_S_original" NBins="1729" XMin="-9.9999630451202393e-01" XMax="9.9990350008010864e-01" HasEquidistantBins="1">
        0.00000000e+00 0.00000000e+00 0.00000000e+00 0.00000000e+00 0.00000000e+00 2.25614458e-02 1.12807229e-02 0.00000000e+00 4.51228917e-02 0.00000000e+00 0.00000000e+00 0.00000000e+00 2.25614458e-02 2.25614458e-02 1.12807229e-02 0.00000000e+00 0.00000000e+00 0.00000000e+00 0.00000000e+00 1.12807229e-02 0.00000000e+00 0.00000000e+00 0.00000000e+00 1.12807229e-02 1.12807229e-02 0.00000000e+00 0.00000000e+00 0.00000000e+00 0.00000000e+00 2.25614458e-02 1.12807229e-02 1.12807229e-02 1.12807229e-02 1.12807229e-02 0.00000000e+00 0.00000000e+00 0.00000000e+00 2.25614458e-02 1.12807229e-02 0.00000000e+00 1.12807229e-02 0.00000000e+00 0.00000000e+00 0.00000000e+00 0.00000000e+00 0.00000000e+00 0.00000000e+00 0.00000000e+00 0.00000000e+00 0.00000000e+00 0.00000000e+00 0.00000000e+00 1.12807229e-02 0.00000000e+00 0.00000000e+00 0.00000000e+00 0.00000000e+00 0.00000000e+00 1.12807229e-02 2.25614458e-02 0.00000000e+00 0.00000000e+00 0.00000000e+00 1.12807229e-02 0.00000000e+00 0.00000000e+00 0.00000000e+00 1.12807229e-02 0.00000000e+00 0.00000000e+00 0.00000000e+00 0.00000000e+00 1.12807229e-02 1.12807229e-02 0.00000000e+00 0.00000000e+00 0.00000000e+00 0.00000000e+00 0.00000000e+00 0.00000000e+00 1.12807229e-02 0.00000000e+00 0.00000000e+00 0.00000000e+00 0.00000000e+00 0.00000000e+00 1.12807229e-02 0.00000000e+00 1.12807229e-02 2.25614458e-02 0.00000000e+00 1.12807229e-02 0.00000000e+00 1.12807229e-02 1.12807229e-02 0.00000000e+00 0.00000000e+00 1.12807229e-02 0.00000000e+00 1.12807229e-02 0.00000000e+00 0.00000000e+00 0.00000000e+00 0.00000000e+00 0.00000000e+00 1.12807229e-02 0.00000000e+00 0.00000000e+00 1.12807229e-02 0.00000000e+00 0.00000000e+00 1.12807229e-02 0.00000000e+00 0.00000000e+00 0.00000000e+00 0.00000000e+00 0.00000000e+00 0.00000000e+00 1.12807229e-02 1.12807229e-02 0.00000000e+00 2.25614458e-02 3.38421687e-02 2.25614458e-02 0.00000000e+00 0.00000000e+00 1.12807229e-02 0.00000000e+00 1.12807229e-02 1.12807229e-02 0.00000000e+00 0.00000000e+00 1.12807229e-02 2.25614458e-02 2.25614458e-02 0.00000000e+00 0.00000000e+00 0.00000000e+00 0.00000000e+00 0.00000000e+00 0.00000000e+00 0.00000000e+00 1.12807229e-02 0.00000000e+00 1.12807229e-02 1.12807229e-02 0.00000000e+00 0.00000000e+00 0.00000000e+00 0.00000000e+00 0.00000000e+00 1.12807229e-02 0.00000000e+00 0.00000000e+00 0.00000000e+00 1.12807229e-02 1.12807229e-02 1.12807229e-02 1.12807229e-02 0.00000000e+00 0.00000000e+00 0.00000000e+00 0.00000000e+00 0.00000000e+00 0.00000000e+00 0.00000000e+00 2.25614458e-02 1.12807229e-02 0.00000000e+00 0.00000000e+00 0.00000000e+00 0.00000000e+00 0.00000000e+00 2.25614458e-02 2.25614458e-02 0.00000000e+00 0.00000000e+00 0.00000000e+00 1.12807229e-02 0.00000000e+00 0.00000000e+00 0.00000000e+00 0.00000000e+00 0.00000000e+00 3.38421687e-02 1.12807229e-02 0.00000000e+00 0.00000000e+00 1.12807229e-02 0.00000000e+00 0.00000000e+00 0.00000000e+00 0.00000000e+00 1.12807229e-02 0.00000000e+00 0.00000000e+00 0.00000000e+00 1.12807229e-02 0.00000000e+00 0.00000000e+00 0.00000000e+00 0.00000000e+00 2.25614458e-02 1.12807229e-02 2.25614458e-02 0.00000000e+00 0.00000000e+00 0.00000000e+00 1.12807229e-02 0.00000000e+00 1.12807229e-02 0.00000000e+00 1.12807229e-02 0.00000000e+00 0.00000000e+00 0.00000000e+00 0.00000000e+00 1.12807229e-02 0.00000000e+00 0.00000000e+00 1.12807229e-02 0.00000000e+00 0.00000000e+00 0.00000000e+00 0.00000000e+00 0.00000000e+00 0.00000000e+00 1.12807229e-02 0.00000000e+00 0.00000000e+00 0.00000000e+00 1.12807229e-02 2.25614458e-02 0.00000000e+00 1.12807229e-02 0.00000000e+00 1.12807229e-02 1.12807229e-02 0.00000000e+00 0.00000000e+00 0.00000000e+00 0.00000000e+00 1.12807229e-02 0.00000000e+00 0.00000000e+00 0.00000000e+00 2.25614458e-02 1.12807229e-02 2.25614458e-02 1.12807229e-02 1.12807229e-02 0.00000000e+00 0.00000000e+00 0.00000000e+00 1.12807229e-02 2.25614458e-02 0.00000000e+00 0.00000000e+00 0.00000000e+00 0.00000000e+00 0.00000000e+00 1.12807229e-02 2.25614458e-02 0.00000000e+00 0.00000000e+00 1.12807229e-02 0.00000000e+00 0.00000000e+00 0.00000000e+00 1.12807229e-02 1.12807229e-02 0.00000000e+00 0.00000000e+00 0.00000000e+00 0.00000000e+00 2.25614458e-02 0.00000000e+00 1.12807229e-02 1.12807229e-02 2.25614458e-02 1.12807229e-02 2.25614458e-02 0.00000000e+00 2.25614458e-02 0.00000000e+00 0.00000000e+00 0.00000000e+00 0.00000000e+00 0.00000000e+00 2.25614458e-02 0.00000000e+00 1.12807229e-02 0.00000000e+00 1.12807229e-02 1.12807229e-02 0.00000000e+00 1.12807229e-02 0.00000000e+00 0.00000000e+00 0.00000000e+00 0.00000000e+00 0.00000000e+00 0.00000000e+00 0.00000000e+00 0.00000000e+00 0.00000000e+00 2.25614458e-02 2.25614458e-02 0.00000000e+00 0.00000000e+00 0.00000000e+00 0.00000000e+00 0.00000000e+00 0.00000000e+00 0.00000000e+00 1.12807229e-02 0.00000000e+00 0.00000000e+00 0.00000000e+00 1.12807229e-02 0.00000000e+00 0.00000000e+00 1.12807229e-02 1.12807229e-02 2.25614458e-02 1.12807229e-02 1.12807229e-02 0.00000000e+00 0.00000000e+00 0.00000000e+00 0.00000000e+00 1.12807229e-02 0.00000000e+00 1.12807229e-02 0.00000000e+00 2.25614458e-02 0.00000000e+00 0.00000000e+00 2.25614458e-02 0.00000000e+00 0.00000000e+00 0.00000000e+00 0.00000000e+00 0.00000000e+00 0.00000000e+00 1.12807229e-02 0.00000000e+00 0.00000000e+00 0.00000000e+00 0.00000000e+00 0.00000000e+00 1.12807229e-02 0.00000000e+00 0.00000000e+00 0.00000000e+00 0.00000000e+00 0.00000000e+00 1.12807229e-02 0.00000000e+00 2.25614458e-02 1.12807229e-02 0.00000000e+00 1.12807229e-02 2.25614458e-02 0.00000000e+00 1.12807229e-02 1.12807229e-02 0.00000000e+00 0.00000000e+00 0.00000000e+00 0.00000000e+00 0.00000000e+00 0.00000000e+00 1.12807229e-02 1.12807229e-02 0.00000000e+00 0.00000000e+00 0.00000000e+00 1.12807229e-02 0.00000000e+00 0.00000000e+00 0.00000000e+00 0.00000000e+00 0.00000000e+00 0.00000000e+00 0.00000000e+00 2.25614458e-02 0.00000000e+00 1.12807229e-02 0.00000000e+00 0.00000000e+00 0.00000000e+00 1.12807229e-02 0.00000000e+00 0.00000000e+00 0.00000000e+00 0.00000000e+00 0.00000000e+00 1.12807229e-02 0.00000000e+00 0.00000000e+00 0.00000000e+00 1.12807229e-02 0.00000000e+00 1.12807229e-02 2.25614458e-02 1.12807229e-02 0.00000000e+00 0.00000000e+00 0.00000000e+00 0.00000000e+00 0.00000000e+00 0.00000000e+00 1.12807229e-02 0.00000000e+00 1.12807229e-02 0.00000000e+00 1.12807229e-02 1.12807229e-02 1.12807229e-02 0.00000000e+00 2.25614458e-02 0.00000000e+00 1.12807229e-02 2.25614458e-02 0.00000000e+00 0.00000000e+00 1.12807229e-02 2.25614458e-02 0.00000000e+00 0.00000000e+00 0.00000000e+00 1.12807229e-02 1.12807229e-02 4.51228917e-02 1.12807229e-02 2.25614458e-02 1.12807229e-02 0.00000000e+00 1.12807229e-02 0.00000000e+00 0.00000000e+00 1.12807229e-02 0.00000000e+00 0.00000000e+00 0.00000000e+00 2.25614458e-02 1.12807229e-02 0.00000000e+00 0.00000000e+00 0.00000000e+00 0.00000000e+00 1.12807229e-02 0.00000000e+00 1.12807229e-02 4.51228917e-02 2.25614458e-02 2.25614458e-02 0.00000000e+00 0.00000000e+00 1.12807229e-02 0.00000000e+00 0.00000000e+00 4.51228917e-02 0.00000000e+00 0.00000000e+00 0.00000000e+00 1.12807229e-02 1.12807229e-02 0.00000000e+00 1.12807229e-02 1.12807229e-02 0.00000000e+00 1.12807229e-02 0.00000000e+00 0.00000000e+00 0.00000000e+00 0.00000000e+00 0.00000000e+00 0.00000000e+00 0.00000000e+00 0.00000000e+00 1.12807229e-02 0.00000000e+00 0.00000000e+00 1.12807229e-02 0.00000000e+00 0.00000000e+00 0.00000000e+00 1.12807229e-02 0.00000000e+00 1.12807229e-02 1.12807229e-02 0.00000000e+00 1.12807229e-02 1.12807229e-02 1.12807229e-02 0.00000000e+00 1.12807229e-02 0.00000000e+00 2.25614458e-02 1.12807229e-02 1.12807229e-02 1.12807229e-02 3.38421687e-02 3.38421687e-02 1.12807229e-02 1.12807229e-02 1.12807229e-02 1.12807229e-02 1.12807229e-02 1.12807229e-02 1.12807229e-02 1.12807229e-02 0.00000000e+00 1.12807229e-02 1.12807229e-02 0.00000000e+00 0.00000000e+00 0.00000000e+00 3.38421687e-02 0.00000000e+00 0.00000000e+00 2.25614458e-02 0.00000000e+00 0.00000000e+00 1.12807229e-02 2.25614458e-02 0.00000000e+00 0.00000000e+00 1.12807229e-02 0.00000000e+00 0.00000000e+00 0.00000000e+00 1.12807229e-02 0.00000000e+00 1.12807229e-02 0.00000000e+00 1.12807229e-02 0.00000000e+00 1.12807229e-02 1.12807229e-02 0.00000000e+00 1.12807229e-02 0.00000000e+00 0.00000000e+00 1.12807229e-02 0.00000000e+00 1.12807229e-02 0.00000000e+00 0.00000000e+00 0.00000000e+00 0.00000000e+00 0.00000000e+00 0.00000000e+00 3.38421687e-02 1.12807229e-02 0.00000000e+00 2.25614458e-02 1.12807229e-02 0.00000000e+00 2.25614458e-02 0.00000000e+00 1.12807229e-02 0.00000000e+00 0.00000000e+00 1.12807229e-02 1.12807229e-02 1.12807229e-02 0.00000000e+00 0.00000000e+00 0.00000000e+00 1.12807229e-02 0.00000000e+00 2.25614458e-02 1.12807229e-02 1.12807229e-02 1.12807229e-02 0.00000000e+00 0.00000000e+00 2.25614458e-02 0.00000000e+00 1.12807229e-02 0.00000000e+00 2.25614458e-02 1.12807229e-02 0.00000000e+00 0.00000000e+00 0.00000000e+00 1.12807229e-02 1.12807229e-02 0.00000000e+00 0.00000000e+00 0.00000000e+00 1.12807229e-02 0.00000000e+00 0.00000000e+00 1.12807229e-02 1.12807229e-02 1.12807229e-02 0.00000000e+00 1.12807229e-02 2.25614458e-02 0.00000000e+00 3.38421687e-02 0.00000000e+00 1.12807229e-02 1.12807229e-02 0.00000000e+00 2.25614458e-02 0.00000000e+00 0.00000000e+00 1.12807229e-02 0.00000000e+00 0.00000000e+00 1.12807229e-02 1.12807229e-02 0.00000000e+00 0.00000000e+00 0.00000000e+00 0.00000000e+00 1.12807229e-02 0.00000000e+00 0.00000000e+00 1.12807229e-02 0.00000000e+00 0.00000000e+00 0.00000000e+00 0.00000000e+00 0.00000000e+00 0.00000000e+00 0.00000000e+00 0.00000000e+00 0.00000000e+00 1.12807229e-02 3.38421687e-02 1.12807229e-02 0.00000000e+00 0.00000000e+00 1.12807229e-02 0.00000000e+00 0.00000000e+00 0.00000000e+00 1.12807229e-02 0.00000000e+00 1.12807229e-02 1.12807229e-02 2.25614458e-02 0.00000000e+00 0.00000000e+00 1.12807229e-02 3.38421687e-02 1.12807229e-02 1.12807229e-02 1.12807229e-02 2.25614458e-02 0.00000000e+00 1.12807229e-02 1.12807229e-02 2.25614458e-02 2.25614458e-02 0.00000000e+00 1.12807229e-02 3.38421687e-02 0.00000000e+00 0.00000000e+00 1.12807229e-02 2.25614458e-02 0.00000000e+00 0.00000000e+00 2.25614458e-02 0.00000000e+00 0.00000000e+00 0.00000000e+00 0.00000000e+00 0.00000000e+00 0.00000000e+00 0.00000000e+00 3.38421687e-02 0.00000000e+00 0.00000000e+00 0.00000000e+00 2.25614458e-02 0.00000000e+00 0.00000000e+00 1.12807229e-02 0.00000000e+00 0.00000000e+00 1.12807229e-02 0.00000000e+00 1.12807229e-02 1.12807229e-02 0.00000000e+00 1.12807229e-02 0.00000000e+00 0.00000000e+00 0.00000000e+00 0.00000000e+00 1.12807229e-02 0.00000000e+00 0.00000000e+00 1.12807229e-02 1.12807229e-02 0.00000000e+00 2.25614458e-02 0.00000000e+00 0.00000000e+00 1.12807229e-02 2.25614458e-02 0.00000000e+00 0.00000000e+00 1.12807229e-02 0.00000000e+00 2.25614458e-02 0.00000000e+00 0.00000000e+00 1.12807229e-02 2.25614458e-02 0.00000000e+00 1.12807229e-02 1.12807229e-02 0.00000000e+00 1.12807229e-02 1.12807229e-02 0.00000000e+00 1.12807229e-02 1.12807229e-02 0.00000000e+00 0.00000000e+00 0.00000000e+00 2.25614458e-02 0.00000000e+00 0.00000000e+00 0.00000000e+00 1.12807229e-02 1.12807229e-02 1.12807229e-02 2.25614458e-02 1.12807229e-02 0.00000000e+00 2.25614458e-02 0.00000000e+00 1.12807229e-02 1.12807229e-02 0.00000000e+00 0.00000000e+00 1.12807229e-02 0.00000000e+00 0.00000000e+00 1.12807229e-02 0.00000000e+00 1.12807229e-02 0.00000000e+00 1.12807229e-02 0.00000000e+00 1.12807229e-02 1.12807229e-02 0.00000000e+00 1.12807229e-02 2.25614458e-02 0.00000000e+00 1.12807229e-02 0.00000000e+00 0.00000000e+00 0.00000000e+00 2.25614458e-02 0.00000000e+00 1.12807229e-02 1.12807229e-02 0.00000000e+00 1.12807229e-02 0.00000000e+00 0.00000000e+00 4.51228917e-02 1.12807229e-02 1.12807229e-02 1.12807229e-02 0.00000000e+00 2.25614458e-02 0.00000000e+00 0.00000000e+00 0.00000000e+00 1.12807229e-02 0.00000000e+00 1.12807229e-02 1.12807229e-02 0.00000000e+00 1.12807229e-02 0.00000000e+00 1.12807229e-02 1.12807229e-02 0.00000000e+00 0.00000000e+00 1.12807229e-02 0.00000000e+00 0.00000000e+00 1.12807229e-02 0.00000000e+00 1.12807229e-02 0.00000000e+00 1.12807229e-02 0.00000000e+00 0.00000000e+00 1.12807229e-02 1.12807229e-02 0.00000000e+00 0.00000000e+00 0.00000000e+00 2.25614458e-02 0.00000000e+00 0.00000000e+00 1.12807229e-02 1.12807229e-02 2.25614458e-02 0.00000000e+00 2.25614458e-02 0.00000000e+00 1.12807229e-02 1.12807229e-02 1.12807229e-02 2.25614458e-02 1.12807229e-02 1.12807229e-02 0.00000000e+00 1.12807229e-02 0.00000000e+00 0.00000000e+00 0.00000000e+00 1.12807229e-02 1.12807229e-02 2.25614458e-02 1.12807229e-02 2.25614458e-02 3.38421687e-02 0.00000000e+00 1.12807229e-02 4.51228917e-02 0.00000000e+00 0.00000000e+00 2.25614458e-02 0.00000000e+00 1.12807229e-02 0.00000000e+00 0.00000000e+00 1.12807229e-02 4.51228917e-02 2.25614458e-02 2.25614458e-02 0.00000000e+00 1.12807229e-02 0.00000000e+00 1.12807229e-02 0.00000000e+00 1.12807229e-02 1.12807229e-02 1.12807229e-02 0.00000000e+00 1.12807229e-02 1.12807229e-02 0.00000000e+00 0.00000000e+00 0.00000000e+00 1.12807229e-02 0.00000000e+00 0.00000000e+00 0.00000000e+00 0.00000000e+00 0.00000000e+00 0.00000000e+00 2.25614458e-02 1.12807229e-02 0.00000000e+00 2.25614458e-02 0.00000000e+00 0.00000000e+00 1.12807229e-02 1.12807229e-02 0.00000000e+00 1.12807229e-02 0.00000000e+00 1.12807229e-02 1.12807229e-02 0.00000000e+00 3.38421687e-02 0.00000000e+00 0.00000000e+00 1.12807229e-02 0.00000000e+00 1.12807229e-02 1.12807229e-02 1.12807229e-02 0.00000000e+00 1.12807229e-02 1.12807229e-02 1.12807229e-02 5.64036146e-02 3.38421687e-02 3.38421687e-02 1.12807229e-02 0.00000000e+00 0.00000000e+00 2.25614458e-02 1.12807229e-02 0.00000000e+00 0.00000000e+00 1.12807229e-02 1.12807229e-02 0.00000000e+00 2.25614458e-02 2.25614458e-02 0.00000000e+00 4.51228917e-02 0.00000000e+00 1.12807229e-02 1.12807229e-02 2.25614458e-02 1.12807229e-02 2.25614458e-02 1.12807229e-02 0.00000000e+00 1.12807229e-02 0.00000000e+00 0.00000000e+00 0.00000000e+00 3.38421687e-02 2.25614458e-02 0.00000000e+00 4.51228917e-02 0.00000000e+00 0.00000000e+00 4.51228917e-02 0.00000000e+00 2.25614458e-02 1.12807229e-02 0.00000000e+00 0.00000000e+00 2.25614458e-02 1.12807229e-02 1.12807229e-02 1.12807229e-02 1.12807229e-02 0.00000000e+00 0.00000000e+00 0.00000000e+00 0.00000000e+00 0.00000000e+00 2.25614458e-02 1.12807229e-02 0.00000000e+00 0.00000000e+00 0.00000000e+00 1.12807229e-02 6.76843375e-02 1.12807229e-02 0.00000000e+00 0.00000000e+00 0.00000000e+00 3.38421687e-02 3.38421687e-02 2.25614458e-02 2.25614458e-02 0.00000000e+00 2.25614458e-02 1.12807229e-02 0.00000000e+00 1.12807229e-02 2.25614458e-02 1.12807229e-02 2.25614458e-02 1.12807229e-02 0.00000000e+00 0.00000000e+00 2.25614458e-02 0.00000000e+00 1.12807229e-02 1.12807229e-02 2.25614458e-02 1.12807229e-02 1.12807229e-02 3.38421687e-02 0.00000000e+00 0.00000000e+00 1.12807229e-02 1.12807229e-02 2.25614458e-02 1.12807229e-02 0.00000000e+00 1.12807229e-02 1.12807229e-02 1.12807229e-02 2.25614458e-02 0.00000000e+00 2.25614458e-02 1.12807229e-02 0.00000000e+00 0.00000000e+00 0.00000000e+00 2.25614458e-02 4.51228917e-02 1.12807229e-02 0.00000000e+00 1.12807229e-02 3.38421687e-02 1.12807229e-02 1.12807229e-02 0.00000000e+00 0.00000000e+00 0.00000000e+00 0.00000000e+00 0.00000000e+00 1.12807229e-02 0.00000000e+00 2.25614458e-02 1.12807229e-02 2.25614458e-02 0.00000000e+00 0.00000000e+00 0.00000000e+00 2.25614458e-02 1.12807229e-02 1.12807229e-02 1.12807229e-02 0.00000000e+00 0.00000000e+00 3.38421687e-02 2.25614458e-02 2.25614458e-02 0.00000000e+00 3.38421687e-02 0.00000000e+00 3.38421687e-02 1.12807229e-02 1.12807229e-02 3.38421687e-02 1.12807229e-02 2.25614458e-02 4.51228917e-02 0.00000000e+00 1.12807229e-02 1.12807229e-02 0.00000000e+00 1.12807229e-02 4.51228917e-02 1.12807229e-02 2.25614458e-02 1.12807229e-02 0.00000000e+00 2.25614458e-02 1.12807229e-02 1.12807229e-02 0.00000000e+00 1.12807229e-02 0.00000000e+00 1.12807229e-02 0.00000000e+00 2.25614458e-02 3.38421687e-02 2.25614458e-02 1.12807229e-02 2.25614458e-02 1.12807229e-02 1.12807229e-02 5.64036146e-02 2.25614458e-02 0.00000000e+00 1.12807229e-02 0.00000000e+00 2.25614458e-02 3.38421687e-02 3.38421687e-02 1.12807229e-02 2.25614458e-02 1.12807229e-02 0.00000000e+00 2.25614458e-02 3.38421687e-02 0.00000000e+00 4.51228917e-02 0.00000000e+00 0.00000000e+00 3.38421687e-02 0.00000000e+00 1.12807229e-02 1.12807229e-02 4.51228917e-02 1.12807229e-02 3.38421687e-02 2.25614458e-02 0.00000000e+00 2.25614458e-02 2.25614458e-02 1.12807229e-02 4.51228917e-02 1.12807229e-02 2.25614458e-02 2.25614458e-02 2.25614458e-02 1.12807229e-02 1.12807229e-02 3.38421687e-02 1.12807229e-02 0.00000000e+00 2.25614458e-02 3.38421687e-02 0.00000000e+00 1.12807229e-02 0.00000000e+00 0.00000000e+00 2.25614458e-02 1.12807229e-02 1.12807229e-02 2.25614458e-02 3.38421687e-02 1.12807229e-02 3.38421687e-02 2.25614458e-02 2.25614458e-02 4.51228917e-02 1.12807229e-02 0.00000000e+00 4.51228917e-02 2.25614458e-02 1.12807229e-02 2.25614458e-02 2.25614458e-02 0.00000000e+00 2.25614458e-02 1.12807229e-02 2.25614458e-02 2.25614458e-02 1.12807229e-02 4.51228917e-02 1.12807229e-02 0.00000000e+00 5.64036146e-02 1.12807229e-02 1.12807229e-02 2.25614458e-02 0.00000000e+00 2.25614458e-02 0.00000000e+00 1.12807229e-02 2.25614458e-02 1.12807229e-02 1.12807229e-02 2.25614458e-02 3.38421687e-02 0.00000000e+00 0.00000000e+00 4.51228917e-02 3.38421687e-02 5.64036146e-02 3.38421687e-02 1.12807229e-02 2.25614458e-02 3.38421687e-02 3.38421687e-02 1.12807229e-02 1.12807229e-02 1.12807229e-02 6.76843375e-02 2.25614458e-02 4.51228917e-02 1.12807229e-02 1.12807229e-02 1.12807229e-02 1.12807229e-02 0.00000000e+00 1.12807229e-02 0.00000000e+00 3.38421687e-02 2.25614458e-02 2.25614458e-02 3.38421687e-02 3.38421687e-02 3.38421687e-02 4.51228917e-02 1.12807229e-02 4.51228917e-02 2.25614458e-02 4.51228917e-02 1.12807229e-02 1.12807229e-02 2.25614458e-02 3.38421687e-02 3.38421687e-02 0.00000000e+00 6.76843375e-02 1.12807229e-02 2.25614458e-02 2.25614458e-02 0.00000000e+00 2.25614458e-02 3.38421687e-02 2.25614458e-02 1.12807229e-02 3.38421687e-02 6.76843375e-02 0.00000000e+00 4.51228917e-02 0.00000000e+00 1.12807229e-02 2.25614458e-02 2.25614458e-02 1.12807229e-02 2.25614458e-02 2.25614458e-02 2.25614458e-02 5.64036146e-02 5.64036146e-02 2.25614458e-02 0.00000000e+00 1.12807229e-02 7.89650604e-02 1.12807229e-02 0.00000000e+00 1.12807229e-02 0.00000000e+00 5.64036146e-02 2.25614458e-02 4.51228917e-02 5.64036146e-02 3.38421687e-02 1.12807229e-02 1.12807229e-02 3.38421687e-02 4.51228917e-02 0.00000000e+00 2.25614458e-02 0.00000000e+00 4.51228917e-02 1.12807229e-02 5.64036146e-02 2.25614458e-02 6.76843375e-02 3.38421687e-02 2.25614458e-02 4.51228917e-02 2.25614458e-02 2.25614458e-02 2.25614458e-02 2.25614458e-02 0.00000000e+00 3.38421687e-02 3.38421687e-02 3.38421687e-02 1.12807229e-02 0.00000000e+00 1.12807229e-02 4.51228917e-02 2.25614458e-02 2.25614458e-02 4.51228917e-02 1.12807229e-02 1.12807229e-02 2.25614458e-02 2.25614458e-02 1.12807229e-02 4.51228917e-02 4.51228917e-02 3.38421687e-02 1.12807229e-02 4.51228917e-02 5.64036146e-02 4.51228917e-02 6.76843375e-02 2.25614458e-02 1.12807229e-02 4.51228917e-02 2.25614458e-02 0.00000000e+00 0.00000000e+00 3.38421687e-02 0.00000000e+00 3.38421687e-02 1.12807229e-02 2.25614458e-02 1.12807229e-02 6.76843375e-02 4.51228917e-02 5.64036146e-02 5.64036146e-02 3.38421687e-02 4.51228917e-02 1.12807229e-02 3.38421687e-02 0.00000000e+00 3.38421687e-02 2.25614458e-02 1.12807229e-02 3.38421687e-02 4.51228917e-02 3.38421687e-02 2.25614458e-02 5.64036146e-02 3.38421687e-02 1.12807229e-02 2.25614458e-02 0.00000000e+00 1.12807229e-02 5.64036146e-02 5.64036146e-02 2.25614458e-02 2.25614458e-02 3.38421687e-02 3.38421687e-02 5.64036146e-02 1.12807229e-02 3.38421687e-02 3.38421687e-02 3.38421687e-02 2.25614458e-02 3.38421687e-02 6.76843375e-02 5.64036146e-02 4.51228917e-02 4.51228917e-02 6.76843375e-02 2.25614458e-02 5.64036146e-02 5.64036146e-02 2.25614458e-02 2.25614458e-02 4.51228917e-02 3.38421687e-02 2.25614458e-02 3.38421687e-02 1.12807229e-02 3.38421687e-02 2.25614458e-02 1.12807229e-02 3.38421687e-02 5.64036146e-02 4.51228917e-02 4.51228917e-02 6.76843375e-02 5.64036146e-02 2.25614458e-02 3.38421687e-02 3.38421687e-02 1.12807229e-02 3.38421687e-02 3.38421687e-02 2.25614458e-02 2.25614458e-02 3.38421687e-02 2.25614458e-02 5.64036146e-02 5.64036146e-02 4.51228917e-02 3.38421687e-02 3.38421687e-02 2.25614458e-02 2.25614458e-02 5.64036146e-02 3.38421687e-02 0.00000000e+00 4.51228917e-02 5.64036146e-02 1.12807229e-02 0.00000000e+00 3.38421687e-02 6.76843375e-02 1.12807229e-02 5.64036146e-02 4.51228917e-02 5.64036146e-02 4.51228917e-02 3.38421687e-02 4.51228917e-02 5.64036146e-02 4.51228917e-02 2.25614458e-02 7.89650604e-02 6.76843375e-02 4.51228917e-02 3.38421687e-02 3.38421687e-02 4.51228917e-02 1.12807229e-02 3.38421687e-02 5.64036146e-02 5.64036146e-02 6.76843375e-02 4.51228917e-02 2.25614458e-02 2.25614458e-02 5.64036146e-02 4.51228917e-02 1.12807229e-02 6.76843375e-02 5.64036146e-02 5.64036146e-02 4.51228917e-02 5.64036146e-02 3.38421687e-02 5.64036146e-02 6.76843375e-02 1.12807229e-02 1.12807229e-02 7.89650604e-02 9.02457833e-02 5.64036146e-02 1.12807229e-02 5.64036146e-02 5.64036146e-02 3.38421687e-02 6.76843375e-02 7.89650604e-02 4.51228917e-02 2.25614458e-02 9.02457833e-02 3.38421687e-02 1.12807229e-02 3.38421687e-02 9.02457833e-02 2.25614458e-02 5.64036146e-02 3.38421687e-02 4.51228917e-02 5.64036146e-02 4.51228917e-02 3.38421687e-02 4.51228917e-02 2.25614458e-02 1.24087952e-01 1.12807229e-02 4.51228917e-02 4.51228917e-02 3.38421687e-02 5.64036146e-02 5.64036146e-02 1.01526506e-01 4.51228917e-02 1.01526506e-01 3.38421687e-02 6.76843375e-02 6.76843375e-02 5.64036146e-02 3.38421687e-02 7.89650604e-02 3.38421687e-02 3.38421687e-02 5.64036146e-02 3.38421687e-02 3.38421687e-02 5.64036146e-02 2.25614458e-02 1.01526506e-01 4.51228917e-02 1.01526506e-01 9.02457833e-02 7.89650604e-02 6.76843375e-02 5.64036146e-02 5.64036146e-02 1.12807229e-01 4.51228917e-02 4.51228917e-02 2.25614458e-02 1.35368675e-01 7.89650604e-02 6.76843375e-02 4.51228917e-02 9.02457833e-02 5.64036146e-02 1.12807229e-01 4.51228917e-02 9.02457833e-02 6.76843375e-02 7.89650604e-02 3.38421687e-02 1.35368675e-01 1.35368675e-01 5.64036146e-02 1.01526506e-01 4.51228917e-02 5.64036146e-02 6.76843375e-02 6.76843375e-02 1.24087952e-01 9.02457833e-02 6.76843375e-02 1.12807229e-01 7.89650604e-02 1.01526506e-01 7.89650604e-02 5.64036146e-02 4.51228917e-02 5.64036146e-02 1.01526506e-01 5.64036146e-02 1.01526506e-01 9.02457833e-02 1.12807229e-01 1.46649390e-01 1.01526506e-01 6.76843375e-02 6.76843375e-02 4.51228917e-02 1.12807229e-01 9.02457833e-02 3.38421687e-02 7.89650604e-02 4.51228917e-02 3.38421687e-02 7.89650604e-02 4.51228917e-02 1.01526506e-01 6.76843375e-02 1.12807229e-01 1.24087952e-01 9.02457833e-02 1.12807229e-01 1.01526506e-01 7.89650604e-02 1.57930121e-01 1.35368675e-01 1.01526506e-01 1.35368675e-01 1.24087952e-01 1.35368675e-01 3.38421687e-02 7.89650604e-02 9.02457833e-02 9.02457833e-02 1.12807229e-01 1.12807229e-01 1.35368675e-01 7.89650604e-02 9.02457833e-02 9.02457833e-02 1.01526506e-01 9.02457833e-02 1.80491567e-01 1.80491567e-01 1.46649390e-01 5.64036146e-02 1.24087952e-01 1.01526506e-01 1.69210836e-01 9.02457833e-02 1.01526506e-01 1.01526506e-01 1.69210836e-01 1.35368675e-01 4.51228917e-02 7.89650604e-02 1.35368675e-01 1.35368675e-01 1.24087952e-01 9.02457833e-02 1.80491567e-01 1.35368675e-01 9.02457833e-02 7.89650604e-02 7.89650604e-02 1.24087952e-01 1.24087952e-01 1.69210836e-01 1.35368675e-01 1.24087952e-01 1.24087952e-01 1.35368675e-01 1.69210836e-01 1.01526506e-01 1.12807229e-01 1.80491567e-01 1.69210836e-01 1.46649390e-01 1.69210836e-01 1.91772282e-01 1.91772282e-01 1.46649390e-01 1.80491567e-01 1.46649390e-01 2.03053012e-01 1.12807229e-01 1.35368675e-01 2.82018065e-01 1.69210836e-01 1.24087952e-01 1.69210836e-01 1.46649390e-01 1.35368675e-01 1.46649390e-01 1.57930121e-01 1.80491567e-01 2.59456635e-01 2.70737350e-01 2.48175904e-01 2.70737350e-01 1.46649390e-01 2.14333728e-01 1.46649390e-01 1.69210836e-01 2.25614458e-01 2.03053012e-01 1.57930121e-01 1.57930121e-01 2.14333728e-01 2.59456635e-01 1.80491567e-01 3.27140957e-01 2.93298781e-01 2.36895174e-01 1.69210836e-01 2.82018065e-01 2.59456635e-01 1.69210836e-01 2.70737350e-01 3.27140957e-01 2.03053012e-01 2.82018065e-01 2.59456635e-01 3.15860242e-01 3.27140957e-01 2.70737350e-01 2.48175904e-01 1.69210836e-01 3.27140957e-01 2.48175904e-01 3.15860242e-01 4.06106025e-01 3.60983133e-01 3.04579526e-01 3.04579526e-01 2.59456635e-01 3.15860242e-01 3.27140957e-01 3.60983133e-01 2.59456635e-01 2.59456635e-01 3.15860242e-01 2.70737350e-01 2.25614458e-01 3.83544564e-01 3.04579526e-01 3.49702418e-01 4.39948201e-01 3.72263849e-01 3.38421673e-01 3.49702418e-01 4.39948201e-01 2.59456635e-01 5.18913269e-01 3.83544564e-01 4.62509632e-01 4.06106025e-01 4.06106025e-01 2.70737350e-01 3.60983133e-01 4.17386740e-01 5.52755415e-01 4.62509632e-01 4.17386740e-01 5.41474700e-01 3.49702418e-01 3.27140957e-01 6.31720483e-01 5.41474700e-01 6.54281914e-01 5.52755415e-01 6.76843345e-01 6.99404836e-01 5.86597562e-01 6.88124061e-01 5.41474700e-01 7.78369844e-01 8.34773481e-01 7.10685551e-01 7.89650619e-01 8.68615627e-01 6.76843345e-01 6.99404836e-01 1.01526511e+00 9.02457833e-01 8.79896402e-01 8.91177118e-01 1.20703733e+00 1.15063369e+00 1.02654576e+00 1.12807226e+00 1.20703733e+00 1.10551083e+00 1.36496747e+00 1.45521319e+00 1.26344097e+00 1.41009033e+00 1.46649396e+00 1.74851203e+00 1.59058189e+00 1.74851203e+00 1.68082774e+00 1.86131930e+00 2.13205671e+00 2.40279388e+00 2.72993493e+00 2.49303985e+00 2.61712766e+00 2.76377702e+00 2.68481207e+00 3.07963729e+00 3.79032278e+00 3.60983133e+00 3.81288433e+00 4.39948177e+00 4.69278049e+00 4.64765787e+00 5.20041323e+00 6.80227566e+00 6.62178421e+00 7.44527721e+00 7.88522530e+00 8.86664772e+00 1.01188087e+01 1.19801273e+01 1.42137108e+01 1.68308392e+01 2.06211605e+01 2.62051182e+01 3.27930603e+01 4.12648849e+01 5.51965752e+01 7.08880615e+01 1.01007591e+02 1.43829208e+02 1.28171570e+02 9.61117554e+00 
      </Histogram>
    </PDF>
    <PDF Name="BDT_PDFBkg" MinNSmooth="0" MaxNSmooth="0" InterpolMethod="2" KDE_type="1" KDE_iter="1" KDE_border="1" KDE_finefactor="1.0000000000000000e+00">
      <Histogram Name="BDT_tr_B_original" NBins="1729" XMin="-9.9999630451202393e-01" XMax="9.9990350008010864e-01" HasEquidistantBins="1">
        1.05219681e+02 5.72725868e+01 3.94133911e+01 3.01758785e+01 2.47213459e+01 2.36656303e+01 1.80351467e+01 1.55718088e+01 1.28445425e+01 1.34603767e+01 9.67739582e+00 9.41346645e+00 9.32549000e+00 8.18179798e+00 8.35775089e+00 7.47798729e+00 5.54250813e+00 5.89441347e+00 5.63048458e+00 4.92667389e+00 4.75072145e+00 4.22286320e+00 4.39881611e+00 4.75072145e+00 4.75072145e+00 3.51905274e+00 3.78298187e+00 5.63048458e+00 4.13488722e+00 3.60702920e+00 2.90321851e+00 3.16714764e+00 3.87095809e+00 3.60702920e+00 2.55131340e+00 2.99119496e+00 3.07917118e+00 2.72726607e+00 2.72726607e+00 2.72726607e+00 2.37536073e+00 2.11143160e+00 2.37536073e+00 2.46333694e+00 2.90321851e+00 1.75952637e+00 2.02345538e+00 1.49559748e+00 1.58357382e+00 1.49559748e+00 1.49559748e+00 1.49559748e+00 1.84750271e+00 2.28738427e+00 1.93547904e+00 9.67739522e-01 1.58357382e+00 1.93547904e+00 1.31964481e+00 2.11143160e+00 1.67155015e+00 1.49559748e+00 1.75952637e+00 1.93547904e+00 1.58357382e+00 7.91786909e-01 1.23166847e+00 2.02345538e+00 1.40762115e+00 1.67155015e+00 1.23166847e+00 1.58357382e+00 1.58357382e+00 1.84750271e+00 1.40762115e+00 1.05571580e+00 9.67739522e-01 7.91786909e-01 1.40762115e+00 1.49559748e+00 1.93547904e+00 1.67155015e+00 1.23166847e+00 9.67739522e-01 1.05571580e+00 9.67739522e-01 8.79763186e-01 1.31964481e+00 9.67739522e-01 1.40762115e+00 1.93547904e+00 1.23166847e+00 9.67739522e-01 1.31964481e+00 7.91786909e-01 7.91786909e-01 1.05571580e+00 1.14369214e+00 1.05571580e+00 1.31964481e+00 7.03810573e-01 4.39881593e-01 1.14369214e+00 1.14369214e+00 1.14369214e+00 6.15834236e-01 1.23166847e+00 6.15834236e-01 1.93547904e+00 8.79763186e-01 7.03810573e-01 8.79763186e-01 1.14369214e+00 1.05571580e+00 8.79763186e-01 7.03810573e-01 9.67739522e-01 1.14369214e+00 5.27857900e-01 7.91786909e-01 8.79763186e-01 5.27857900e-01 5.27857900e-01 7.03810573e-01 6.15834236e-01 3.51905286e-01 7.91786909e-01 4.39881593e-01 7.91786909e-01 9.67739522e-01 7.91786909e-01 6.15834236e-01 7.03810573e-01 6.15834236e-01 7.03810573e-01 6.15834236e-01 6.15834236e-01 9.67739522e-01 7.03810573e-01 4.39881593e-01 5.27857900e-01 9.67739522e-01 9.67739522e-01 5.27857900e-01 4.39881593e-01 5.27857900e-01 1.49559748e+00 8.79763186e-01 1.23166847e+00 7.91786909e-01 8.79763216e-02 8.79763216e-02 5.27857900e-01 6.15834236e-01 7.03810573e-01 7.03810573e-01 9.67739522e-01 5.27857900e-01 3.51905286e-01 4.39881593e-01 2.63928950e-01 3.51905286e-01 3.51905286e-01 7.91786909e-01 4.39881593e-01 5.27857900e-01 7.03810573e-01 4.39881593e-01 6.15834236e-01 1.23166847e+00 7.91786909e-01 7.03810573e-01 7.03810573e-01 6.15834236e-01 5.27857900e-01 9.67739522e-01 7.91786909e-01 2.63928950e-01 7.03810573e-01 6.15834236e-01 5.27857900e-01 7.91786909e-01 3.51905286e-01 3.51905286e-01 3.51905286e-01 1.75952643e-01 7.03810573e-01 5.27857900e-01 3.51905286e-01 6.15834236e-01 2.63928950e-01 4.39881593e-01 5.27857900e-01 4.39881593e-01 5.27857900e-01 3.51905286e-01 4.39881593e-01 3.51905286e-01 4.39881593e-01 3.51905286e-01 4.39881593e-01 6.15834236e-01 6.15834236e-01 7.03810573e-01 6.15834236e-01 3.51905286e-01 5.27857900e-01 5.27857900e-01 4.39881593e-01 4.39881593e-01 7.91786909e-01 3.51905286e-01 1.75952643e-01 6.15834236e-01 3.51905286e-01 3.51905286e-01 1.75952643e-01 8.79763216e-02 3.51905286e-01 2.63928950e-01 2.63928950e-01 3.51905286e-01 5.27857900e-01 5.27857900e-01 4.39881593e-01 1.75952643e-01 6.15834236e-01 4.39881593e-01 4.39881593e-01 7.03810573e-01 1.75952643e-01 2.63928950e-01 0.00000000e+00 4.39881593e-01 4.39881593e-01 1.75952643e-01 2.63928950e-01 1.75952643e-01 5.27857900e-01 5.27857900e-01 3.51905286e-01 5.27857900e-01 4.39881593e-01 3.51905286e-01 3.51905286e-01 4.39881593e-01 4.39881593e-01 2.63928950e-01 5.27857900e-01 1.75952643e-01 1.75952643e-01 8.79763216e-02 5.27857900e-01 1.75952643e-01 3.51905286e-01 5.27857900e-01 7.91786909e-01 2.63928950e-01 7.03810573e-01 2.63928950e-01 3.51905286e-01 1.75952643e-01 3.51905286e-01 3.51905286e-01 1.75952643e-01 2.63928950e-01 1.75952643e-01 4.39881593e-01 6.15834236e-01 3.51905286e-01 5.27857900e-01 3.51905286e-01 4.39881593e-01 4.39881593e-01 5.27857900e-01 2.63928950e-01 1.75952643e-01 3.51905286e-01 8.79763216e-02 3.51905286e-01 4.39881593e-01 1.75952643e-01 4.39881593e-01 8.79763216e-02 2.63928950e-01 3.51905286e-01 3.51905286e-01 2.63928950e-01 2.63928950e-01 3.51905286e-01 8.79763216e-02 4.39881593e-01 8.79763216e-02 4.39881593e-01 8.79763216e-02 3.51905286e-01 3.51905286e-01 8.79763216e-02 1.75952643e-01 3.51905286e-01 2.63928950e-01 2.63928950e-01 3.51905286e-01 3.51905286e-01 8.79763216e-02 1.75952643e-01 2.63928950e-01 8.79763216e-02 1.75952643e-01 1.75952643e-01 1.75952643e-01 4.39881593e-01 1.75952643e-01 1.75952643e-01 8.79763216e-02 4.39881593e-01 4.39881593e-01 5.27857900e-01 1.75952643e-01 2.63928950e-01 2.63928950e-01 4.39881593e-01 7.91786909e-01 2.63928950e-01 2.63928950e-01 2.63928950e-01 6.15834236e-01 3.51905286e-01 3.51905286e-01 3.51905286e-01 8.79763216e-02 2.63928950e-01 8.79763216e-02 1.75952643e-01 1.75952643e-01 2.63928950e-01 1.75952643e-01 1.75952643e-01 1.75952643e-01 8.79763216e-02 4.39881593e-01 3.51905286e-01 8.79763216e-02 1.75952643e-01 6.15834236e-01 3.51905286e-01 8.79763216e-02 1.75952643e-01 3.51905286e-01 1.75952643e-01 8.79763216e-02 1.75952643e-01 8.79763216e-02 1.75952643e-01 2.63928950e-01 8.79763216e-02 2.63928950e-01 1.75952643e-01 1.75952643e-01 4.39881593e-01 2.63928950e-01 1.75952643e-01 4.39881593e-01 3.51905286e-01 2.63928950e-01 1.75952643e-01 0.00000000e+00 4.39881593e-01 4.39881593e-01 1.75952643e-01 8.79763216e-02 4.39881593e-01 2.63928950e-01 3.51905286e-01 1.75952643e-01 3.51905286e-01 8.79763216e-02 2.63928950e-01 0.00000000e+00 1.75952643e-01 4.39881593e-01 1.75952643e-01 1.75952643e-01 1.75952643e-01 1.75952643e-01 2.63928950e-01 1.75952643e-01 2.63928950e-01 2.63928950e-01 4.39881593e-01 3.51905286e-01 8.79763216e-02 8.79763216e-02 1.75952643e-01 2.63928950e-01 2.63928950e-01 2.63928950e-01 1.75952643e-01 1.75952643e-01 1.75952643e-01 1.75952643e-01 1.75952643e-01 4.39881593e-01 4.39881593e-01 1.75952643e-01 3.51905286e-01 4.39881593e-01 6.15834236e-01 8.79763216e-02 4.39881593e-01 8.79763216e-02 8.79763216e-02 3.51905286e-01 1.75952643e-01 1.75952643e-01 3.51905286e-01 5.27857900e-01 0.00000000e+00 3.51905286e-01 0.00000000e+00 2.63928950e-01 8.79763216e-02 1.75952643e-01 8.79763216e-02 1.75952643e-01 8.79763216e-02 1.75952643e-01 8.79763216e-02 8.79763216e-02 8.79763216e-02 8.79763216e-02 4.39881593e-01 8.79763216e-02 8.79763216e-02 5.27857900e-01 2.63928950e-01 1.75952643e-01 2.63928950e-01 0.00000000e+00 2.63928950e-01 1.75952643e-01 1.75952643e-01 0.00000000e+00 3.51905286e-01 2.63928950e-01 8.79763216e-02 8.79763216e-02 2.63928950e-01 1.75952643e-01 1.75952643e-01 1.75952643e-01 8.79763216e-02 1.75952643e-01 2.63928950e-01 0.00000000e+00 2.63928950e-01 3.51905286e-01 3.51905286e-01 8.79763216e-02 2.63928950e-01 1.75952643e-01 8.79763216e-02 2.63928950e-01 2.63928950e-01 8.79763216e-02 1.75952643e-01 1.75952643e-01 1.75952643e-01 4.39881593e-01 8.79763216e-02 1.75952643e-01 1.75952643e-01 8.79763216e-02 2.63928950e-01 1.75952643e-01 1.75952643e-01 1.75952643e-01 8.79763216e-02 2.63928950e-01 0.00000000e+00 0.00000000e+00 3.51905286e-01 2.63928950e-01 3.51905286e-01 1.75952643e-01 8.79763216e-02 2.63928950e-01 8.79763216e-02 2.63928950e-01 1.75952643e-01 8.79763216e-02 1.75952643e-01 8.79763216e-02 2.63928950e-01 3.51905286e-01 1.75952643e-01 2.63928950e-01 1.75952643e-01 1.75952643e-01 8.79763216e-02 3.51905286e-01 2.63928950e-01 1.75952643e-01 0.00000000e+00 8.79763216e-02 1.75952643e-01 2.63928950e-01 4.39881593e-01 8.79763216e-02 8.79763216e-02 2.63928950e-01 8.79763216e-02 8.79763216e-02 0.00000000e+00 2.63928950e-01 0.00000000e+00 1.75952643e-01 1.75952643e-01 1.75952643e-01 1.75952643e-01 3.51905286e-01 8.79763216e-02 2.63928950e-01 8.79763216e-02 2.63928950e-01 8.79763216e-02 8.79763216e-02 8.79763216e-02 0.00000000e+00 8.79763216e-02 5.27857900e-01 8.79763216e-02 8.79763216e-02 3.51905286e-01 3.51905286e-01 2.63928950e-01 3.51905286e-01 1.75952643e-01 8.79763216e-02 1.75952643e-01 8.79763216e-02 1.75952643e-01 1.75952643e-01 8.79763216e-02 8.79763216e-02 2.63928950e-01 8.79763216e-02 1.75952643e-01 4.39881593e-01 2.63928950e-01 4.39881593e-01 8.79763216e-02 0.00000000e+00 0.00000000e+00 8.79763216e-02 8.79763216e-02 1.75952643e-01 2.63928950e-01 8.79763216e-02 1.75952643e-01 2.63928950e-01 2.63928950e-01 0.00000000e+00 0.00000000e+00 8.79763216e-02 2.63928950e-01 4.39881593e-01 0.00000000e+00 0.00000000e+00 8.79763216e-02 3.51905286e-01 8.79763216e-02 8.79763216e-02 1.75952643e-01 2.63928950e-01 1.75952643e-01 0.00000000e+00 0.00000000e+00 2.63928950e-01 3.51905286e-01 8.79763216e-02 8.79763216e-02 8.79763216e-02 8.79763216e-02 8.79763216e-02 8.79763216e-02 1.75952643e-01 0.00000000e+00 1.75952643e-01 1.75952643e-01 1.75952643e-01 1.75952643e-01 8.79763216e-02 8.79763216e-02 8.79763216e-02 0.00000000e+00 1.75952643e-01 1.75952643e-01 2.63928950e-01 3.51905286e-01 8.79763216e-02 8.79763216e-02 2.63928950e-01 0.00000000e+00 0.00000000e+00 1.75952643e-01 2.63928950e-01 8.79763216e-02 1.75952643e-01 8.79763216e-02 1.75952643e-01 0.00000000e+00 8.79763216e-02 1.75952643e-01 2.63928950e-01 8.79763216e-02 1.75952643e-01 1.75952643e-01 1.75952643e-01 8.79763216e-02 1.75952643e-01 1.75952643e-01 3.51905286e-01 8.79763216e-02 8.79763216e-02 3.51905286e-01 1.75952643e-01 1.75952643e-01 8.79763216e-02 8.79763216e-02 0.00000000e+00 1.75952643e-01 8.79763216e-02 3.51905286e-01 1.75952643e-01 2.63928950e-01 8.79763216e-02 0.00000000e+00 5.27857900e-01 0.00000000e+00 0.00000000e+00 8.79763216e-02 1.75952643e-01 2.63928950e-01 8.79763216e-02 0.00000000e+00 1.75952643e-01 8.79763216e-02 1.75952643e-01 0.00000000e+00 8.79763216e-02 0.00000000e+00 1.75952643e-01 1.75952643e-01 8.79763216e-02 1.75952643e-01 8.79763216e-02 8.79763216e-02 1.75952643e-01 8.79763216e-02 1.75952643e-01 1.75952643e-01 8.79763216e-02 3.51905286e-01 1.75952643e-01 0.00000000e+00 8.79763216e-02 8.79763216e-02 1.75952643e-01 1.75952643e-01 8.79763216e-02 8.79763216e-02 0.00000000e+00 8.79763216e-02 1.75952643e-01 1.75952643e-01 8.79763216e-02 8.79763216e-02 2.63928950e-01 1.75952643e-01 8.79763216e-02 0.00000000e+00 0.00000000e+00 1.75952643e-01 8.79763216e-02 0.00000000e+00 0.00000000e+00 8.79763216e-02 0.00000000e+00 0.00000000e+00 2.63928950e-01 1.75952643e-01 1.75952643e-01 0.00000000e+00 8.79763216e-02 1.75952643e-01 8.79763216e-02 2.63928950e-01 1.75952643e-01 1.75952643e-01 1.75952643e-01 2.63928950e-01 1.75952643e-01 8.79763216e-02 8.79763216e-02 1.75952643e-01 0.00000000e+00 8.79763216e-02 8.79763216e-02 8.79763216e-02 1.75952643e-01 0.00000000e+00 0.00000000e+00 1.75952643e-01 8.79763216e-02 0.00000000e+00 8.79763216e-02 1.75952643e-01 0.00000000e+00 1.75952643e-01 1.75952643e-01 8.79763216e-02 8.79763216e-02 8.79763216e-02 8.79763216e-02 2.63928950e-01 8.79763216e-02 2.63928950e-01 1.75952643e-01 1.75952643e-01 8.79763216e-02 2.63928950e-01 0.00000000e+00 0.00000000e+00 0.00000000e+00 0.00000000e+00 8.79763216e-02 8.79763216e-02 8.79763216e-02 8.79763216e-02 8.79763216e-02 0.00000000e+00 0.00000000e+00 1.75952643e-01 0.00000000e+00 1.75952643e-01 1.75952643e-01 0.00000000e+00 8.79763216e-02 2.63928950e-01 0.00000000e+00 1.75952643e-01 0.00000000e+00 0.00000000e+00 1.75952643e-01 0.00000000e+00 8.79763216e-02 0.00000000e+00 2.63928950e-01 8.79763216e-02 0.00000000e+00 1.75952643e-01 2.63928950e-01 8.79763216e-02 3.51905286e-01 0.00000000e+00 1.75952643e-01 8.79763216e-02 3.51905286e-01 8.79763216e-02 8.79763216e-02 0.00000000e+00 1.75952643e-01 0.00000000e+00 8.79763216e-02 0.00000000e+00 0.00000000e+00 8.79763216e-02 8.79763216e-02 0.00000000e+00 0.00000000e+00 2.63928950e-01 2.63928950e-01 0.00000000e+00 8.79763216e-02 0.00000000e+00 1.75952643e-01 1.75952643e-01 1.75952643e-01 1.75952643e-01 1.75952643e-01 0.00000000e+00 0.00000000e+00 8.79763216e-02 1.75952643e-01 1.75952643e-01 1.75952643e-01 0.00000000e+00 3.51905286e-01 8.79763216e-02 2.63928950e-01 8.79763216e-02 0.00000000e+00 1.75952643e-01 2.63928950e-01 1.75952643e-01 8.79763216e-02 1.75952643e-01 8.79763216e-02 1.75952643e-01 0.00000000e+00 8.79763216e-02 2.63928950e-01 8.79763216e-02 0.00000000e+00 0.00000000e+00 8.79763216e-02 2.63928950e-01 8.79763216e-02 8.79763216e-02 1.75952643e-01 0.00000000e+00 8.79763216e-02 0.00000000e+00 0.00000000e+00 8.79763216e-02 1.75952643e-01 1.75952643e-01 2.63928950e-01 0.00000000e+00 0.00000000e+00 1.75952643e-01 2.63928950e-01 1.75952643e-01 0.00000000e+00 8.79763216e-02 8.79763216e-02 8.79763216e-02 8.79763216e-02 8.79763216e-02 8.79763216e-02 0.00000000e+00 8.79763216e-02 0.00000000e+00 0.00000000e+00 8.79763216e-02 0.00000000e+00 0.00000000e+00 0.00000000e+00 1.75952643e-01 1.75952643e-01 8.79763216e-02 1.75952643e-01 1.75952643e-01 8.79763216e-02 1.75952643e-01 0.00000000e+00 0.00000000e+00 1.75952643e-01 1.75952643e-01 8.79763216e-02 2.63928950e-01 0.00000000e+00 0.00000000e+00 0.00000000e+00 0.00000000e+00 1.75952643e-01 0.00000000e+00 1.75952643e-01 1.75952643e-01 0.00000000e+00 0.00000000e+00 8.79763216e-02 1.75952643e-01 1.75952643e-01 1.75952643e-01 1.75952643e-01 2.63928950e-01 0.00000000e+00 1.75952643e-01 3.51905286e-01 0.00000000e+00 8.79763216e-02 8.79763216e-02 2.63928950e-01 0.00000000e+00 1.75952643e-01 8.79763216e-02 0.00000000e+00 8.79763216e-02 0.00000000e+00 8.79763216e-02 8.79763216e-02 0.00000000e+00 5.27857900e-01 0.00000000e+00 0.00000000e+00 0.00000000e+00 1.75952643e-01 1.75952643e-01 1.75952643e-01 0.00000000e+00 1.75952643e-01 0.00000000e+00 0.00000000e+00 1.75952643e-01 0.00000000e+00 8.79763216e-02 8.79763216e-02 1.75952643e-01 1.75952643e-01 2.63928950e-01 8.79763216e-02 0.00000000e+00 0.00000000e+00 8.79763216e-02 8.79763216e-02 0.00000000e+00 0.00000000e+00 8.79763216e-02 8.79763216e-02 1.75952643e-01 8.79763216e-02 8.79763216e-02 0.00000000e+00 3.51905286e-01 0.00000000e+00 3.51905286e-01 0.00000000e+00 8.79763216e-02 0.00000000e+00 8.79763216e-02 8.79763216e-02 8.79763216e-02 0.00000000e+00 8.79763216e-02 0.00000000e+00 1.75952643e-01 1.75952643e-01 8.79763216e-02 1.75952643e-01 2.63928950e-01 1.75952643e-01 8.79763216e-02 0.00000000e+00 0.00000000e+00 0.00000000e+00 0.00000000e+00 0.00000000e+00 0.00000000e+00 0.00000000e+00 1.75952643e-01 8.79763216e-02 8.79763216e-02 8.79763216e-02 0.00000000e+00 8.79763216e-02 8.79763216e-02 2.63928950e-01 1.75952643e-01 8.79763216e-02 0.00000000e+00 0.00000000e+00 1.75952643e-01 1.75952643e-01 1.75952643e-01 8.79763216e-02 1.75952643e-01 1.75952643e-01 8.79763216e-02 0.00000000e+00 8.79763216e-02 0.00000000e+00 0.00000000e+00 0.00000000e+00 8.79763216e-02 8.79763216e-02 0.00000000e+00 0.00000000e+00 1.75952643e-01 2.63928950e-01 0.00000000e+00 0.00000000e+00 0.00000000e+00 0.00000000e+00 1.75952643e-01 8.79763216e-02 8.79763216e-02 2.63928950e-01 0.00000000e+00 0.00000000e+00 0.00000000e+00 1.75952643e-01 1.75952643e-01 0.00000000e+00 8.79763216e-02 3.51905286e-01 0.00000000e+00 0.00000000e+00 2.63928950e-01 0.00000000e+00 8.79763216e-02 2.63928950e-01 8.79763216e-02 0.00000000e+00 0.00000000e+00 0.00000000e+00 1.75952643e-01 8.79763216e-02 0.00000000e+00 8.79763216e-02 4.39881593e-01 1.75952643e-01 8.79763216e-02 0.00000000e+00 0.00000000e+00 8.79763216e-02 0.00000000e+00 8.79763216e-02 0.00000000e+00 8.79763216e-02 0.00000000e+00 1.75952643e-01 1.75952643e-01 8.79763216e-02 1.75952643e-01 0.00000000e+00 8.79763216e-02 1.75952643e-01 1.75952643e-01 0.00000000e+00 0.00000000e+00 0.00000000e+00 0.00000000e+00 8.79763216e-02 3.51905286e-01 8.79763216e-02 8.79763216e-02 0.00000000e+00 0.00000000e+00 0.00000000e+00 8.79763216e-02 0.00000000e+00 0.00000000e+00 0.00000000e+00 2.63928950e-01 0.00000000e+00 8.79763216e-02 8.79763216e-02 8.79763216e-02 8.79763216e-02 0.00000000e+00 8.79763216e-02 0.00000000e+00 8.79763216e-02 1.75952643e-01 0.00000000e+00 8.79763216e-02 1.75952643e-01 0.00000000e+00 0.00000000e+00 0.00000000e+00 1.75952643e-01 8.79763216e-02 1.75952643e-01 2.63928950e-01 2.63928950e-01 0.00000000e+00 0.00000000e+00 0.00000000e+00 0.00000000e+00 1.75952643e-01 8.79763216e-02 0.00000000e+00 0.00000000e+00 2.63928950e-01 0.00000000e+00 1.75952643e-01 0.00000000e+00 8.79763216e-02 8.79763216e-02 0.00000000e+00 0.00000000e+00 8.79763216e-02 0.00000000e+00 8.79763216e-02 0.00000000e+00 8.79763216e-02 1.75952643e-01 2.63928950e-01 0.00000000e+00 8.79763216e-02 0.00000000e+00 8.79763216e-02 0.00000000e+00 0.00000000e+00 0.00000000e+00 0.00000000e+00 0.00000000e+00 0.00000000e+00 1.75952643e-01 8.79763216e-02 8.79763216e-02 0.00000000e+00 8.79763216e-02 1.75952643e-01 0.00000000e+00 0.00000000e+00 8.79763216e-02 1.75952643e-01 1.75952643e-01 0.00000000e+00 8.79763216e-02 1.75952643e-01 1.75952643e-01 1.75952643e-01 0.00000000e+00 1.75952643e-01 1.75952643e-01 0.00000000e+00 0.00000000e+00 1.75952643e-01 8.79763216e-02 8.79763216e-02 8.79763216e-02 1.75952643e-01 8.79763216e-02 1.75952643e-01 0.00000000e+00 0.00000000e+00 2.63928950e-01 3.51905286e-01 1.75952643e-01 8.79763216e-02 0.00000000e+00 0.00000000e+00 8.79763216e-02 8.79763216e-02 0.00000000e+00 8.79763216e-02 8.79763216e-02 2.63928950e-01 8.79763216e-02 0.00000000e+00 8.79763216e-02 8.79763216e-02 1.75952643e-01 0.00000000e+00 0.00000000e+00 2.63928950e-01 0.00000000e+00 1.75952643e-01 1.75952643e-01 8.79763216e-02 0.00000000e+00 0.00000000e+00 8.79763216e-02 8.79763216e-02 8.79763216e-02 8.79763216e-02 8.79763216e-02 1.75952643e-01 0.00000000e+00 1.75952643e-01 8.79763216e-02 2.63928950e-01 8.79763216e-02 1.75952643e-01 8.79763216e-02 0.00000000e+00 0.00000000e+00 8.79763216e-02 1.75952643e-01 8.79763216e-02 0.00000000e+00 0.00000000e+00 2.63928950e-01 8.79763216e-02 0.00000000e+00 0.00000000e+00 0.00000000e+00 8.79763216e-02 1.75952643e-01 8.79763216e-02 0.00000000e+00 0.00000000e+00 1.75952643e-01 8.79763216e-02 8.79763216e-02 1.75952643e-01 8.79763216e-02 1.75952643e-01 8.79763216e-02 1.75952643e-01 0.00000000e+00 0.00000000e+00 8.79763216e-02 8.79763216e-02 0.00000000e+00 0.00000000e+00 0.00000000e+00 8.79763216e-02 0.00000000e+00 8.79763216e-02 1.75952643e-01 0.00000000e+00 8.79763216e-02 0.00000000e+00 0.00000000e+00 8.79763216e-02 8.79763216e-02 8.79763216e-02 8.79763216e-02 1.75952643e-01 0.00000000e+00 0.00000000e+00 8.79763216e-02 8.79763216e-02 8.79763216e-02 1.75952643e-01 0.00000000e+00 0.00000000e+00 8.79763216e-02 0.00000000e+00 1.75952643e-01 1.75952643e-01 0.00000000e+00 8.79763216e-02 1.75952643e-01 0.00000000e+00 8.79763216e-02 1.75952643e-01 1.75952643e-01 0.00000000e+00 8.79763216e-02 0.00000000e+00 0.00000000e+00 8.79763216e-02 0.00000000e+00 8.79763216e-02 8.79763216e-02 1.75952643e-01 1.75952643e-01 8.79763216e-02 1.75952643e-01 8.79763216e-02 1.75952643e-01 0.00000000e+00 8.79763216e-02 0.00000000e+00 8.79763216e-02 0.00000000e+00 1.75952643e-01 8.79763216e-02 0.00000000e+00 4.39881593e-01 0.00000000e+00 1.75952643e-01 1.75952643e-01 0.00000000e+00 0.00000000e+00 8.79763216e-02 8.79763216e-02 8.79763216e-02 8.79763216e-02 1.75952643e-01 0.00000000e+00 8.79763216e-02 0.00000000e+00 0.00000000e+00 8.79763216e-02 0.00000000e+00 8.79763216e-02 2.63928950e-01 8.79763216e-02 0.00000000e+00 0.00000000e+00 0.00000000e+00 1.75952643e-01 0.00000000e+00 0.00000000e+00 1.75952643e-01 8.79763216e-02 0.00000000e+00 1.75952643e-01 8.79763216e-02 0.00000000e+00 1.75952643e-01 8.79763216e-02 1.75952643e-01 0.00000000e+00 0.00000000e+00 8.79763216e-02 8.79763216e-02 8.79763216e-02 0.00000000e+00 0.00000000e+00 0.00000000e+00 8.79763216e-02 8.79763216e-02 0.00000000e+00 8.79763216e-02 0.00000000e+00 8.79763216e-02 8.79763216e-02 8.79763216e-02 0.00000000e+00 1.75952643e-01 0.00000000e+00 0.00000000e+00 8.79763216e-02 0.00000000e+00 0.00000000e+00 0.00000000e+00 0.00000000e+00 1.75952643e-01 8.79763216e-02 8.79763216e-02 8.79763216e-02 0.00000000e+00 0.00000000e+00 8.79763216e-02 8.79763216e-02 8.79763216e-02 0.00000000e+00 8.79763216e-02 8.79763216e-02 8.79763216e-02 2.63928950e-01 8.79763216e-02 8.79763216e-02 8.79763216e-02 1.75952643e-01 8.79763216e-02 0.00000000e+00 8.79763216e-02 0.00000000e+00 8.79763216e-02 0.00000000e+00 8.79763216e-02 8.79763216e-02 0.00000000e+00 8.79763216e-02 8.79763216e-02 0.00000000e+00 1.75952643e-01 8.79763216e-02 0.00000000e+00 1.75952643e-01 8.79763216e-02 8.79763216e-02 8.79763216e-02 8.79763216e-02 8.79763216e-02 8.79763216e-02 1.75952643e-01 8.79763216e-02 0.00000000e+00 8.79763216e-02 0.00000000e+00 0.00000000e+00 8.79763216e-02 8.79763216e-02 0.00000000e+00 1.75952643e-01 8.79763216e-02 0.00000000e+00 8.79763216e-02 8.79763216e-02 0.00000000e+00 0.00000000e+00 1.75952643e-01 0.00000000e+00 2.63928950e-01 0.00000000e+00 0.00000000e+00 0.00000000e+00 0.00000000e+00 1.75952643e-01 1.75952643e-01 0.00000000e+00 1.75952643e-01 8.79763216e-02 1.75952643e-01 8.79763216e-02 8.79763216e-02 0.00000000e+00 0.00000000e+00 8.79763216e-02 8.79763216e-02 0.00000000e+00 2.63928950e-01 2.63928950e-01 0.00000000e+00 0.00000000e+00 0.00000000e+00 1.75952643e-01 8.79763216e-02 1.75952643e-01 1.75952643e-01 0.00000000e+00 2.63928950e-01 8.79763216e-02 0.00000000e+00 8.79763216e-02 0.00000000e+00 0.00000000e+00 8.79763216e-02 8.79763216e-02 1.75952643e-01 0.00000000e+00 1.75952643e-01 8.79763216e-02 8.79763216e-02 0.00000000e+00 0.00000000e+00 1.75952643e-01 0.00000000e+00 1.75952643e-01 1.75952643e-01 8.79763216e-02 0.00000000e+00 8.79763216e-02 8.79763216e-02 8.79763216e-02 0.00000000e+00 0.00000000e+00 0.00000000e+00 0.00000000e+00 3.51905286e-01 0.00000000e+00 0.00000000e+00 8.79763216e-02 8.79763216e-02 0.00000000e+00 1.75952643e-01 1.75952643e-01 0.00000000e+00 0.00000000e+00 8.79763216e-02 1.75952643e-01 0.00000000e+00 8.79763216e-02 8.79763216e-02 1.75952643e-01 0.00000000e+00 8.79763216e-02 8.79763216e-02 1.75952643e-01 8.79763216e-02 0.00000000e+00 1.75952643e-01 0.00000000e+00 8.79763216e-02 0.00000000e+00 0.00000000e+00 2.63928950e-01 8.79763216e-02 1.75952643e-01 0.00000000e+00 3.51905286e-01 8.79763216e-02 8.79763216e-02 8.79763216e-02 8.79763216e-02 0.00000000e+00 0.00000000e+00 0.00000000e+00 8.79763216e-02 1.75952643e-01 8.79763216e-02 0.00000000e+00 0.00000000e+00 8.79763216e-02 0.00000000e+00 8.79763216e-02 8.79763216e-02 0.00000000e+00 2.63928950e-01 8.79763216e-02 8.79763216e-02 1.75952643e-01 8.79763216e-02 1.75952643e-01 8.79763216e-02 8.79763216e-02 0.00000000e+00 0.00000000e+00 1.75952643e-01 8.79763216e-02 0.00000000e+00 8.79763216e-02 0.00000000e+00 8.79763216e-02 8.79763216e-02 0.00000000e+00 0.00000000e+00 8.79763216e-02 8.79763216e-02 1.75952643e-01 8.79763216e-02 1.75952643e-01 8.79763216e-02 1.75952643e-01 1.75952643e-01 8.79763216e-02 0.00000000e+00 0.00000000e+00 8.79763216e-02 1.75952643e-01 1.75952643e-01 0.00000000e+00 8.79763216e-02 8.79763216e-02 8.79763216e-02 2.63928950e-01 0.00000000e+00 8.79763216e-02 8.79763216e-02 0.00000000e+00 1.75952643e-01 0.00000000e+00 8.79763216e-02 0.00000000e+00 0.00000000e+00 0.00000000e+00 0.00000000e+00 2.63928950e-01 8.79763216e-02 1.75952643e-01 8.79763216e-02 0.00000000e+00 0.00000000e+00 0.00000000e+00 2.63928950e-01 8.79763216e-02 8.79763216e-02 8.79763216e-02 0.00000000e+00 0.00000000e+00 1.75952643e-01 8.79763216e-02 2.63928950e-01 2.63928950e-01 0.00000000e+00 0.00000000e+00 0.00000000e+00 0.00000000e+00 8.79763216e-02 0.00000000e+00 0.00000000e+00 8.79763216e-02 0.00000000e+00 0.00000000e+00 8.79763216e-02 1.75952643e-01 8.79763216e-02 2.63928950e-01 2.63928950e-01 8.79763216e-02 2.63928950e-01 1.75952643e-01 0.00000000e+00 0.00000000e+00 8.79763216e-02 0.00000000e+00 8.79763216e-02 0.00000000e+00 8.79763216e-02 0.00000000e+00 1.75952643e-01 0.00000000e+00 8.79763216e-02 0.00000000e+00 1.75952643e-01 1.75952643e-01 0.00000000e+00 0.00000000e+00 0.00000000e+00 8.79763216e-02 2.63928950e-01 8.79763216e-02 1.75952643e-01 8.79763216e-02 8.79763216e-02 0.00000000e+00 8.79763216e-02 8.79763216e-02 2.63928950e-01 1.75952643e-01 8.79763216e-02 0.00000000e+00 1.75952643e-01 8.79763216e-02 0.00000000e+00 0.00000000e+00 8.79763216e-02 1.75952643e-01 8.79763216e-02 1.75952643e-01 1.75952643e-01 8.79763216e-02 1.75952643e-01 8.79763216e-02 2.63928950e-01 2.63928950e-01 8.79763216e-02 0.00000000e+00 2.63928950e-01 0.00000000e+00 0.00000000e+00 0.00000000e+00 8.79763216e-02 1.75952643e-01 1.75952643e-01 8.79763216e-02 8.79763216e-02 8.79763216e-02 0.00000000e+00 2.63928950e-01 8.79763216e-02 2.63928950e-01 8.79763216e-02 8.79763216e-02 8.79763216e-02 8.79763216e-02 0.00000000e+00 8.79763216e-02 2.63928950e-01 0.00000000e+00 8.79763216e-02 8.79763216e-02 8.79763216e-02 8.79763216e-02 8.79763216e-02 1.75952643e-01 8.79763216e-02 2.63928950e-01 3.51905286e-01 4.39881593e-01 2.63928950e-01 8.79763216e-02 8.79763216e-02 2.63928950e-01 8.79763216e-02 1.75952643e-01 3.51905286e-01 3.51905286e-01 0.00000000e+00 1.75952643e-01 8.79763216e-02 2.63928950e-01 8.79763216e-02 8.79763216e-02 0.00000000e+00 3.51905286e-01 8.79763216e-02 2.63928950e-01 8.79763216e-02 2.63928950e-01 0.00000000e+00 1.75952643e-01 8.79763216e-02 8.79763216e-02 2.63928950e-01 1.75952643e-01 8.79763216e-02 8.79763216e-02 1.75952643e-01 1.75952643e-01 8.79763216e-02 8.79763216e-02 2.63928950e-01 1.75952643e-01 3.51905286e-01 8.79763216e-02 2.63928950e-01 2.63928950e-01 1.75952643e-01 2.63928950e-01 8.79763216e-02 8.79763216e-02 2.63928950e-01 8.79763216e-02 8.79763216e-02 1.75952643e-01 1.75952643e-01 2.63928950e-01 2.63928950e-01 0.00000000e+00 8.79763216e-02 2.63928950e-01 1.75952643e-01 8.79763216e-02 0.00000000e+00 3.51905286e-01 1.75952643e-01 8.79763216e-02 8.79763216e-02 2.63928950e-01 6.15834236e-01 5.27857900e-01 0.00000000e+00 4.39881593e-01 2.63928950e-01 6.15834236e-01 2.63928950e-01 3.51905286e-01 3.51905286e-01 4.39881593e-01 1.75952643e-01 2.63928950e-01 4.39881593e-01 3.51905286e-01 5.27857900e-01 5.27857900e-01 4.39881593e-01 2.63928950e-01 7.91786909e-01 5.27857900e-01 5.27857900e-01 8.79763186e-01 9.67739522e-01 2.63928950e-01 1.05571580e+00 7.03810573e-01 7.03810573e-01 4.39881593e-01 0.00000000e+00 
      </Histogram>
    </PDF>
  </MVAPdfs>
  <Weights NTrees="2000" AnalysisType="1">
    <BinaryTree type="DecisionTree" boostWeight="1.0000000000000000e+00" itree="0">
      <Node pos="s" depth="0" NCoef="0" IVar="16" Cut="-2.6871172711253166e-02" cType="0" res="3.8634970784187317e-01" rms="3.1738606095314026e-01" purity="8.8634967803955078e-01" nType="0">
        <Node pos="l" depth="1" NCoef="0" IVar="-1" Cut="0.0000000000000000e+00" cType="1" res="9.0315677225589752e-02" rms="2.1465547382831573e-01" purity="9.5157837867736816e-01" nType="-99"/>
        <Node pos="r" depth="1" NCoef="0" IVar="10" Cut="6.3962593674659729e-02" cType="0" res="-1.1992096155881882e-01" rms="4.8540598154067993e-01" purity="3.8007903099060059e-01" nType="0">
          <Node pos="l" depth="2" NCoef="0" IVar="-1" Cut="0.0000000000000000e+00" cType="1" res="2.5195876136422157e-02" rms="4.8386898636817932e-01" purity="6.2597936391830444e-01" nType="-99"/>
          <Node pos="r" depth="2" NCoef="0" IVar="-1" Cut="0.0000000000000000e+00" cType="1" res="-7.1508266031742096e-02" rms="3.4951993823051453e-01" purity="1.4245866239070892e-01" nType="-99"/>
        </Node>
      </Node>
    </BinaryTree>
    <BinaryTree type="DecisionTree" boostWeight="1.0000000000000000e+00" itree="1">
      <Node pos="s" depth="0" NCoef="0" IVar="16" Cut="-2.2170564159750938e-02" cType="0" res="3.4781977534294128e-01" rms="3.0530267953872681e-01" purity="8.8634967803955078e-01" nType="0">
        <Node pos="l" depth="1" NCoef="0" IVar="-1" Cut="0.0000000000000000e+00" cType="1" res="8.2690298557281494e-02" rms="2.0701263844966888e-01" purity="9.5513272285461426e-01" nType="-99"/>
        <Node pos="r" depth="1" NCoef="0" IVar="10" Cut="7.8829050064086914e-02" cType="0" res="-8.6485795676708221e-02" rms="4.7823220491409302e-01" purity="4.0667650103569031e-01" nType="0">
          <Node pos="l" depth="2" NCoef="0" IVar="-1" Cut="0.0000000000000000e+00" cType="1" res="2.9500111937522888e-02" rms="4.7105407714843750e-01" purity="6.6378152370452881e-01" nType="-99"/>
          <Node pos="r" depth="2" NCoef="0" IVar="-1" Cut="0.0000000000000000e+00" cType="1" res="-6.0662418603897095e-02" rms="3.7189424037933350e-01" purity="1.6988486051559448e-01" nType="-99"/>
        </Node>
      </Node>
    </BinaryTree>
    <BinaryTree type="DecisionTree" boostWeight="1.0000000000000000e+00" itree="2">
      <Node pos="s" depth="0" NCoef="0" IVar="16" Cut="-2.2170564159750938e-02" cType="0" res="3.1337526440620422e-01" rms="2.9482448101043701e-01" purity="8.8634967803955078e-01" nType="0">
        <Node pos="l" depth="1" NCoef="0" IVar="-1" Cut="0.0000000000000000e+00" cType="1" res="7.6130464673042297e-02" rms="2.0701262354850769e-01" purity="9.5513272285461426e-01" nType="-99"/>
        <Node pos="r" depth="1" NCoef="0" IVar="10" Cut="5.3060527890920639e-02" cType="0" res="-7.7901147305965424e-02" rms="4.6817013621330261e-01" purity="4.0667650103569031e-01" nType="0">
          <Node pos="l" depth="2" NCoef="0" IVar="-1" Cut="0.0000000000000000e+00" cType="1" res="2.1894427016377449e-02" rms="4.7722062468528748e-01" purity="6.3215261697769165e-01" nType="-99"/>
          <Node pos="r" depth="2" NCoef="0" IVar="-1" Cut="0.0000000000000000e+00" cType="1" res="-6.0702532529830933e-02" rms="3.4519746899604797e-01" purity="1.4038616418838501e-01" nType="-99"/>
        </Node>
      </Node>
    </BinaryTree>
    <BinaryTree type="DecisionTree" boostWeight="1.0000000000000000e+00" itree="3">
      <Node pos="s" depth="0" NCoef="0" IVar="15" Cut="7.1345835924148560e-01" cType="0" res="2.8250062465667725e-01" rms="2.8606444597244263e-01" purity="8.8634967803955078e-01" nType="0">
        <Node pos="l" depth="1" NCoef="0" IVar="-1" Cut="0.0000000000000000e+00" cType="1" res="6.7069478332996368e-02" rms="2.4135531485080719e-01" purity="9.2719697952270508e-01" nType="-99"/>
        <Node pos="r" depth="1" NCoef="0" IVar="10" Cut="1.6389235854148865e-01" cType="0" res="-2.6542752981185913e-01" rms="3.7470501661300659e-01" purity="2.3234310746192932e-01" nType="0">
          <Node pos="l" depth="2" NCoef="0" IVar="-1" Cut="0.0000000000000000e+00" cType="1" res="2.1908055990934372e-02" rms="4.4484934210777283e-01" purity="6.9865912199020386e-01" nType="-99"/>
          <Node pos="r" depth="2" NCoef="0" IVar="-1" Cut="0.0000000000000000e+00" cType="1" res="-8.5006989538669586e-02" rms="2.1126846969127655e-01" purity="5.2100382745265961e-02" nType="-99"/>
        </Node>
      </Node>
    </BinaryTree>
    <BinaryTree type="DecisionTree" boostWeight="1.0000000000000000e+00" itree="4">
      <Node pos="s" depth="0" NCoef="0" IVar="16" Cut="-2.9221475124359131e-02" cType="0" res="2.5471195578575134e-01" rms="2.7895337343215942e-01" purity="8.8634967803955078e-01" nType="0">
        <Node pos="l" depth="1" NCoef="0" IVar="-1" Cut="0.0000000000000000e+00" cType="1" res="6.5968550741672516e-02" rms="2.1237426996231079e-01" purity="9.4987404346466064e-01" nType="-99"/>
        <Node pos="r" depth="1" NCoef="0" IVar="10" Cut="7.9820148646831512e-02" cType="0" res="-1.1118470877408981e-01" rms="4.4015952944755554e-01" purity="3.6930558085441589e-01" nType="0">
          <Node pos="l" depth="2" NCoef="0" IVar="-1" Cut="0.0000000000000000e+00" cType="1" res="1.3004892505705357e-02" rms="4.8035594820976257e-01" purity="6.3164001703262329e-01" nType="-99"/>
          <Node pos="r" depth="2" NCoef="0" IVar="-1" Cut="0.0000000000000000e+00" cType="1" res="-5.3827397525310516e-02" rms="3.4012266993522644e-01" purity="1.4970873296260834e-01" nType="-99"/>
        </Node>
      </Node>
    </BinaryTree>
    <BinaryTree type="DecisionTree" boostWeight="1.0000000000000000e+00" itree="5">
      <Node pos="s" depth="0" NCoef="0" IVar="16" Cut="-1.7469957470893860e-02" cType="0" res="2.2977994382381439e-01" rms="2.7254572510719299e-01" purity="8.8634967803955078e-01" nType="0">
        <Node pos="l" depth="1" NCoef="0" IVar="-1" Cut="0.0000000000000000e+00" cType="1" res="6.3883416354656219e-02" rms="1.9637797772884369e-01" purity="9.5870083570480347e-01" nType="-99"/>
        <Node pos="r" depth="1" NCoef="0" IVar="4" Cut="1.0381652042269707e-02" cType="1" res="-5.9487193822860718e-02" rms="4.4067773222923279e-01" purity="4.4608324766159058e-01" nType="0">
          <Node pos="l" depth="2" NCoef="0" IVar="-1" Cut="0.0000000000000000e+00" cType="1" res="1.1786574497818947e-02" rms="4.4118034839630127e-01" purity="5.8460038900375366e-01" nType="-99"/>
          <Node pos="r" depth="2" NCoef="0" IVar="-1" Cut="0.0000000000000000e+00" cType="1" res="-6.3211560249328613e-02" rms="3.3032631874084473e-01" purity="1.6018076241016388e-01" nType="-99"/>
        </Node>
      </Node>
    </BinaryTree>
    <BinaryTree type="DecisionTree" boostWeight="1.0000000000000000e+00" itree="6">
      <Node pos="s" depth="0" NCoef="0" IVar="15" Cut="7.1345835924148560e-01" cType="0" res="2.0736400783061981e-01" rms="2.6650410890579224e-01" purity="8.8634967803955078e-01" nType="0">
        <Node pos="l" depth="1" NCoef="0" IVar="-1" Cut="0.0000000000000000e+00" cType="1" res="5.6096389889717102e-02" rms="2.3392979800701141e-01" purity="9.2719697952270508e-01" nType="-99"/>
        <Node pos="r" depth="1" NCoef="0" IVar="10" Cut="3.1479305028915405e-01" cType="0" res="-2.3887373507022858e-01" rms="3.4707307815551758e-01" purity="2.3234310746192932e-01" nType="0">
          <Node pos="l" depth="2" NCoef="0" IVar="-1" Cut="0.0000000000000000e+00" cType="1" res="1.6577875241637230e-02" rms="4.2625311017036438e-01" purity="7.1798777580261230e-01" nType="-99"/>
          <Node pos="r" depth="2" NCoef="0" IVar="-1" Cut="0.0000000000000000e+00" cType="1" res="-7.7443540096282959e-02" rms="2.3036278784275055e-01" purity="6.3378416001796722e-02" nType="-99"/>
        </Node>
      </Node>
    </BinaryTree>
    <BinaryTree type="DecisionTree" boostWeight="1.0000000000000000e+00" itree="7">
      <Node pos="s" depth="0" NCoef="0" IVar="0" Cut="1.0210911743342876e-02" cType="1" res="1.8708759546279907e-01" rms="2.6171946525573730e-01" purity="8.8634967803955078e-01" nType="0">
        <Node pos="l" depth="1" NCoef="0" IVar="-1" Cut="0.0000000000000000e+00" cType="1" res="5.3899616003036499e-02" rms="2.1812443435192108e-01" purity="9.2257136106491089e-01" nType="-99"/>
        <Node pos="r" depth="1" NCoef="0" IVar="15" Cut="9.2313033342361450e-01" cType="0" res="-2.0679284632205963e-01" rms="4.2823174595832825e-01" purity="3.9882943034172058e-01" nType="0">
          <Node pos="l" depth="2" NCoef="0" IVar="-1" Cut="0.0000000000000000e+00" cType="1" res="-9.0324394404888153e-03" rms="4.2872384190559387e-01" purity="6.2348526716232300e-01" nType="-99"/>
          <Node pos="r" depth="2" NCoef="0" IVar="-1" Cut="0.0000000000000000e+00" cType="1" res="-1.0209093987941742e-01" rms="2.9926565289497375e-01" purity="8.9101031422615051e-02" nType="-99"/>
        </Node>
      </Node>
    </BinaryTree>
    <BinaryTree type="DecisionTree" boostWeight="1.0000000000000000e+00" itree="8">
      <Node pos="s" depth="0" NCoef="0" IVar="16" Cut="-1.9820261746644974e-02" cType="0" res="1.6883106529712677e-01" rms="2.5694885849952698e-01" purity="8.8634967803955078e-01" nType="0">
        <Node pos="l" depth="1" NCoef="0" IVar="-1" Cut="0.0000000000000000e+00" cType="1" res="5.5445000529289246e-02" rms="1.9315928220748901e-01" purity="9.5690208673477173e-01" nType="-99"/>
        <Node pos="r" depth="1" NCoef="0" IVar="17" Cut="-3.7297003436833620e-03" cType="0" res="-8.8629372417926788e-02" rms="4.2099347710609436e-01" purity="4.2527234554290771e-01" nType="0">
          <Node pos="l" depth="2" NCoef="0" IVar="-1" Cut="0.0000000000000000e+00" cType="1" res="-2.8455827850848436e-03" rms="4.2751175165176392e-01" purity="5.2362203598022461e-01" nType="-99"/>
          <Node pos="r" depth="2" NCoef="0" IVar="-1" Cut="0.0000000000000000e+00" cType="1" res="-7.6601460576057434e-02" rms="2.6651674509048462e-01" purity="8.7040618062019348e-02" nType="-99"/>
        </Node>
      </Node>
    </BinaryTree>
    <BinaryTree type="DecisionTree" boostWeight="1.0000000000000000e+00" itree="9">
      <Node pos="s" depth="0" NCoef="0" IVar="0" Cut="1.0165506042540073e-02" cType="1" res="1.5243808925151825e-01" rms="2.5252270698547363e-01" purity="8.8634967803955078e-01" nType="0">
        <Node pos="l" depth="1" NCoef="0" IVar="-1" Cut="0.0000000000000000e+00" cType="1" res="4.9160007387399673e-02" rms="2.1259941160678864e-01" purity="9.2379623651504517e-01" nType="-99"/>
        <Node pos="r" depth="1" NCoef="0" IVar="15" Cut="9.2313033342361450e-01" cType="0" res="-1.8421688675880432e-01" rms="4.1841742396354675e-01" purity="4.1517436504364014e-01" nType="0">
          <Node pos="l" depth="2" NCoef="0" IVar="-1" Cut="0.0000000000000000e+00" cType="1" res="-7.7965985983610153e-03" rms="4.1735523939132690e-01" purity="6.4028775691986084e-01" nType="-99"/>
          <Node pos="r" depth="2" NCoef="0" IVar="-1" Cut="0.0000000000000000e+00" cType="1" res="-9.6028156578540802e-02" rms="3.0844688415527344e-01" purity="9.1848447918891907e-02" nType="-99"/>
        </Node>
      </Node>
    </BinaryTree>
    <BinaryTree type="DecisionTree" boostWeight="1.0000000000000000e+00" itree="10">
      <Node pos="s" depth="0" NCoef="0" IVar="17" Cut="4.1858260519802570e-03" cType="1" res="1.3758389651775360e-01" rms="2.4871994554996490e-01" purity="8.8634967803955078e-01" nType="0">
        <Node pos="l" depth="1" NCoef="0" IVar="-1" Cut="0.0000000000000000e+00" cType="1" res="4.4686578214168549e-02" rms="2.2580318152904510e-01" purity="9.1389721632003784e-01" nType="-99"/>
        <Node pos="r" depth="1" NCoef="0" IVar="0" Cut="8.5025280714035034e-03" cType="1" res="-3.1879392266273499e-01" rms="3.3821785449981689e-01" purity="2.0434911549091339e-01" nType="0">
          <Node pos="l" depth="2" NCoef="0" IVar="-1" Cut="0.0000000000000000e+00" cType="1" res="-1.1305393651127815e-02" rms="3.7189739942550659e-01" purity="6.1538463830947876e-01" nType="-99"/>
          <Node pos="r" depth="2" NCoef="0" IVar="-1" Cut="0.0000000000000000e+00" cType="1" res="-8.0716431140899658e-02" rms="3.1989422440528870e-01" purity="1.5833057463169098e-01" nType="-99"/>
        </Node>
      </Node>
    </BinaryTree>
    <BinaryTree type="DecisionTree" boostWeight="1.0000000000000000e+00" itree="11">
      <Node pos="s" depth="0" NCoef="0" IVar="17" Cut="-4.1953194886445999e-03" cType="0" res="1.2416033446788788e-01" rms="2.4601747095584869e-01" purity="8.8634967803955078e-01" nType="0">
        <Node pos="l" depth="1" NCoef="0" IVar="-1" Cut="0.0000000000000000e+00" cType="1" res="4.2736072093248367e-02" rms="2.2334706783294678e-01" purity="9.1480422019958496e-01" nType="-99"/>
        <Node pos="r" depth="1" NCoef="0" IVar="19" Cut="-5.3958347998559475e-03" cType="0" res="-3.2253110408782959e-01" rms="3.3304074406623840e-01" purity="1.9602687656879425e-01" nType="0">
          <Node pos="l" depth="2" NCoef="0" IVar="-1" Cut="0.0000000000000000e+00" cType="1" res="-4.5408386737108231e-02" rms="4.2838874459266663e-01" purity="4.8217821121215820e-01" nType="-99"/>
          <Node pos="r" depth="2" NCoef="0" IVar="-1" Cut="0.0000000000000000e+00" cType="1" res="-8.7640330195426941e-02" rms="2.6103448867797852e-01" purity="7.6253622770309448e-02" nType="-99"/>
        </Node>
      </Node>
    </BinaryTree>
    <BinaryTree type="DecisionTree" boostWeight="1.0000000000000000e+00" itree="12">
      <Node pos="s" depth="0" NCoef="0" IVar="16" Cut="-1.5119654126465321e-02" cType="0" res="1.1204505711793900e-01" rms="2.4342197179794312e-01" purity="8.8634967803955078e-01" nType="0">
        <Node pos="l" depth="1" NCoef="0" IVar="-1" Cut="0.0000000000000000e+00" cType="1" res="4.8851281404495239e-02" rms="1.8079191446304321e-01" purity="9.6033376455307007e-01" nType="-99"/>
        <Node pos="r" depth="1" NCoef="0" IVar="10" Cut="6.0572620481252670e-02" cType="0" res="-9.5292001962661743e-02" rms="3.9843273162841797e-01" purity="4.6839433908462524e-01" nType="0">
          <Node pos="l" depth="2" NCoef="0" IVar="-1" Cut="0.0000000000000000e+00" cType="1" res="3.6986418999731541e-03" rms="4.1750988364219666e-01" purity="6.9600331783294678e-01" nType="-99"/>
          <Node pos="r" depth="2" NCoef="0" IVar="-1" Cut="0.0000000000000000e+00" cType="1" res="-5.3196024149656296e-02" rms="3.2525214552879333e-01" purity="1.8770393729209900e-01" nType="-99"/>
        </Node>
      </Node>
    </BinaryTree>
    <BinaryTree type="DecisionTree" boostWeight="1.0000000000000000e+00" itree="13">
      <Node pos="s" depth="0" NCoef="0" IVar="0" Cut="1.0375507175922394e-02" cType="1" res="1.0120788216590881e-01" rms="2.3998588323593140e-01" purity="8.8634967803955078e-01" nType="0">
        <Node pos="l" depth="1" NCoef="0" IVar="-1" Cut="0.0000000000000000e+00" cType="1" res="4.0177736431360245e-02" rms="2.1100491285324097e-01" purity="9.1815829277038574e-01" nType="-99"/>
        <Node pos="r" depth="1" NCoef="0" IVar="16" Cut="3.3803062979131937e-03" cType="1" res="-2.3520590364933014e-01" rms="3.9729040861129761e-01" purity="3.5059842467308044e-01" nType="0">
          <Node pos="l" depth="2" NCoef="0" IVar="-1" Cut="0.0000000000000000e+00" cType="1" res="-4.0565446019172668e-02" rms="3.6976593732833862e-01" purity="4.0068224072456360e-01" nType="-99"/>
          <Node pos="r" depth="2" NCoef="0" IVar="-1" Cut="0.0000000000000000e+00" cType="1" res="-1.2787058949470520e-01" rms="3.5523504018783569e-01" purity="1.6618357598781586e-01" nType="-99"/>
        </Node>
      </Node>
    </BinaryTree>
    <BinaryTree type="DecisionTree" boostWeight="1.0000000000000000e+00" itree="14">
      <Node pos="s" depth="0" NCoef="0" IVar="16" Cut="-3.6272387951612473e-02" cType="0" res="9.1375887393951416e-02" rms="2.3740229010581970e-01" purity="8.8634967803955078e-01" nType="0">
        <Node pos="l" depth="1" NCoef="0" IVar="-1" Cut="0.0000000000000000e+00" cType="1" res="4.2145114392042160e-02" rms="1.9822663068771362e-01" purity="9.4473963975906372e-01" nType="-99"/>
        <Node pos="r" depth="1" NCoef="0" IVar="13" Cut="-9.9900084733963013e-01" cType="1" res="-1.5389139950275421e-01" rms="3.8616636395454407e-01" purity="3.4110474586486816e-01" nType="0">
          <Node pos="l" depth="2" NCoef="0" IVar="-1" Cut="0.0000000000000000e+00" cType="1" res="-2.8154361993074417e-02" rms="3.7804231047630310e-01" purity="3.6374282836914062e-01" nType="-99"/>
          <Node pos="r" depth="2" NCoef="0" IVar="-1" Cut="0.0000000000000000e+00" cType="1" res="-1.1187529563903809e-01" rms="2.8179469704627991e-01" purity="8.5294120013713837e-02" nType="-99"/>
        </Node>
      </Node>
    </BinaryTree>
    <BinaryTree type="DecisionTree" boostWeight="1.0000000000000000e+00" itree="15">
      <Node pos="s" depth="0" NCoef="0" IVar="17" Cut="3.7202071398496628e-03" cType="1" res="8.2529157400131226e-02" rms="2.3497018218040466e-01" purity="8.8634967803955078e-01" nType="0">
        <Node pos="l" depth="1" NCoef="0" IVar="-1" Cut="0.0000000000000000e+00" cType="1" res="3.6002423614263535e-02" rms="2.1449859440326691e-01" purity="9.1544032096862793e-01" nType="-99"/>
        <Node pos="r" depth="1" NCoef="0" IVar="17" Cut="5.8599105104804039e-03" cType="1" res="-2.8236106038093567e-01" rms="3.4343558549880981e-01" purity="2.4787685275077820e-01" nType="0">
          <Node pos="l" depth="2" NCoef="0" IVar="-1" Cut="0.0000000000000000e+00" cType="1" res="-4.2476031929254532e-02" rms="3.9950069785118103e-01" purity="5.0903379917144775e-01" nType="-99"/>
          <Node pos="r" depth="2" NCoef="0" IVar="-1" Cut="0.0000000000000000e+00" cType="1" res="-8.2686081528663635e-02" rms="2.9057252407073975e-01" purity="1.1462926119565964e-01" nType="-99"/>
        </Node>
      </Node>
    </BinaryTree>
    <BinaryTree type="DecisionTree" boostWeight="1.0000000000000000e+00" itree="16">
      <Node pos="s" depth="0" NCoef="0" IVar="17" Cut="-3.7297003436833620e-03" cType="0" res="7.4473366141319275e-02" rms="2.3305910825729370e-01" purity="8.8634967803955078e-01" nType="0">
        <Node pos="l" depth="1" NCoef="0" IVar="-1" Cut="0.0000000000000000e+00" cType="1" res="3.4488953649997711e-02" rms="2.1285447478294373e-01" purity="9.1626238822937012e-01" nType="-99"/>
        <Node pos="r" depth="1" NCoef="0" IVar="17" Cut="-6.2728049233555794e-03" cType="0" res="-2.8505969047546387e-01" rms="3.3894827961921692e-01" purity="2.3633018136024475e-01" nType="0">
          <Node pos="l" depth="2" NCoef="0" IVar="-1" Cut="0.0000000000000000e+00" cType="1" res="-4.7789931297302246e-02" rms="4.0022692084312439e-01" purity="4.7972509264945984e-01" nType="-99"/>
          <Node pos="r" depth="2" NCoef="0" IVar="-1" Cut="0.0000000000000000e+00" cType="1" res="-8.5239529609680176e-02" rms="2.7263692021369934e-01" purity="8.5568323731422424e-02" nType="-99"/>
        </Node>
      </Node>
    </BinaryTree>
    <BinaryTree type="DecisionTree" boostWeight="1.0000000000000000e+00" itree="17">
      <Node pos="s" depth="0" NCoef="0" IVar="15" Cut="7.1345835924148560e-01" cType="0" res="6.7200332880020142e-02" rms="2.3120500147342682e-01" purity="8.8634967803955078e-01" nType="0">
        <Node pos="l" depth="1" NCoef="0" IVar="-1" Cut="0.0000000000000000e+00" cType="1" res="3.4059535712003708e-02" rms="2.1328273415565491e-01" purity="9.2719697952270508e-01" nType="-99"/>
        <Node pos="r" depth="1" NCoef="0" IVar="10" Cut="5.1235383749008179e-01" cType="0" res="-2.2822950780391693e-01" rms="2.9710799455642700e-01" purity="2.3234310746192932e-01" nType="0">
          <Node pos="l" depth="2" NCoef="0" IVar="-1" Cut="0.0000000000000000e+00" cType="1" res="-1.9929893314838409e-03" rms="3.5450023412704468e-01" purity="7.4870020151138306e-01" nType="-99"/>
          <Node pos="r" depth="2" NCoef="0" IVar="-1" Cut="0.0000000000000000e+00" cType="1" res="-7.4430897831916809e-02" rms="2.4216099083423615e-01" purity="8.0682106316089630e-02" nType="-99"/>
        </Node>
      </Node>
    </BinaryTree>
    <BinaryTree type="DecisionTree" boostWeight="1.0000000000000000e+00" itree="18">
      <Node pos="s" depth="0" NCoef="0" IVar="0" Cut="1.0125776752829552e-02" cType="1" res="6.0632601380348206e-02" rms="2.2929307818412781e-01" purity="8.8634967803955078e-01" nType="0">
        <Node pos="l" depth="1" NCoef="0" IVar="-1" Cut="0.0000000000000000e+00" cType="1" res="3.4052375704050064e-02" rms="1.9682605564594269e-01" purity="9.2480468750000000e-01" nType="-99"/>
        <Node pos="r" depth="1" NCoef="0" IVar="16" Cut="3.3803062979131937e-03" cType="1" res="-1.8735423684120178e-01" rms="3.8711336255073547e-01" purity="4.3058857321739197e-01" nType="0">
          <Node pos="l" depth="2" NCoef="0" IVar="-1" Cut="0.0000000000000000e+00" cType="1" res="-3.4605324268341064e-02" rms="3.5438048839569092e-01" purity="4.8287796974182129e-01" nType="-99"/>
          <Node pos="r" depth="2" NCoef="0" IVar="-1" Cut="0.0000000000000000e+00" cType="1" res="-1.2363182753324509e-01" rms="3.7577241659164429e-01" purity="1.9870759546756744e-01" nType="-99"/>
        </Node>
      </Node>
    </BinaryTree>
    <BinaryTree type="DecisionTree" boostWeight="1.0000000000000000e+00" itree="19">
      <Node pos="s" depth="0" NCoef="0" IVar="16" Cut="-1.2769349850714207e-02" cType="0" res="5.4763935506343842e-02" rms="2.2695098817348480e-01" purity="8.8634967803955078e-01" nType="0">
        <Node pos="l" depth="1" NCoef="0" IVar="-1" Cut="0.0000000000000000e+00" cType="1" res="4.0144391357898712e-02" rms="1.6943643987178802e-01" purity="9.6189504861831665e-01" nType="-99"/>
        <Node pos="r" depth="1" NCoef="0" IVar="13" Cut="-9.9900084733963013e-01" cType="1" res="-1.0647520422935486e-01" rms="3.7238705158233643e-01" purity="4.9474361538887024e-01" nType="0">
          <Node pos="l" depth="2" NCoef="0" IVar="-1" Cut="0.0000000000000000e+00" cType="1" res="-1.9753446802496910e-02" rms="3.5481768846511841e-01" purity="5.2445340156555176e-01" nType="-99"/>
          <Node pos="r" depth="2" NCoef="0" IVar="-1" Cut="0.0000000000000000e+00" cType="1" res="-1.2850421667098999e-01" rms="3.3093020319938660e-01" purity="1.2500000000000000e-01" nType="-99"/>
        </Node>
      </Node>
    </BinaryTree>
    <BinaryTree type="DecisionTree" boostWeight="1.0000000000000000e+00" itree="20">
      <Node pos="s" depth="0" NCoef="0" IVar="17" Cut="3.4873974509537220e-03" cType="1" res="4.9519315361976624e-02" rms="2.2423090040683746e-01" purity="8.8634967803955078e-01" nType="0">
        <Node pos="l" depth="1" NCoef="0" IVar="-1" Cut="0.0000000000000000e+00" cType="1" res="2.8941355645656586e-02" rms="2.0577479898929596e-01" purity="9.1624611616134644e-01" nType="-99"/>
        <Node pos="r" depth="1" NCoef="0" IVar="17" Cut="5.8064945042133331e-03" cType="1" res="-2.5414913892745972e-01" rms="3.4012109041213989e-01" purity="2.7558860182762146e-01" nType="0">
          <Node pos="l" depth="2" NCoef="0" IVar="-1" Cut="0.0000000000000000e+00" cType="1" res="-4.4559974223375320e-02" rms="3.8616999983787537e-01" purity="5.3815788030624390e-01" nType="-99"/>
          <Node pos="r" depth="2" NCoef="0" IVar="-1" Cut="0.0000000000000000e+00" cType="1" res="-7.9195961356163025e-02" rms="2.9160547256469727e-01" purity="1.1689861118793488e-01" nType="-99"/>
        </Node>
      </Node>
    </BinaryTree>
    <BinaryTree type="DecisionTree" boostWeight="1.0000000000000000e+00" itree="21">
      <Node pos="s" depth="0" NCoef="0" IVar="17" Cut="-3.7297003436833620e-03" cType="0" res="4.4674903154373169e-02" rms="2.2280055284500122e-01" purity="8.8634967803955078e-01" nType="0">
        <Node pos="l" depth="1" NCoef="0" IVar="-1" Cut="0.0000000000000000e+00" cType="1" res="2.7426397427916527e-02" rms="2.0557063817977905e-01" purity="9.1626238822937012e-01" nType="-99"/>
        <Node pos="r" depth="1" NCoef="0" IVar="19" Cut="-4.7153127379715443e-03" cType="0" res="-2.6404809951782227e-01" rms="3.3216404914855957e-01" purity="2.3633018136024475e-01" nType="0">
          <Node pos="l" depth="2" NCoef="0" IVar="-1" Cut="0.0000000000000000e+00" cType="1" res="-4.5345515012741089e-02" rms="4.0604311227798462e-01" purity="5.4314720630645752e-01" nType="-99"/>
          <Node pos="r" depth="2" NCoef="0" IVar="-1" Cut="0.0000000000000000e+00" cType="1" res="-7.9714678227901459e-02" rms="2.7861869335174561e-01" purity="9.8016783595085144e-02" nType="-99"/>
        </Node>
      </Node>
    </BinaryTree>
    <BinaryTree type="DecisionTree" boostWeight="1.0000000000000000e+00" itree="22">
      <Node pos="s" depth="0" NCoef="0" IVar="0" Cut="1.0006587021052837e-02" cType="1" res="4.0297381579875946e-02" rms="2.2146239876747131e-01" purity="8.8634967803955078e-01" nType="0">
        <Node pos="l" depth="1" NCoef="0" IVar="-1" Cut="0.0000000000000000e+00" cType="1" res="2.9775578528642654e-02" rms="1.8859513103961945e-01" purity="9.2752367258071899e-01" nType="-99"/>
        <Node pos="r" depth="1" NCoef="0" IVar="16" Cut="3.3803062979131937e-03" cType="1" res="-1.5995614230632782e-01" rms="3.7195944786071777e-01" purity="4.7862815856933594e-01" nType="0">
          <Node pos="l" depth="2" NCoef="0" IVar="-1" Cut="0.0000000000000000e+00" cType="1" res="-3.1239321455359459e-02" rms="3.3612269163131714e-01" purity="5.3221160173416138e-01" nType="-99"/>
          <Node pos="r" depth="2" NCoef="0" IVar="-1" Cut="0.0000000000000000e+00" cType="1" res="-1.1852454394102097e-01" rms="3.8311982154846191e-01" purity="2.1364317834377289e-01" nType="-99"/>
        </Node>
      </Node>
    </BinaryTree>
    <BinaryTree type="DecisionTree" boostWeight="1.0000000000000000e+00" itree="23">
      <Node pos="s" depth="0" NCoef="0" IVar="16" Cut="-1.2769349850714207e-02" cType="0" res="3.6405395716428757e-02" rms="2.1937541663646698e-01" purity="8.8634967803955078e-01" nType="0">
        <Node pos="l" depth="1" NCoef="0" IVar="-1" Cut="0.0000000000000000e+00" cType="1" res="3.5738494247198105e-02" rms="1.6632992029190063e-01" purity="9.6189504861831665e-01" nType="-99"/>
        <Node pos="r" depth="1" NCoef="0" IVar="13" Cut="-9.9900084733963013e-01" cType="1" res="-1.0622575134038925e-01" rms="3.6043864488601685e-01" purity="4.9474361538887024e-01" nType="0">
          <Node pos="l" depth="2" NCoef="0" IVar="-1" Cut="0.0000000000000000e+00" cType="1" res="-2.1406942978501320e-02" rms="3.4483560919761658e-01" purity="5.2445340156555176e-01" nType="-99"/>
          <Node pos="r" depth="2" NCoef="0" IVar="-1" Cut="0.0000000000000000e+00" cType="1" res="-1.1688014864921570e-01" rms="3.3471268415451050e-01" purity="1.2500000000000000e-01" nType="-99"/>
        </Node>
      </Node>
    </BinaryTree>
    <BinaryTree type="DecisionTree" boostWeight="1.0000000000000000e+00" itree="24">
      <Node pos="s" depth="0" NCoef="0" IVar="17" Cut="3.2545877620577812e-03" cType="1" res="3.2925147563219070e-02" rms="2.1717822551727295e-01" purity="8.8634967803955078e-01" nType="0">
        <Node pos="l" depth="1" NCoef="0" IVar="-1" Cut="0.0000000000000000e+00" cType="1" res="2.4315182119607925e-02" rms="1.9977553188800812e-01" purity="9.1713142395019531e-01" nType="-99"/>
        <Node pos="r" depth="1" NCoef="0" IVar="17" Cut="5.7534007355570793e-03" cType="1" res="-2.2630670666694641e-01" rms="3.3677378296852112e-01" purity="3.0512762069702148e-01" nType="0">
          <Node pos="l" depth="2" NCoef="0" IVar="-1" Cut="0.0000000000000000e+00" cType="1" res="-4.3014828115701675e-02" rms="3.7418031692504883e-01" purity="5.6404620409011841e-01" nType="-99"/>
          <Node pos="r" depth="2" NCoef="0" IVar="-1" Cut="0.0000000000000000e+00" cType="1" res="-7.4674017727375031e-02" rms="2.9071682691574097e-01" purity="1.1897233128547668e-01" nType="-99"/>
        </Node>
      </Node>
    </BinaryTree>
    <BinaryTree type="DecisionTree" boostWeight="1.0000000000000000e+00" itree="25">
      <Node pos="s" depth="0" NCoef="0" IVar="17" Cut="-3.2640811987221241e-03" cType="0" res="2.9696369543671608e-02" rms="2.1601271629333496e-01" purity="8.8634967803955078e-01" nType="0">
        <Node pos="l" depth="1" NCoef="0" IVar="-1" Cut="0.0000000000000000e+00" cType="1" res="2.3232188075780869e-02" rms="1.9869594275951385e-01" purity="9.1771078109741211e-01" nType="-99"/>
        <Node pos="r" depth="1" NCoef="0" IVar="19" Cut="-4.7153127379715443e-03" cType="0" res="-2.2634673118591309e-01" rms="3.3684912323951721e-01" purity="2.9318287968635559e-01" nType="0">
          <Node pos="l" depth="2" NCoef="0" IVar="-1" Cut="0.0000000000000000e+00" cType="1" res="-4.2041767388582230e-02" rms="3.9272516965866089e-01" purity="5.9830611944198608e-01" nType="-99"/>
          <Node pos="r" depth="2" NCoef="0" IVar="-1" Cut="0.0000000000000000e+00" cType="1" res="-7.5029790401458740e-02" rms="2.8095766901969910e-01" purity="1.0561546683311462e-01" nType="-99"/>
        </Node>
      </Node>
    </BinaryTree>
    <BinaryTree type="DecisionTree" boostWeight="1.0000000000000000e+00" itree="26">
      <Node pos="s" depth="0" NCoef="0" IVar="13" Cut="-9.9900084733963013e-01" cType="1" res="2.6780074462294579e-02" rms="2.1488860249519348e-01" purity="8.8634967803955078e-01" nType="0">
        <Node pos="l" depth="1" NCoef="0" IVar="-1" Cut="0.0000000000000000e+00" cType="1" res="1.8824493512511253e-02" rms="2.0071984827518463e-01" purity="8.9782935380935669e-01" nType="-99"/>
        <Node pos="r" depth="1" NCoef="0" IVar="12" Cut="1.4992504147812724e-03" cType="1" res="-3.7579268217086792e-01" rms="4.0805274248123169e-01" purity="3.2932415604591370e-01" nType="0">
          <Node pos="l" depth="2" NCoef="0" IVar="-1" Cut="0.0000000000000000e+00" cType="1" res="-8.1695467233657837e-02" rms="4.1933369636535645e-01" purity="5.2156054973602295e-01" nType="-99"/>
          <Node pos="r" depth="2" NCoef="0" IVar="-1" Cut="0.0000000000000000e+00" cType="1" res="-1.5591102838516235e-01" rms="3.0477240681648254e-01" purity="8.6787566542625427e-02" nType="-99"/>
        </Node>
      </Node>
    </BinaryTree>
    <BinaryTree type="DecisionTree" boostWeight="1.0000000000000000e+00" itree="27">
      <Node pos="s" depth="0" NCoef="0" IVar="15" Cut="7.1345835924148560e-01" cType="0" res="2.4159844964742661e-02" rms="2.1381048858165741e-01" purity="8.8634967803955078e-01" nType="0">
        <Node pos="l" depth="1" NCoef="0" IVar="-1" Cut="0.0000000000000000e+00" cType="1" res="2.1888943389058113e-02" rms="2.0067597925662994e-01" purity="9.2719697952270508e-01" nType="-99"/>
        <Node pos="r" depth="1" NCoef="0" IVar="10" Cut="1.1822504550218582e-01" cType="0" res="-2.0404687523841858e-01" rms="2.7847641706466675e-01" purity="2.3234310746192932e-01" nType="0">
          <Node pos="l" depth="2" NCoef="0" IVar="-1" Cut="0.0000000000000000e+00" cType="1" res="-1.7241967841982841e-02" rms="3.4121876955032349e-01" purity="6.8732970952987671e-01" nType="-99"/>
          <Node pos="r" depth="2" NCoef="0" IVar="-1" Cut="0.0000000000000000e+00" cType="1" res="-7.5532816350460052e-02" rms="2.2074756026268005e-01" purity="4.7579530626535416e-02" nType="-99"/>
        </Node>
      </Node>
    </BinaryTree>
    <BinaryTree type="DecisionTree" boostWeight="1.0000000000000000e+00" itree="28">
      <Node pos="s" depth="0" NCoef="0" IVar="0" Cut="1.0449291206896305e-02" cType="1" res="2.1772164851427078e-02" rms="2.1259044110774994e-01" purity="8.8634967803955078e-01" nType="0">
        <Node pos="l" depth="1" NCoef="0" IVar="-1" Cut="0.0000000000000000e+00" cType="1" res="2.0370630547404289e-02" rms="1.9252625107765198e-01" purity="9.1641575098037720e-01" nType="-99"/>
        <Node pos="r" depth="1" NCoef="0" IVar="16" Cut="3.3803062979131937e-03" cType="1" res="-2.1900539100170135e-01" rms="3.6630237102508545e-01" purity="3.3115714788436890e-01" nType="0">
          <Node pos="l" depth="2" NCoef="0" IVar="-1" Cut="0.0000000000000000e+00" cType="1" res="-4.7413226217031479e-02" rms="3.3687022328376770e-01" purity="3.7943980097770691e-01" nType="-99"/>
          <Node pos="r" depth="2" NCoef="0" IVar="-1" Cut="0.0000000000000000e+00" cType="1" res="-1.0926049947738647e-01" rms="3.5835301876068115e-01" purity="1.6036772727966309e-01" nType="-99"/>
        </Node>
      </Node>
    </BinaryTree>
    <BinaryTree type="DecisionTree" boostWeight="1.0000000000000000e+00" itree="29">
      <Node pos="s" depth="0" NCoef="0" IVar="16" Cut="-1.2769349850714207e-02" cType="0" res="1.9652165472507477e-02" rms="2.1124373376369476e-01" purity="8.8634967803955078e-01" nType="0">
        <Node pos="l" depth="1" NCoef="0" IVar="-1" Cut="0.0000000000000000e+00" cType="1" res="3.0088676139712334e-02" rms="1.6377992928028107e-01" purity="9.6189504861831665e-01" nType="-99"/>
        <Node pos="r" depth="1" NCoef="0" IVar="12" Cut="1.4992504147812724e-03" cType="1" res="-1.0345026105642319e-01" rms="3.4469813108444214e-01" purity="4.9474361538887024e-01" nType="0">
          <Node pos="l" depth="2" NCoef="0" IVar="-1" Cut="0.0000000000000000e+00" cType="1" res="-2.1321929991245270e-02" rms="3.2717543840408325e-01" purity="5.2738845348358154e-01" nType="-99"/>
          <Node pos="r" depth="2" NCoef="0" IVar="-1" Cut="0.0000000000000000e+00" cType="1" res="-9.4226054847240448e-02" rms="3.6957177519798279e-01" purity="2.3645633459091187e-01" nType="-99"/>
        </Node>
      </Node>
    </BinaryTree>
    <BinaryTree type="DecisionTree" boostWeight="1.0000000000000000e+00" itree="30">
      <Node pos="s" depth="0" NCoef="0" IVar="16" Cut="6.0330792330205441e-03" cType="1" res="1.7785146832466125e-02" rms="2.0949167013168335e-01" purity="8.8634967803955078e-01" nType="0">
        <Node pos="l" depth="1" NCoef="0" IVar="-1" Cut="0.0000000000000000e+00" cType="1" res="1.6010735183954239e-02" rms="1.9275216758251190e-01" purity="8.9784228801727295e-01" nType="-99"/>
        <Node pos="r" depth="1" NCoef="0" IVar="10" Cut="1.0370303690433502e-01" cType="0" res="-3.1116610765457153e-01" rms="4.2283579707145691e-01" purity="4.6634823083877563e-01" nType="0">
          <Node pos="l" depth="2" NCoef="0" IVar="-1" Cut="0.0000000000000000e+00" cType="1" res="-3.7866234779357910e-02" rms="3.5318911075592041e-01" purity="7.8169012069702148e-01" nType="-99"/>
          <Node pos="r" depth="2" NCoef="0" IVar="-1" Cut="0.0000000000000000e+00" cType="1" res="-1.6349585354328156e-01" rms="3.0664101243019104e-01" purity="7.3170728981494904e-02" nType="-99"/>
        </Node>
      </Node>
    </BinaryTree>
    <BinaryTree type="DecisionTree" boostWeight="1.0000000000000000e+00" itree="31">
      <Node pos="s" depth="0" NCoef="0" IVar="17" Cut="3.2545877620577812e-03" cType="1" res="1.6059109941124916e-02" rms="2.0792795717716217e-01" purity="8.8634967803955078e-01" nType="0">
        <Node pos="l" depth="1" NCoef="0" IVar="-1" Cut="0.0000000000000000e+00" cType="1" res="1.7730202525854111e-02" rms="1.9219608604907990e-01" purity="9.1713142395019531e-01" nType="-99"/>
        <Node pos="r" depth="1" NCoef="0" IVar="17" Cut="5.7534007355570793e-03" cType="1" res="-2.1077263355255127e-01" rms="3.2850140333175659e-01" purity="3.0512762069702148e-01" nType="0">
          <Node pos="l" depth="2" NCoef="0" IVar="-1" Cut="0.0000000000000000e+00" cType="1" res="-4.3818749487400055e-02" rms="3.6041224002838135e-01" purity="5.6404620409011841e-01" nType="-99"/>
          <Node pos="r" depth="2" NCoef="0" IVar="-1" Cut="0.0000000000000000e+00" cType="1" res="-7.2181522846221924e-02" rms="2.9095464944839478e-01" purity="1.1897233128547668e-01" nType="-99"/>
        </Node>
      </Node>
    </BinaryTree>
    <BinaryTree type="DecisionTree" boostWeight="1.0000000000000000e+00" itree="32">
      <Node pos="s" depth="0" NCoef="0" IVar="17" Cut="-3.2640811987221241e-03" cType="0" res="1.4477223157882690e-02" rms="2.0694622397422791e-01" purity="8.8634967803955078e-01" nType="0">
        <Node pos="l" depth="1" NCoef="0" IVar="-1" Cut="0.0000000000000000e+00" cType="1" res="1.6953812912106514e-02" rms="1.9131296873092651e-01" purity="9.1771078109741211e-01" nType="-99"/>
        <Node pos="r" depth="1" NCoef="0" IVar="17" Cut="-5.6139812804758549e-03" cType="0" res="-2.0834982395172119e-01" rms="3.2910570502281189e-01" purity="2.9318287968635559e-01" nType="0">
          <Node pos="l" depth="2" NCoef="0" IVar="-1" Cut="0.0000000000000000e+00" cType="1" res="-4.0834251791238785e-02" rms="3.7103950977325439e-01" purity="5.6587350368499756e-01" nType="-99"/>
          <Node pos="r" depth="2" NCoef="0" IVar="-1" Cut="0.0000000000000000e+00" cType="1" res="-7.3746085166931152e-02" rms="2.8438034653663635e-01" purity="1.1378388851881027e-01" nType="-99"/>
        </Node>
      </Node>
    </BinaryTree>
    <BinaryTree type="DecisionTree" boostWeight="1.0000000000000000e+00" itree="33">
      <Node pos="s" depth="0" NCoef="0" IVar="13" Cut="-9.9900084733963013e-01" cType="1" res="1.3047943823039532e-02" rms="2.0599852502346039e-01" purity="8.8634967803955078e-01" nType="0">
        <Node pos="l" depth="1" NCoef="0" IVar="-1" Cut="0.0000000000000000e+00" cType="1" res="1.2942958623170853e-02" rms="1.9326470792293549e-01" purity="8.9782935380935669e-01" nType="-99"/>
        <Node pos="r" depth="1" NCoef="0" IVar="12" Cut="1.4992504147812724e-03" cType="1" res="-3.4213051199913025e-01" rms="4.0047642588615417e-01" purity="3.2932415604591370e-01" nType="0">
          <Node pos="l" depth="2" NCoef="0" IVar="-1" Cut="0.0000000000000000e+00" cType="1" res="-8.0340154469013214e-02" rms="4.1642168164253235e-01" purity="5.2156054973602295e-01" nType="-99"/>
          <Node pos="r" depth="2" NCoef="0" IVar="-1" Cut="0.0000000000000000e+00" cType="1" res="-1.3798291981220245e-01" rms="3.1816145777702332e-01" purity="8.6787566542625427e-02" nType="-99"/>
        </Node>
      </Node>
    </BinaryTree>
    <BinaryTree type="DecisionTree" boostWeight="1.0000000000000000e+00" itree="34">
      <Node pos="s" depth="0" NCoef="0" IVar="4" Cut="1.1217440478503704e-02" cType="1" res="1.1767446063458920e-02" rms="2.0508030056953430e-01" purity="8.8634967803955078e-01" nType="0">
        <Node pos="l" depth="1" NCoef="0" IVar="-1" Cut="0.0000000000000000e+00" cType="1" res="1.7180219292640686e-02" rms="1.8561947345733643e-01" purity="9.1889369487762451e-01" nType="-99"/>
        <Node pos="r" depth="1" NCoef="0" IVar="0" Cut="9.6482820808887482e-03" cType="1" res="-1.7049296200275421e-01" rms="3.2453942298889160e-01" purity="4.6244931221008301e-01" nType="0">
          <Node pos="l" depth="2" NCoef="0" IVar="-1" Cut="0.0000000000000000e+00" cType="1" res="-3.4921351820230484e-02" rms="2.8990697860717773e-01" purity="6.8593108654022217e-01" nType="-99"/>
          <Node pos="r" depth="2" NCoef="0" IVar="-1" Cut="0.0000000000000000e+00" cType="1" res="-8.8136844336986542e-02" rms="3.2706993818283081e-01" purity="1.8291346728801727e-01" nType="-99"/>
        </Node>
      </Node>
    </BinaryTree>
    <BinaryTree type="DecisionTree" boostWeight="1.0000000000000000e+00" itree="35">
      <Node pos="s" depth="0" NCoef="0" IVar="16" Cut="6.0330792330205441e-03" cType="1" res="1.0615678504109383e-02" rms="2.0368175208568573e-01" purity="8.8634967803955078e-01" nType="0">
        <Node pos="l" depth="1" NCoef="0" IVar="-1" Cut="0.0000000000000000e+00" cType="1" res="1.2262389063835144e-02" rms="1.8893747031688690e-01" purity="8.9784228801727295e-01" nType="-99"/>
        <Node pos="r" depth="1" NCoef="0" IVar="10" Cut="1.3478717207908630e-01" cType="0" res="-2.8106459975242615e-01" rms="4.0698635578155518e-01" purity="4.6634823083877563e-01" nType="0">
          <Node pos="l" depth="2" NCoef="0" IVar="-1" Cut="0.0000000000000000e+00" cType="1" res="-3.2403878867626190e-02" rms="3.3891442418098450e-01" purity="7.9340833425521851e-01" nType="-99"/>
          <Node pos="r" depth="2" NCoef="0" IVar="-1" Cut="0.0000000000000000e+00" cType="1" res="-1.3912332057952881e-01" rms="3.2688632607460022e-01" purity="8.2152977585792542e-02" nType="-99"/>
        </Node>
      </Node>
    </BinaryTree>
    <BinaryTree type="DecisionTree" boostWeight="1.0000000000000000e+00" itree="36">
      <Node pos="s" depth="0" NCoef="0" IVar="16" Cut="-1.0419046506285667e-02" cType="0" res="9.5800729468464851e-03" rms="2.0240965485572815e-01" purity="8.8634967803955078e-01" nType="0">
        <Node pos="l" depth="1" NCoef="0" IVar="-1" Cut="0.0000000000000000e+00" cType="1" res="2.6859996840357780e-02" rms="1.5346945822238922e-01" purity="9.6330571174621582e-01" nType="-99"/>
