<?xml version="1.0"?>
<MethodSetup Method="BDT::BDT_weight">
  <GeneralInfo>
    <Info name="TMVA Release" value="4.1.4 [262404]"/>
    <Info name="ROOT Release" value="5.34/10 [336394]"/>
    <Info name="Creator" value="sdevissc"/>
    <Info name="Date" value="Thu Dec  5 14:12:28 2013"/>
    <Info name="Host" value="Linux lxbuild168.cern.ch 2.6.18-348.1.1.el5 #1 SMP Thu Jan 24 13:25:42 CET 2013 x86_64 x86_64 x86_64 GNU/Linux"/>
    <Info name="Dir" value="/afs/cern.ch/work/s/sdevissc/SoftLeptonBTag/TestGit3/CMSSW_7_0_0_pre8/src/SoftElectronInJetAnalyzer/SoftElecInJet/test"/>
    <Info name="Training events" value="52596"/>
    <Info name="TrainingTime" value="2.78218026e+02"/>
    <Info name="AnalysisType" value="Classification"/>
  </GeneralInfo>
  <Options>
    <Option name="V" modified="Yes">False</Option>
    <Option name="VerbosityLevel" modified="No">Default</Option>
    <Option name="VarTransform" modified="No">None</Option>
    <Option name="H" modified="Yes">False</Option>
    <Option name="CreateMVAPdfs" modified="No">False</Option>
    <Option name="IgnoreNegWeightsInTraining" modified="No">False</Option>
    <Option name="NTrees" modified="Yes">2000</Option>
    <Option name="RenormByClass" modified="No">False</Option>
    <Option name="BoostType" modified="Yes">Grad</Option>
    <Option name="AdaBoostR2Loss" modified="No">quadratic</Option>
    <Option name="UseBaggedGrad" modified="Yes">False</Option>
    <Option name="GradBaggingFraction" modified="No">6.000000e-01</Option>
    <Option name="Shrinkage" modified="Yes">1.000000e-01</Option>
    <Option name="AdaBoostBeta" modified="No">1.000000e+00</Option>
    <Option name="UseRandomisedTrees" modified="No">False</Option>
    <Option name="UseNvars" modified="Yes">4</Option>
    <Option name="UsePoissonNvars" modified="No">True</Option>
    <Option name="UseNTrainEvents" modified="No">52596</Option>
    <Option name="UseWeightedTrees" modified="No">True</Option>
    <Option name="UseYesNoLeaf" modified="No">True</Option>
    <Option name="NodePurityLimit" modified="No">5.000000e-01</Option>
    <Option name="SeparationType" modified="No">giniindex</Option>
    <Option name="nEventsMin" modified="Yes">100</Option>
    <Option name="nCuts" modified="Yes">2000</Option>
    <Option name="UseFisherCuts" modified="No">False</Option>
    <Option name="MinLinCorrForFisher" modified="No">8.000000e-01</Option>
    <Option name="UseExclusiveVars" modified="No">False</Option>
    <Option name="PruneStrength" modified="Yes">5.000000e+00</Option>
    <Option name="PruneMethod" modified="Yes">costcomplexity</Option>
    <Option name="PruneBeforeBoost" modified="No">False</Option>
    <Option name="PruningValFraction" modified="No">5.000000e-01</Option>
    <Option name="NNodesMax" modified="Yes">5</Option>
    <Option name="MaxDepth" modified="Yes">6</Option>
    <Option name="DoBoostMonitor" modified="No">False</Option>
    <Option name="NegWeightTreatment" modified="No">ignorenegweights</Option>
  </Options>
  <Variables NVar="25">
    <Variable VarIndex="0" Expression="fbrem" Label="fbrem" Title="fbrem" Unit="" Internal="fbrem" Type="F" Min="-1.00000000e+00" Max="9.96977270e-01"/>
    <Variable VarIndex="1" Expression="EtotOvePin" Label="EtotOvePin" Title="EtotOvePin" Unit="" Internal="EtotOvePin" Type="F" Min="2.43313815e-02" Max="3.20994949e+01"/>
    <Variable VarIndex="2" Expression="EClusOverPout" Label="EClusOverPout" Title="EClusOverPout" Unit="" Internal="EClusOverPout" Type="F" Min="4.69118264e-03" Max="2.35367004e+02"/>
    <Variable VarIndex="3" Expression="EBremOverDeltaP" Label="EBremOverDeltaP" Title="EBremOverDeltaP" Unit="" Internal="EBremOverDeltaP" Type="F" Min="-1.01544881e+06" Max="3.69404050e+06"/>
    <Variable VarIndex="4" Expression="logSigmaEtaEta" Label="logSigmaEtaEta" Title="logSigmaEtaEta" Unit="" Internal="logSigmaEtaEta" Type="F" Min="-2.10454044e+01" Max="-2.22304273e+00"/>
    <Variable VarIndex="5" Expression="DeltaEtaTrackEcalSeed" Label="DeltaEtaTrackEcalSeed" Title="DeltaEtaTrackEcalSeed" Unit="" Internal="DeltaEtaTrackEcalSeed" Type="F" Min="-1.06439233e+00" Max="8.79416704e-01"/>
    <Variable VarIndex="6" Expression="HoE" Label="HoE" Title="HoE" Unit="" Internal="HoE" Type="F" Min="0.00000000e+00" Max="1.77313538e+01"/>
    <Variable VarIndex="7" Expression="gsfchi2" Label="gsfchi2" Title="gsfchi2" Unit="" Internal="gsfchi2" Type="F" Min="7.10358247e-02" Max="2.00000000e+02"/>
    <Variable VarIndex="8" Expression="kfchi2" Label="kfchi2" Title="kfchi2" Unit="" Internal="kfchi2" Type="F" Min="0.00000000e+00" Max="1.00000000e+01"/>
    <Variable VarIndex="9" Expression="kfhits" Label="kfhits" Title="kfhits" Unit="" Internal="kfhits" Type="F" Min="-1.00000000e+00" Max="1.70000000e+01"/>
    <Variable VarIndex="10" Expression="SigmaPtOverPt" Label="SigmaPtOverPt" Title="SigmaPtOverPt" Unit="" Internal="SigmaPtOverPt" Type="F" Min="7.14552682e-03" Max="1.90882614e+02"/>
    <Variable VarIndex="11" Expression="deta" Label="deta" Title="deta" Unit="" Internal="deta" Type="F" Min="-1.68330431e-01" Max="5.99999987e-02"/>
    <Variable VarIndex="12" Expression="dphi" Label="dphi" Title="dphi" Unit="" Internal="dphi" Type="F" Min="-4.44981694e-01" Max="6.00000024e-01"/>
    <Variable VarIndex="13" Expression="detacalo" Label="detacalo" Title="detacalo" Unit="" Internal="detacalo" Type="F" Min="-9.11245227e-01" Max="8.79416704e-01"/>
    <Variable VarIndex="14" Expression="see" Label="see" Title="see" Unit="" Internal="see" Type="F" Min="0.00000000e+00" Max="1.02191888e-01"/>
    <Variable VarIndex="15" Expression="spp" Label="spp" Title="spp" Unit="" Internal="spp" Type="F" Min="0.00000000e+00" Max="1.42915562e-01"/>
    <Variable VarIndex="16" Expression="R9" Label="R9" Title="R9" Unit="" Internal="R9" Type="F" Min="9.32804942e-02" Max="1.00000012e+00"/>
    <Variable VarIndex="17" Expression="etawidth" Label="etawidth" Title="etawidth" Unit="" Internal="etawidth" Type="F" Min="1.56536000e-04" Max="7.71588087e-01"/>
    <Variable VarIndex="18" Expression="phiwidth" Label="phiwidth" Title="phiwidth" Unit="" Internal="phiwidth" Type="F" Min="1.99864062e-05" Max="9.95199502e-01"/>
    <Variable VarIndex="19" Expression="e1x5e5x5" Label="e1x5e5x5" Title="e1x5e5x5" Unit="" Internal="e1x5e5x5" Type="F" Min="0.00000000e+00" Max="8.13718796e-01"/>
    <Variable VarIndex="20" Expression="IoEmIoP" Label="IoEmIoP" Title="IoEmIoP" Unit="" Internal="IoEmIoP" Type="F" Min="-5.95259108e-02" Max="1.32480115e-01"/>
    <Variable VarIndex="21" Expression="PreShowerOverRaw" Label="PreShowerOverRaw" Title="PreShowerOverRaw" Unit="" Internal="PreShowerOverRaw" Type="F" Min="0.00000000e+00" Max="1.86640000e+00"/>
    <Variable VarIndex="22" Expression="nPV" Label="nPV" Title="nPV" Unit="" Internal="nPV" Type="F" Min="1.00000000e+00" Max="5.80000000e+01"/>
    <Variable VarIndex="23" Expression="pt" Label="pt" Title="pt" Unit="" Internal="pt" Type="F" Min="2.00014067e+00" Max="2.23743988e+02"/>
    <Variable VarIndex="24" Expression="eta" Label="eta" Title="eta" Unit="" Internal="eta" Type="F" Min="-2.62460399e+00" Max="2.57911134e+00"/>
  </Variables>
  <Spectators NSpec="2">
    <Spectator SpecIndex="0" Expression="pt" Label="pt" Title="pt" Unit="" Internal="pt" Type="F" Min="2.00014067e+00" Max="2.23743988e+02"/>
    <Spectator SpecIndex="1" Expression="eta" Label="eta" Title="eta" Unit="" Internal="eta" Type="F" Min="-2.62460399e+00" Max="2.57911134e+00"/>
  </Spectators>
  <Classes NClass="2">
    <Class Name="Signal" Index="0"/>
    <Class Name="Background" Index="1"/>
  </Classes>
  <Transformations NTransformations="0"/>
  <MVAPdfs/>
  <Weights NTrees="2000" AnalysisType="1">
    <BinaryTree type="DecisionTree" boostWeight="1.0000000000000000e+00" itree="0">
      <Node pos="s" depth="0" NCoef="0" IVar="0" Cut="1.1774839460849762e-01" cType="0" res="1.0246764868497849e-01" rms="4.8938775062561035e-01" purity="6.0246759653091431e-01" nType="0">
        <Node pos="l" depth="1" NCoef="0" IVar="-1" Cut="0.0000000000000000e+00" cType="1" res="7.6306544244289398e-02" rms="3.2478687167167664e-01" purity="8.8014924526214600e-01" nType="-99"/>
        <Node pos="r" depth="1" NCoef="0" IVar="2" Cut="8.8218414783477783e-01" cType="0" res="-1.5354941785335541e-01" rms="4.7583881020545959e-01" purity="3.4645059704780579e-01" nType="0">
          <Node pos="l" depth="2" NCoef="0" IVar="-1" Cut="0.0000000000000000e+00" cType="1" res="2.8723817318677902e-02" rms="4.7780928015708923e-01" purity="6.4730340242385864e-01" nType="-99"/>
          <Node pos="r" depth="2" NCoef="0" IVar="-1" Cut="0.0000000000000000e+00" cType="1" res="-7.3967017233371735e-02" rms="2.6890608668327332e-01" purity="7.8467659652233124e-02" nType="-99"/>
        </Node>
      </Node>
    </BinaryTree>
    <BinaryTree type="DecisionTree" boostWeight="1.0000000000000000e+00" itree="1">
      <Node pos="s" depth="0" NCoef="0" IVar="2" Cut="8.2804757356643677e-01" cType="0" res="9.0840108692646027e-02" rms="4.6837994456291199e-01" purity="6.0246759653091431e-01" nType="0">
        <Node pos="l" depth="1" NCoef="0" IVar="-1" Cut="0.0000000000000000e+00" cType="1" res="5.2347112447023392e-02" rms="3.9979586005210876e-01" purity="7.8949612379074097e-01" nType="-99"/>
        <Node pos="r" depth="1" NCoef="0" IVar="0" Cut="2.2635985910892487e-01" cType="0" res="-2.4735665321350098e-01" rms="4.0349069237709045e-01" purity="2.3703542351722717e-01" nType="0">
          <Node pos="l" depth="2" NCoef="0" IVar="-1" Cut="0.0000000000000000e+00" cType="1" res="5.5564716458320618e-02" rms="3.8686168193817139e-01" purity="8.1676179170608521e-01" nType="-99"/>
          <Node pos="r" depth="2" NCoef="0" IVar="-1" Cut="0.0000000000000000e+00" cType="1" res="-6.9802947342395782e-02" rms="2.6376530528068542e-01" purity="7.7857650816440582e-02" nType="-99"/>
        </Node>
      </Node>
    </BinaryTree>
    <BinaryTree type="DecisionTree" boostWeight="1.0000000000000000e+00" itree="2">
      <Node pos="s" depth="0" NCoef="0" IVar="0" Cut="1.2174035608768463e-01" cType="0" res="8.0818869173526764e-02" rms="4.5229437947273254e-01" purity="6.0246759653091431e-01" nType="0">
        <Node pos="l" depth="1" NCoef="0" IVar="-1" Cut="0.0000000000000000e+00" cType="1" res="6.5629467368125916e-02" rms="3.1611099839210510e-01" purity="8.8340556621551514e-01" nType="-99"/>
        <Node pos="r" depth="1" NCoef="0" IVar="2" Cut="8.9238750934600830e-01" cType="0" res="-1.3607496023178101e-01" rms="4.4650426506996155e-01" purity="3.4974598884582520e-01" nType="0">
          <Node pos="l" depth="2" NCoef="0" IVar="-1" Cut="0.0000000000000000e+00" cType="1" res="2.2850938141345978e-02" rms="4.7458148002624512e-01" purity="6.5696680545806885e-01" nType="-99"/>
          <Node pos="r" depth="2" NCoef="0" IVar="-1" Cut="0.0000000000000000e+00" cType="1" res="-6.3193798065185547e-02" rms="2.7456343173980713e-01" purity="8.5563331842422485e-02" nType="-99"/>
        </Node>
      </Node>
    </BinaryTree>
    <BinaryTree type="DecisionTree" boostWeight="1.0000000000000000e+00" itree="3">
      <Node pos="s" depth="0" NCoef="0" IVar="0" Cut="9.7788602113723755e-02" cType="0" res="7.1617558598518372e-02" rms="4.3616548180580139e-01" purity="6.0246759653091431e-01" nType="0">
        <Node pos="l" depth="1" NCoef="0" IVar="-1" Cut="0.0000000000000000e+00" cType="1" res="5.7032715529203415e-02" rms="3.3378100395202637e-01" purity="8.6040240526199341e-01" nType="-99"/>
        <Node pos="r" depth="1" NCoef="0" IVar="2" Cut="9.1279435157775879e-01" cType="0" res="-1.4217734336853027e-01" rms="4.2978784441947937e-01" purity="3.2960444688796997e-01" nType="0">
          <Node pos="l" depth="2" NCoef="0" IVar="-1" Cut="0.0000000000000000e+00" cType="1" res="1.9489513710141182e-02" rms="4.7670781612396240e-01" purity="6.5082991123199463e-01" nType="-99"/>
          <Node pos="r" depth="2" NCoef="0" IVar="-1" Cut="0.0000000000000000e+00" cType="1" res="-5.7957116514444351e-02" rms="2.8117388486862183e-01" purity="9.3179807066917419e-02" nType="-99"/>
        </Node>
      </Node>
    </BinaryTree>
    <BinaryTree type="DecisionTree" boostWeight="1.0000000000000000e+00" itree="4">
      <Node pos="s" depth="0" NCoef="0" IVar="2" Cut="8.2804757356643677e-01" cType="0" res="6.3366986811161041e-02" rms="4.2309844493865967e-01" purity="6.0246759653091431e-01" nType="0">
        <Node pos="l" depth="1" NCoef="0" IVar="-1" Cut="0.0000000000000000e+00" cType="1" res="4.1123975068330765e-02" rms="3.8755425810813904e-01" purity="7.8949612379074097e-01" nType="-99"/>
        <Node pos="r" depth="1" NCoef="0" IVar="0" Cut="2.5203245878219604e-01" cType="0" res="-2.0282703638076782e-01" rms="3.5803130269050598e-01" purity="2.3703542351722717e-01" nType="0">
          <Node pos="l" depth="2" NCoef="0" IVar="-1" Cut="0.0000000000000000e+00" cType="1" res="4.3130118399858475e-02" rms="3.7674215435981750e-01" purity="8.2873290777206421e-01" nType="-99"/>
          <Node pos="r" depth="2" NCoef="0" IVar="-1" Cut="0.0000000000000000e+00" cType="1" res="-5.8293029665946960e-02" rms="2.6567420363426208e-01" purity="8.3707228302955627e-02" nType="-99"/>
        </Node>
      </Node>
    </BinaryTree>
    <BinaryTree type="DecisionTree" boostWeight="1.0000000000000000e+00" itree="5">
      <Node pos="s" depth="0" NCoef="0" IVar="0" Cut="1.3571220636367798e-01" cType="0" res="5.6300878524780273e-02" rms="4.1257897019386292e-01" purity="6.0246759653091431e-01" nType="0">
        <Node pos="l" depth="1" NCoef="0" IVar="-1" Cut="0.0000000000000000e+00" cType="1" res="5.5166210979223251e-02" rms="3.0341988801956177e-01" purity="8.9191305637359619e-01" nType="-99"/>
        <Node pos="r" depth="1" NCoef="0" IVar="14" Cut="1.1490842327475548e-02" cType="1" res="-1.0877913236618042e-01" rms="4.1922798752784729e-01" purity="3.6039352416992188e-01" nType="0">
          <Node pos="l" depth="2" NCoef="0" IVar="-1" Cut="0.0000000000000000e+00" cType="1" res="2.8450403362512589e-02" rms="4.0878993272781372e-01" purity="6.5319955348968506e-01" nType="-99"/>
          <Node pos="r" depth="2" NCoef="0" IVar="-1" Cut="0.0000000000000000e+00" cType="1" res="-4.7306176275014877e-02" rms="3.5945284366607666e-01" purity="2.0651717483997345e-01" nType="-99"/>
        </Node>
      </Node>
    </BinaryTree>
    <BinaryTree type="DecisionTree" boostWeight="1.0000000000000000e+00" itree="6">
      <Node pos="s" depth="0" NCoef="0" IVar="2" Cut="8.2804757356643677e-01" cType="0" res="5.0239805132150650e-02" rms="4.0138757228851318e-01" purity="6.0246759653091431e-01" nType="0">
        <Node pos="l" depth="1" NCoef="0" IVar="-1" Cut="0.0000000000000000e+00" cType="1" res="3.6048788577318192e-02" rms="3.7852820754051208e-01" purity="7.8949612379074097e-01" nType="-99"/>
        <Node pos="r" depth="1" NCoef="0" IVar="0" Cut="3.0337762832641602e-01" cType="0" res="-1.8226253986358643e-01" rms="3.3796846866607666e-01" purity="2.3703542351722717e-01" nType="0">
          <Node pos="l" depth="2" NCoef="0" IVar="-1" Cut="0.0000000000000000e+00" cType="1" res="4.0198851376771927e-02" rms="3.5799694061279297e-01" purity="8.4905326366424561e-01" nType="-99"/>
          <Node pos="r" depth="2" NCoef="0" IVar="-1" Cut="0.0000000000000000e+00" cType="1" res="-5.3033292293548584e-02" rms="2.7072742581367493e-01" purity="9.4256542623043060e-02" nType="-99"/>
        </Node>
      </Node>
    </BinaryTree>
    <BinaryTree type="DecisionTree" boostWeight="1.0000000000000000e+00" itree="7">
      <Node pos="s" depth="0" NCoef="0" IVar="0" Cut="9.0802676975727081e-02" cType="0" res="4.4586867094039917e-02" rms="3.9323416352272034e-01" purity="6.0246759653091431e-01" nType="0">
        <Node pos="l" depth="1" NCoef="0" IVar="-1" Cut="0.0000000000000000e+00" cType="1" res="4.3988507241010666e-02" rms="3.2599583268165588e-01" purity="8.5130918025970459e-01" nType="-99"/>
        <Node pos="r" depth="1" NCoef="0" IVar="14" Cut="1.1286560446023941e-02" cType="1" res="-1.2152189761400223e-01" rms="3.9610245823860168e-01" purity="3.2260000705718994e-01" nType="0">
          <Node pos="l" depth="2" NCoef="0" IVar="-1" Cut="0.0000000000000000e+00" cType="1" res="2.2442815825343132e-02" rms="4.0743643045425415e-01" purity="6.2710976600646973e-01" nType="-99"/>
          <Node pos="r" depth="2" NCoef="0" IVar="-1" Cut="0.0000000000000000e+00" cType="1" res="-4.5456349849700928e-02" rms="3.4202226996421814e-01" purity="1.8502646684646606e-01" nType="-99"/>
        </Node>
      </Node>
    </BinaryTree>
    <BinaryTree type="DecisionTree" boostWeight="1.0000000000000000e+00" itree="8">
      <Node pos="s" depth="0" NCoef="0" IVar="2" Cut="8.2804757356643677e-01" cType="0" res="3.9543770253658295e-02" rms="3.8511258363723755e-01" purity="6.0246759653091431e-01" nType="0">
        <Node pos="l" depth="1" NCoef="0" IVar="-1" Cut="0.0000000000000000e+00" cType="1" res="3.1798861920833588e-02" rms="3.7187686562538147e-01" purity="7.8949612379074097e-01" nType="-99"/>
        <Node pos="r" depth="1" NCoef="0" IVar="0" Cut="3.2312577962875366e-01" cType="0" res="-1.6437987983226776e-01" rms="3.2406830787658691e-01" purity="2.3703542351722717e-01" nType="0">
          <Node pos="l" depth="2" NCoef="0" IVar="-1" Cut="0.0000000000000000e+00" cType="1" res="3.5677667707204819e-02" rms="3.5193398594856262e-01" purity="8.5516548156738281e-01" nType="-99"/>
          <Node pos="r" depth="2" NCoef="0" IVar="-1" Cut="0.0000000000000000e+00" cType="1" res="-4.9378272145986557e-02" rms="2.7128955721855164e-01" purity="9.7898386418819427e-02" nType="-99"/>
        </Node>
      </Node>
    </BinaryTree>
    <BinaryTree type="DecisionTree" boostWeight="1.0000000000000000e+00" itree="9">
      <Node pos="s" depth="0" NCoef="0" IVar="0" Cut="1.5367601811885834e-01" cType="0" res="3.5033680498600006e-02" rms="3.7879219651222229e-01" purity="6.0246759653091431e-01" nType="0">
        <Node pos="l" depth="1" NCoef="0" IVar="-1" Cut="0.0000000000000000e+00" cType="1" res="4.6777669340372086e-02" rms="2.8959828615188599e-01" purity="9.0056526660919189e-01" nType="-99"/>
        <Node pos="r" depth="1" NCoef="0" IVar="17" Cut="1.2733061797916889e-02" cType="1" res="-8.5483327507972717e-02" rms="3.9472299814224243e-01" purity="3.7362203001976013e-01" nType="0">
          <Node pos="l" depth="2" NCoef="0" IVar="-1" Cut="0.0000000000000000e+00" cType="1" res="3.7427812814712524e-02" rms="3.5919395089149475e-01" purity="7.2064393758773804e-01" nType="-99"/>
          <Node pos="r" depth="2" NCoef="0" IVar="-1" Cut="0.0000000000000000e+00" cType="1" res="-3.5966567695140839e-02" rms="3.6725047230720520e-01" purity="2.6532122492790222e-01" nType="-99"/>
        </Node>
      </Node>
    </BinaryTree>
    <BinaryTree type="DecisionTree" boostWeight="1.0000000000000000e+00" itree="10">
      <Node pos="s" depth="0" NCoef="0" IVar="2" Cut="9.4566994905471802e-01" cType="0" res="3.1334478408098221e-02" rms="3.7125965952873230e-01" purity="6.0246759653091431e-01" nType="0">
        <Node pos="l" depth="1" NCoef="0" IVar="-1" Cut="0.0000000000000000e+00" cType="1" res="3.5566098988056183e-02" rms="3.4769904613494873e-01" purity="8.3140921592712402e-01" nType="-99"/>
        <Node pos="r" depth="1" NCoef="0" IVar="0" Cut="1.9882731139659882e-01" cType="0" res="-1.0470733791589737e-01" rms="3.4918099641799927e-01" purity="3.4494093060493469e-01" nType="0">
          <Node pos="l" depth="2" NCoef="0" IVar="-1" Cut="0.0000000000000000e+00" cType="1" res="3.3499158918857574e-02" rms="3.3979064226150513e-01" purity="8.5758042335510254e-01" nType="-99"/>
          <Node pos="r" depth="2" NCoef="0" IVar="-1" Cut="0.0000000000000000e+00" cType="1" res="-4.0928851813077927e-02" rms="3.1105136871337891e-01" purity="1.6211129724979401e-01" nType="-99"/>
        </Node>
      </Node>
    </BinaryTree>
    <BinaryTree type="DecisionTree" boostWeight="1.0000000000000000e+00" itree="11">
      <Node pos="s" depth="0" NCoef="0" IVar="4" Cut="-4.4147520065307617e+00" cType="1" res="2.7643311768770218e-02" rms="3.6526063084602356e-01" purity="6.0246759653091431e-01" nType="0">
        <Node pos="l" depth="1" NCoef="0" IVar="-1" Cut="0.0000000000000000e+00" cType="1" res="3.6109916865825653e-02" rms="3.0824011564254761e-01" purity="7.9376673698425293e-01" nType="-99"/>
        <Node pos="r" depth="1" NCoef="0" IVar="0" Cut="1.7060309648513794e-01" cType="0" res="-8.8887177407741547e-02" rms="3.7561240792274475e-01" purity="4.2408177256584167e-01" nType="0">
          <Node pos="l" depth="2" NCoef="0" IVar="-1" Cut="0.0000000000000000e+00" cType="1" res="2.5830369442701340e-02" rms="3.5929843783378601e-01" purity="8.3744978904724121e-01" nType="-99"/>
          <Node pos="r" depth="2" NCoef="0" IVar="-1" Cut="0.0000000000000000e+00" cType="1" res="-4.0445540100336075e-02" rms="3.4727233648300171e-01" purity="2.1608275175094604e-01" nType="-99"/>
        </Node>
      </Node>
    </BinaryTree>
    <BinaryTree type="DecisionTree" boostWeight="1.0000000000000000e+00" itree="12">
      <Node pos="s" depth="0" NCoef="0" IVar="2" Cut="8.2804757356643677e-01" cType="0" res="2.4700421839952469e-02" rms="3.5953435301780701e-01" purity="6.0246759653091431e-01" nType="0">
        <Node pos="l" depth="1" NCoef="0" IVar="-1" Cut="0.0000000000000000e+00" cType="1" res="2.5527944788336754e-02" rms="3.5790196061134338e-01" purity="7.8949612379074097e-01" nType="-99"/>
        <Node pos="r" depth="1" NCoef="0" IVar="0" Cut="3.2312577962875366e-01" cType="0" res="-1.3616864383220673e-01" rms="3.0402225255966187e-01" purity="2.3703542351722717e-01" nType="0">
          <Node pos="l" depth="2" NCoef="0" IVar="-1" Cut="0.0000000000000000e+00" cType="1" res="2.5243341922760010e-02" rms="3.5150280594825745e-01" purity="8.5516548156738281e-01" nType="-99"/>
          <Node pos="r" depth="2" NCoef="0" IVar="-1" Cut="0.0000000000000000e+00" cType="1" res="-4.4017955660820007e-02" rms="2.6655781269073486e-01" purity="9.7898386418819427e-02" nType="-99"/>
        </Node>
      </Node>
    </BinaryTree>
    <BinaryTree type="DecisionTree" boostWeight="1.0000000000000000e+00" itree="13">
      <Node pos="s" depth="0" NCoef="0" IVar="19" Cut="2.5253340601921082e-01" cType="1" res="2.1773649379611015e-02" rms="3.5566130280494690e-01" purity="6.0246759653091431e-01" nType="0">
        <Node pos="l" depth="1" NCoef="0" IVar="-1" Cut="0.0000000000000000e+00" cType="1" res="3.4146506339311600e-02" rms="3.0396890640258789e-01" purity="7.7766984701156616e-01" nType="-99"/>
        <Node pos="r" depth="1" NCoef="0" IVar="0" Cut="1.7363581061363220e-01" cType="0" res="-8.7260961532592773e-02" rms="3.6610189080238342e-01" purity="4.3770533800125122e-01" nType="0">
          <Node pos="l" depth="2" NCoef="0" IVar="-1" Cut="0.0000000000000000e+00" cType="1" res="2.4292370304465294e-02" rms="3.4939336776733398e-01" purity="8.4692168235778809e-01" nType="-99"/>
          <Node pos="r" depth="2" NCoef="0" IVar="-1" Cut="0.0000000000000000e+00" cType="1" res="-4.0528673678636551e-02" rms="3.4083044528961182e-01" purity="2.2596885263919830e-01" nType="-99"/>
        </Node>
      </Node>
    </BinaryTree>
    <BinaryTree type="DecisionTree" boostWeight="1.0000000000000000e+00" itree="14">
      <Node pos="s" depth="0" NCoef="0" IVar="0" Cut="6.5852932631969452e-02" cType="0" res="1.9382791593670845e-02" rms="3.5038116574287415e-01" purity="6.0246759653091431e-01" nType="0">
        <Node pos="l" depth="1" NCoef="0" IVar="-1" Cut="0.0000000000000000e+00" cType="1" res="2.8719825670123100e-02" rms="3.1909140944480896e-01" purity="8.1278127431869507e-01" nType="-99"/>
        <Node pos="r" depth="1" NCoef="0" IVar="17" Cut="1.2733061797916889e-02" cType="1" res="-1.0644195973873138e-01" rms="3.5591498017311096e-01" purity="2.9540556669235229e-01" nType="0">
          <Node pos="l" depth="2" NCoef="0" IVar="-1" Cut="0.0000000000000000e+00" cType="1" res="2.3529516533017159e-02" rms="3.6953154206275940e-01" purity="6.4480352401733398e-01" nType="-99"/>
          <Node pos="r" depth="2" NCoef="0" IVar="-1" Cut="0.0000000000000000e+00" cType="1" res="-3.8710620254278183e-02" rms="3.2479044795036316e-01" purity="1.9197317957878113e-01" nType="-99"/>
        </Node>
      </Node>
    </BinaryTree>
    <BinaryTree type="DecisionTree" boostWeight="1.0000000000000000e+00" itree="15">
      <Node pos="s" depth="0" NCoef="0" IVar="14" Cut="1.1082278564572334e-02" cType="1" res="1.6967762261629105e-02" rms="3.4629467129707336e-01" purity="6.0246759653091431e-01" nType="0">
        <Node pos="l" depth="1" NCoef="0" IVar="-1" Cut="0.0000000000000000e+00" cType="1" res="3.7686809897422791e-02" rms="2.7873700857162476e-01" purity="8.3744078874588013e-01" nType="-99"/>
        <Node pos="r" depth="1" NCoef="0" IVar="0" Cut="1.8975193798542023e-01" cType="0" res="-6.2443431466817856e-02" rms="3.5963431000709534e-01" purity="4.5792695879936218e-01" nType="0">
          <Node pos="l" depth="2" NCoef="0" IVar="-1" Cut="0.0000000000000000e+00" cType="1" res="2.4080926552414894e-02" rms="3.3689808845520020e-01" purity="8.6227428913116455e-01" nType="-99"/>
          <Node pos="r" depth="2" NCoef="0" IVar="-1" Cut="0.0000000000000000e+00" cType="1" res="-3.1989824026823044e-02" rms="3.4838685393333435e-01" purity="2.5164368748664856e-01" nType="-99"/>
        </Node>
      </Node>
    </BinaryTree>
    <BinaryTree type="DecisionTree" boostWeight="1.0000000000000000e+00" itree="16">
      <Node pos="s" depth="0" NCoef="0" IVar="2" Cut="9.4566994905471802e-01" cType="0" res="1.5135717578232288e-02" rms="3.4204235672950745e-01" purity="6.0246759653091431e-01" nType="0">
        <Node pos="l" depth="1" NCoef="0" IVar="-1" Cut="0.0000000000000000e+00" cType="1" res="2.8172383084893227e-02" rms="3.3235684037208557e-01" purity="8.3140921592712402e-01" nType="-99"/>
        <Node pos="r" depth="1" NCoef="0" IVar="14" Cut="1.0060870088636875e-02" cType="1" res="-8.8538348674774170e-02" rms="3.2254746556282043e-01" purity="3.4494093060493469e-01" nType="0">
          <Node pos="l" depth="2" NCoef="0" IVar="-1" Cut="0.0000000000000000e+00" cType="1" res="2.3311832919716835e-02" rms="3.2935211062431335e-01" purity="7.2324806451797485e-01" nType="-99"/>
          <Node pos="r" depth="2" NCoef="0" IVar="-1" Cut="0.0000000000000000e+00" cType="1" res="-3.6457981914281845e-02" rms="3.0092388391494751e-01" purity="2.3775564134120941e-01" nType="-99"/>
        </Node>
      </Node>
    </BinaryTree>
    <BinaryTree type="DecisionTree" boostWeight="1.0000000000000000e+00" itree="17">
      <Node pos="s" depth="0" NCoef="0" IVar="19" Cut="2.3667383193969727e-01" cType="1" res="1.3317320495843887e-02" rms="3.3849760890007019e-01" purity="6.0246759653091431e-01" nType="0">
        <Node pos="l" depth="1" NCoef="0" IVar="-1" Cut="0.0000000000000000e+00" cType="1" res="3.1196957454085350e-02" rms="2.9057598114013672e-01" purity="7.8996127843856812e-01" nType="-99"/>
        <Node pos="r" depth="1" NCoef="0" IVar="0" Cut="1.7563179135322571e-01" cType="0" res="-7.0963218808174133e-02" rms="3.5144603252410889e-01" purity="4.4881764054298401e-01" nType="0">
          <Node pos="l" depth="2" NCoef="0" IVar="-1" Cut="0.0000000000000000e+00" cType="1" res="1.8788350746035576e-02" rms="3.4244662523269653e-01" purity="8.5245716571807861e-01" nType="-99"/>
          <Node pos="r" depth="2" NCoef="0" IVar="-1" Cut="0.0000000000000000e+00" cType="1" res="-3.4078277647495270e-02" rms="3.3590811491012573e-01" purity="2.3732939362525940e-01" nType="-99"/>
        </Node>
      </Node>
    </BinaryTree>
    <BinaryTree type="DecisionTree" boostWeight="1.0000000000000000e+00" itree="18">
      <Node pos="s" depth="0" NCoef="0" IVar="2" Cut="8.2804757356643677e-01" cType="0" res="1.1824255809187889e-02" rms="3.3490353822708130e-01" purity="6.0246759653091431e-01" nType="0">
        <Node pos="l" depth="1" NCoef="0" IVar="-1" Cut="0.0000000000000000e+00" cType="1" res="1.9714415073394775e-02" rms="3.3910608291625977e-01" purity="7.8949612379074097e-01" nType="-99"/>
        <Node pos="r" depth="1" NCoef="0" IVar="0" Cut="3.5867244005203247e-01" cType="0" res="-1.1042772233486176e-01" rms="2.8988131880760193e-01" purity="2.3703542351722717e-01" nType="0">
          <Node pos="l" depth="2" NCoef="0" IVar="-1" Cut="0.0000000000000000e+00" cType="1" res="1.8277024850249290e-02" rms="3.4142699837684631e-01" purity="8.6264055967330933e-01" nType="-99"/>
          <Node pos="r" depth="2" NCoef="0" IVar="-1" Cut="0.0000000000000000e+00" cType="1" res="-3.9632383733987808e-02" rms="2.6456570625305176e-01" purity="1.0566673427820206e-01" nType="-99"/>
        </Node>
      </Node>
    </BinaryTree>
    <BinaryTree type="DecisionTree" boostWeight="1.0000000000000000e+00" itree="19">
      <Node pos="s" depth="0" NCoef="0" IVar="19" Cut="2.8384593129158020e-01" cType="1" res="1.0281184688210487e-02" rms="3.3266252279281616e-01" purity="6.0246759653091431e-01" nType="0">
        <Node pos="l" depth="1" NCoef="0" IVar="-1" Cut="0.0000000000000000e+00" cType="1" res="2.4362377822399139e-02" rms="3.0014258623123169e-01" purity="7.5570315122604370e-01" nType="-99"/>
        <Node pos="r" depth="1" NCoef="0" IVar="0" Cut="2.1155942976474762e-01" cType="0" res="-8.2477904856204987e-02" rms="3.4580096602439880e-01" purity="4.1862046718597412e-01" nType="0">
          <Node pos="l" depth="2" NCoef="0" IVar="-1" Cut="0.0000000000000000e+00" cType="1" res="1.5573330223560333e-02" rms="3.4451293945312500e-01" purity="8.5429412126541138e-01" nType="-99"/>
          <Node pos="r" depth="2" NCoef="0" IVar="-1" Cut="0.0000000000000000e+00" cType="1" res="-3.5676028579473495e-02" rms="3.3028048276901245e-01" purity="2.2650133073329926e-01" nType="-99"/>
        </Node>
      </Node>
    </BinaryTree>
    <BinaryTree type="DecisionTree" boostWeight="1.0000000000000000e+00" itree="20">
      <Node pos="s" depth="0" NCoef="0" IVar="17" Cut="1.9432686269283295e-02" cType="1" res="9.1354800388216972e-03" rms="3.2979294657707214e-01" purity="6.0246759653091431e-01" nType="0">
        <Node pos="l" depth="1" NCoef="0" IVar="-1" Cut="0.0000000000000000e+00" cType="1" res="2.8652893379330635e-02" rms="2.8303897380828857e-01" purity="7.6689738035202026e-01" nType="-99"/>
        <Node pos="r" depth="1" NCoef="0" IVar="0" Cut="2.0058153569698334e-01" cType="0" res="-6.1012610793113708e-02" rms="3.4408351778984070e-01" purity="4.8079925775527954e-01" nType="0">
          <Node pos="l" depth="2" NCoef="0" IVar="-1" Cut="0.0000000000000000e+00" cType="1" res="1.7286220565438271e-02" rms="3.2936537265777588e-01" purity="8.6703938245773315e-01" nType="-99"/>
          <Node pos="r" depth="2" NCoef="0" IVar="-1" Cut="0.0000000000000000e+00" cType="1" res="-3.2346796244382858e-02" rms="3.3576995134353638e-01" purity="2.6157474517822266e-01" nType="-99"/>
        </Node>
      </Node>
    </BinaryTree>
    <BinaryTree type="DecisionTree" boostWeight="1.0000000000000000e+00" itree="21">
      <Node pos="s" depth="0" NCoef="0" IVar="2" Cut="9.4566994905471802e-01" cType="0" res="8.2842381671071053e-03" rms="3.2679235935211182e-01" purity="6.0246759653091431e-01" nType="0">
        <Node pos="l" depth="1" NCoef="0" IVar="-1" Cut="0.0000000000000000e+00" cType="1" res="2.3527292534708977e-02" rms="3.2413071393966675e-01" purity="8.3140921592712402e-01" nType="-99"/>
        <Node pos="r" depth="1" NCoef="0" IVar="17" Cut="9.7096441313624382e-03" cType="1" res="-7.5039938092231750e-02" rms="3.0923599004745483e-01" purity="3.4494093060493469e-01" nType="0">
          <Node pos="l" depth="2" NCoef="0" IVar="-1" Cut="0.0000000000000000e+00" cType="1" res="3.1838942319154739e-02" rms="3.1554824113845825e-01" purity="7.8576594591140747e-01" nType="-99"/>
          <Node pos="r" depth="2" NCoef="0" IVar="-1" Cut="0.0000000000000000e+00" cType="1" res="-3.0125131830573082e-02" rms="2.9673695564270020e-01" purity="2.7912843227386475e-01" nType="-99"/>
        </Node>
      </Node>
    </BinaryTree>
    <BinaryTree type="DecisionTree" boostWeight="1.0000000000000000e+00" itree="22">
      <Node pos="s" depth="0" NCoef="0" IVar="6" Cut="6.2028724700212479e-02" cType="1" res="7.2240950539708138e-03" rms="3.2439550757408142e-01" purity="6.0246759653091431e-01" nType="0">
        <Node pos="l" depth="1" NCoef="0" IVar="-1" Cut="0.0000000000000000e+00" cType="1" res="1.4876992441713810e-02" rms="3.0078825354576111e-01" purity="6.7298269271850586e-01" nType="-99"/>
        <Node pos="r" depth="1" NCoef="0" IVar="0" Cut="2.4848504364490509e-01" cType="0" res="-1.2448272854089737e-01" rms="3.5483548045158386e-01" purity="3.9291459321975708e-01" nType="0">
          <Node pos="l" depth="2" NCoef="0" IVar="-1" Cut="0.0000000000000000e+00" cType="1" res="-4.1167475283145905e-03" rms="3.8074940443038940e-01" purity="8.1318408250808716e-01" nType="-99"/>
          <Node pos="r" depth="2" NCoef="0" IVar="-1" Cut="0.0000000000000000e+00" cType="1" res="-4.5235358178615570e-02" rms="3.3462652564048767e-01" purity="2.3294852674007416e-01" nType="-99"/>
        </Node>
      </Node>
    </BinaryTree>
    <BinaryTree type="DecisionTree" boostWeight="1.0000000000000000e+00" itree="23">
      <Node pos="s" depth="0" NCoef="0" IVar="14" Cut="1.1695123277604580e-02" cType="1" res="6.6546909511089325e-03" rms="3.2223612070083618e-01" purity="6.0246759653091431e-01" nType="0">
        <Node pos="l" depth="1" NCoef="0" IVar="-1" Cut="0.0000000000000000e+00" cType="1" res="2.6562925428152084e-02" rms="2.7854320406913757e-01" purity="8.1198257207870483e-01" nType="-99"/>
        <Node pos="r" depth="1" NCoef="0" IVar="19" Cut="3.3752453327178955e-01" cType="1" res="-5.8625891804695129e-02" rms="3.3857876062393188e-01" purity="4.3873262405395508e-01" nType="0">
          <Node pos="l" depth="2" NCoef="0" IVar="-1" Cut="0.0000000000000000e+00" cType="1" res="3.4346233587712049e-03" rms="3.3457311987876892e-01" purity="5.7200038433074951e-01" nType="-99"/>
          <Node pos="r" depth="2" NCoef="0" IVar="-1" Cut="0.0000000000000000e+00" cType="1" res="-3.6875113844871521e-02" rms="3.2825940847396851e-01" purity="3.1007611751556396e-01" nType="-99"/>
        </Node>
      </Node>
    </BinaryTree>
    <BinaryTree type="DecisionTree" boostWeight="1.0000000000000000e+00" itree="24">
      <Node pos="s" depth="0" NCoef="0" IVar="0" Cut="5.2879069000482559e-02" cType="0" res="6.0118031688034534e-03" rms="3.1982293725013733e-01" purity="6.0246759653091431e-01" nType="0">
        <Node pos="l" depth="1" NCoef="0" IVar="-1" Cut="0.0000000000000000e+00" cType="1" res="1.9177362322807312e-02" rms="3.0394259095191956e-01" purity="7.8583294153213501e-01" nType="-99"/>
        <Node pos="r" depth="1" NCoef="0" IVar="17" Cut="1.1191456578671932e-02" cType="1" res="-8.9113309979438782e-02" rms="3.2511991262435913e-01" purity="2.7727437019348145e-01" nType="0">
          <Node pos="l" depth="2" NCoef="0" IVar="-1" Cut="0.0000000000000000e+00" cType="1" res="1.7560806125402451e-02" rms="3.5007733106613159e-01" purity="6.8262332677841187e-01" nType="-99"/>
          <Node pos="r" depth="2" NCoef="0" IVar="-1" Cut="0.0000000000000000e+00" cType="1" res="-3.2444231212139130e-02" rms="3.0815374851226807e-01" purity="1.9013908505439758e-01" nType="-99"/>
        </Node>
      </Node>
    </BinaryTree>
    <BinaryTree type="DecisionTree" boostWeight="1.0000000000000000e+00" itree="25">
      <Node pos="s" depth="0" NCoef="0" IVar="2" Cut="9.4566994905471802e-01" cType="0" res="5.0242762081325054e-03" rms="3.1791266798973083e-01" purity="6.0246759653091431e-01" nType="0">
        <Node pos="l" depth="1" NCoef="0" IVar="-1" Cut="0.0000000000000000e+00" cType="1" res="2.1041166037321091e-02" rms="3.1760212779045105e-01" purity="8.3140921592712402e-01" nType="-99"/>
        <Node pos="r" depth="1" NCoef="0" IVar="0" Cut="3.0350250005722046e-01" cType="0" res="-6.7947819828987122e-02" rms="3.0204579234123230e-01" purity="3.4494093060493469e-01" nType="0">
          <Node pos="l" depth="2" NCoef="0" IVar="-1" Cut="0.0000000000000000e+00" cType="1" res="2.2414961829781532e-02" rms="3.0504852533340454e-01" purity="8.9084982872009277e-01" nType="-99"/>
          <Node pos="r" depth="2" NCoef="0" IVar="-1" Cut="0.0000000000000000e+00" cType="1" res="-2.9575910419225693e-02" rms="2.9089185595512390e-01" purity="1.9546686112880707e-01" nType="-99"/>
        </Node>
      </Node>
    </BinaryTree>
    <BinaryTree type="DecisionTree" boostWeight="1.0000000000000000e+00" itree="26">
      <Node pos="s" depth="0" NCoef="0" IVar="19" Cut="2.0210807025432587e-01" cType="1" res="4.2131887748837471e-03" rms="3.1612956523895264e-01" purity="6.0246759653091431e-01" nType="0">
        <Node pos="l" depth="1" NCoef="0" IVar="-1" Cut="0.0000000000000000e+00" cType="1" res="2.8693340718746185e-02" rms="2.6563292741775513e-01" purity="8.1894528865814209e-01" nType="-99"/>
        <Node pos="r" depth="1" NCoef="0" IVar="6" Cut="1.0633495450019836e-01" cType="1" res="-4.7731358557939529e-02" rms="3.3209738135337830e-01" purity="4.7305139899253845e-01" nType="0">
          <Node pos="l" depth="2" NCoef="0" IVar="-1" Cut="0.0000000000000000e+00" cType="1" res="-3.2213528174906969e-03" rms="3.2027971744537354e-01" purity="5.3468310832977295e-01" nType="-99"/>
          <Node pos="r" depth="2" NCoef="0" IVar="-1" Cut="0.0000000000000000e+00" cType="1" res="-4.8534706234931946e-02" rms="3.4215894341468811e-01" purity="2.8692391514778137e-01" nType="-99"/>
        </Node>
      </Node>
    </BinaryTree>
    <BinaryTree type="DecisionTree" boostWeight="1.0000000000000000e+00" itree="27">
      <Node pos="s" depth="0" NCoef="0" IVar="17" Cut="2.0589256659150124e-02" cType="1" res="3.8979176897555590e-03" rms="3.1387358903884888e-01" purity="6.0246759653091431e-01" nType="0">
        <Node pos="l" depth="1" NCoef="0" IVar="-1" Cut="0.0000000000000000e+00" cType="1" res="2.2802509367465973e-02" rms="2.7528777718544006e-01" purity="7.5820231437683105e-01" nType="-99"/>
        <Node pos="r" depth="1" NCoef="0" IVar="2" Cut="9.4943028688430786e-01" cType="0" res="-5.3910098969936371e-02" rms="3.3113193511962891e-01" purity="4.7528460621833801e-01" nType="0">
          <Node pos="l" depth="2" NCoef="0" IVar="-1" Cut="0.0000000000000000e+00" cType="1" res="2.9665052425116301e-03" rms="3.6622363328933716e-01" purity="7.4697363376617432e-01" nType="-99"/>
          <Node pos="r" depth="2" NCoef="0" IVar="-1" Cut="0.0000000000000000e+00" cType="1" res="-3.8023155182600021e-02" rms="2.7867165207862854e-01" purity="2.0865462720394135e-01" nType="-99"/>
        </Node>
      </Node>
    </BinaryTree>
    <BinaryTree type="DecisionTree" boostWeight="1.0000000000000000e+00" itree="28">
      <Node pos="s" depth="0" NCoef="0" IVar="0" Cut="5.9864997863769531e-02" cType="0" res="3.4941493067890406e-03" rms="3.1200158596038818e-01" purity="6.0246759653091431e-01" nType="0">
        <Node pos="l" depth="1" NCoef="0" IVar="-1" Cut="0.0000000000000000e+00" cType="1" res="1.7968568950891495e-02" rms="2.9686340689659119e-01" purity="8.0121123790740967e-01" nType="-99"/>
        <Node pos="r" depth="1" NCoef="0" IVar="17" Cut="1.3889265246689320e-02" cType="1" res="-7.3588706552982330e-02" rms="3.1972435116767883e-01" purity="2.8814432024955750e-01" nType="0">
          <Node pos="l" depth="2" NCoef="0" IVar="-1" Cut="0.0000000000000000e+00" cType="1" res="8.6803603917360306e-03" rms="3.4794953465461731e-01" purity="5.9983801841735840e-01" nType="-99"/>
          <Node pos="r" depth="2" NCoef="0" IVar="-1" Cut="0.0000000000000000e+00" cType="1" res="-3.1567033380270004e-02" rms="2.9997125267982483e-01" purity="1.7944473028182983e-01" nType="-99"/>
        </Node>
      </Node>
    </BinaryTree>
    <BinaryTree type="DecisionTree" boostWeight="1.0000000000000000e+00" itree="29">
      <Node pos="s" depth="0" NCoef="0" IVar="14" Cut="1.0724785737693310e-02" cType="1" res="2.8320825658738613e-03" rms="3.1052580475807190e-01" purity="6.0246759653091431e-01" nType="0">
        <Node pos="l" depth="1" NCoef="0" IVar="-1" Cut="0.0000000000000000e+00" cType="1" res="2.8417520225048065e-02" rms="2.5472164154052734e-01" purity="8.4990918636322021e-01" nType="-99"/>
        <Node pos="r" depth="1" NCoef="0" IVar="1" Cut="9.2198711633682251e-01" cType="0" res="-4.0809813886880875e-02" rms="3.2794919610023499e-01" purity="4.7193813323974609e-01" nType="0">
          <Node pos="l" depth="2" NCoef="0" IVar="-1" Cut="0.0000000000000000e+00" cType="1" res="-2.2103411611169577e-03" rms="3.3847644925117493e-01" purity="5.5740553140640259e-01" nType="-99"/>
          <Node pos="r" depth="2" NCoef="0" IVar="-1" Cut="0.0000000000000000e+00" cType="1" res="-4.5663733035326004e-02" rms="2.7426928281784058e-01" purity="2.2789002954959869e-01" nType="-99"/>
        </Node>
      </Node>
    </BinaryTree>
    <BinaryTree type="DecisionTree" boostWeight="1.0000000000000000e+00" itree="30">
      <Node pos="s" depth="0" NCoef="0" IVar="6" Cut="3.5444986075162888e-02" cType="1" res="2.4592329282313585e-03" rms="3.0880361795425415e-01" purity="6.0246759653091431e-01" nType="0">
        <Node pos="l" depth="1" NCoef="0" IVar="-1" Cut="0.0000000000000000e+00" cType="1" res="1.2875524349510670e-02" rms="2.8481206297874451e-01" purity="6.7895591259002686e-01" nType="-99"/>
        <Node pos="r" depth="1" NCoef="0" IVar="7" Cut="1.7097390890121460e+00" cType="1" res="-8.8648147881031036e-02" rms="3.4351956844329834e-01" purity="4.1779851913452148e-01" nType="0">
          <Node pos="l" depth="2" NCoef="0" IVar="-1" Cut="0.0000000000000000e+00" cType="1" res="-2.1290685981512070e-02" rms="3.2867482304573059e-01" purity="4.3451946973800659e-01" nType="-99"/>
          <Node pos="r" depth="2" NCoef="0" IVar="-1" Cut="0.0000000000000000e+00" cType="1" res="-7.3662132024765015e-02" rms="4.0178045630455017e-01" purity="3.0645549297332764e-01" nType="-99"/>
        </Node>
      </Node>
    </BinaryTree>
    <BinaryTree type="DecisionTree" boostWeight="1.0000000000000000e+00" itree="31">
      <Node pos="s" depth="0" NCoef="0" IVar="2" Cut="8.2804757356643677e-01" cType="0" res="2.3520169779658318e-03" rms="3.0731377005577087e-01" purity="6.0246759653091431e-01" nType="0">
        <Node pos="l" depth="1" NCoef="0" IVar="-1" Cut="0.0000000000000000e+00" cType="1" res="1.3301743194460869e-02" rms="3.1523984670639038e-01" purity="7.8949612379074097e-01" nType="-99"/>
        <Node pos="r" depth="1" NCoef="0" IVar="21" Cut="1.2591904401779175e-01" cType="0" res="-7.6936259865760803e-02" rms="2.7440175414085388e-01" purity="2.3703542351722717e-01" nType="0">
          <Node pos="l" depth="2" NCoef="0" IVar="-1" Cut="0.0000000000000000e+00" cType="1" res="5.3912792354822159e-02" rms="3.2723402976989746e-01" purity="6.0720074176788330e-01" nType="-99"/>
          <Node pos="r" depth="2" NCoef="0" IVar="-1" Cut="0.0000000000000000e+00" cType="1" res="-3.0481768772006035e-02" rms="2.6552000641822815e-01" purity="2.1484880149364471e-01" nType="-99"/>
        </Node>
      </Node>
    </BinaryTree>
    <BinaryTree type="DecisionTree" boostWeight="1.0000000000000000e+00" itree="32">
      <Node pos="s" depth="0" NCoef="0" IVar="19" Cut="3.0336543917655945e-01" cType="1" res="1.8393807113170624e-03" rms="3.0620494484901428e-01" purity="6.0246759653091431e-01" nType="0">
        <Node pos="l" depth="1" NCoef="0" IVar="-1" Cut="0.0000000000000000e+00" cType="1" res="1.6100363805890083e-02" rms="2.8445446491241455e-01" purity="7.4189162254333496e-01" nType="-99"/>
        <Node pos="r" depth="1" NCoef="0" IVar="4" Cut="-4.4138107299804688e+00" cType="1" res="-6.3631728291511536e-02" rms="3.2304665446281433e-01" purity="4.0764540433883667e-01" nType="0">
          <Node pos="l" depth="2" NCoef="0" IVar="-1" Cut="0.0000000000000000e+00" cType="1" res="1.0518169961869717e-02" rms="3.1030705571174622e-01" purity="6.8936496973037720e-01" nType="-99"/>
          <Node pos="r" depth="2" NCoef="0" IVar="-1" Cut="0.0000000000000000e+00" cType="1" res="-3.1370315700769424e-02" rms="3.2037067413330078e-01" purity="3.0896517634391785e-01" nType="-99"/>
        </Node>
      </Node>
    </BinaryTree>
    <BinaryTree type="DecisionTree" boostWeight="1.0000000000000000e+00" itree="33">
      <Node pos="s" depth="0" NCoef="0" IVar="0" Cut="4.9885101616382599e-02" cType="0" res="1.6607843572273850e-03" rms="3.0475565791130066e-01" purity="6.0246759653091431e-01" nType="0">
        <Node pos="l" depth="1" NCoef="0" IVar="-1" Cut="0.0000000000000000e+00" cType="1" res="1.4699036255478859e-02" rms="2.9325211048126221e-01" purity="7.7894240617752075e-01" nType="-99"/>
        <Node pos="r" depth="1" NCoef="0" IVar="2" Cut="1.2903203964233398e+00" cType="1" res="-7.2201088070869446e-02" rms="3.1195035576820374e-01" purity="2.7359056472778320e-01" nType="0">
          <Node pos="l" depth="2" NCoef="0" IVar="-1" Cut="0.0000000000000000e+00" cType="1" res="-1.6546525061130524e-02" rms="2.9926422238349915e-01" purity="2.7856436371803284e-01" nType="-99"/>
          <Node pos="r" depth="2" NCoef="0" IVar="-1" Cut="0.0000000000000000e+00" cType="1" res="-6.4338512718677521e-02" rms="3.9543995261192322e-01" purity="1.9471155107021332e-01" nType="-99"/>
        </Node>
      </Node>
    </BinaryTree>
    <BinaryTree type="DecisionTree" boostWeight="1.0000000000000000e+00" itree="34">
      <Node pos="s" depth="0" NCoef="0" IVar="17" Cut="1.9432686269283295e-02" cType="1" res="1.2417314574122429e-03" rms="3.0365857481956482e-01" purity="6.0246759653091431e-01" nType="0">
        <Node pos="l" depth="1" NCoef="0" IVar="-1" Cut="0.0000000000000000e+00" cType="1" res="2.0526282489299774e-02" rms="2.6627483963966370e-01" purity="7.6689738035202026e-01" nType="-99"/>
        <Node pos="r" depth="1" NCoef="0" IVar="0" Cut="2.1355539560317993e-01" cType="0" res="-4.3620012700557709e-02" rms="3.2131201028823853e-01" purity="4.8079925775527954e-01" nType="0">
          <Node pos="l" depth="2" NCoef="0" IVar="-1" Cut="0.0000000000000000e+00" cType="1" res="1.0618636384606361e-02" rms="3.1590190529823303e-01" purity="8.7040275335311890e-01" nType="-99"/>
          <Node pos="r" depth="2" NCoef="0" IVar="-1" Cut="0.0000000000000000e+00" cType="1" res="-2.5145964697003365e-02" rms="3.1757643818855286e-01" purity="2.6799002289772034e-01" nType="-99"/>
        </Node>
      </Node>
    </BinaryTree>
    <BinaryTree type="DecisionTree" boostWeight="1.0000000000000000e+00" itree="35">
      <Node pos="s" depth="0" NCoef="0" IVar="2" Cut="9.4566994905471802e-01" cType="0" res="1.1781522771343589e-03" rms="3.0237919092178345e-01" purity="6.0246759653091431e-01" nType="0">
        <Node pos="l" depth="1" NCoef="0" IVar="-1" Cut="0.0000000000000000e+00" cType="1" res="1.6724145039916039e-02" rms="3.0631494522094727e-01" purity="8.3140921592712402e-01" nType="-99"/>
        <Node pos="r" depth="1" NCoef="0" IVar="0" Cut="3.2325255870819092e-01" cType="0" res="-5.3747788071632385e-02" rms="2.8816577792167664e-01" purity="3.4494093060493469e-01" nType="0">
          <Node pos="l" depth="2" NCoef="0" IVar="-1" Cut="0.0000000000000000e+00" cType="1" res="1.8671970814466476e-02" rms="2.9191231727600098e-01" purity="8.9449197053909302e-01" nType="-99"/>
          <Node pos="r" depth="2" NCoef="0" IVar="-1" Cut="0.0000000000000000e+00" cType="1" res="-2.5930790230631828e-02" rms="2.8116726875305176e-01" purity="2.0182116329669952e-01" nType="-99"/>
        </Node>
      </Node>
    </BinaryTree>
    <BinaryTree type="DecisionTree" boostWeight="1.0000000000000000e+00" itree="36">
      <Node pos="s" depth="0" NCoef="0" IVar="6" Cut="6.2028724700212479e-02" cType="1" res="8.2257477333769202e-04" rms="3.0133828520774841e-01" purity="6.0246759653091431e-01" nType="0">
        <Node pos="l" depth="1" NCoef="0" IVar="-1" Cut="0.0000000000000000e+00" cType="1" res="1.0279725305736065e-02" rms="2.8281202912330627e-01" purity="6.7298269271850586e-01" nType="-99"/>
        <Node pos="r" depth="1" NCoef="0" IVar="7" Cut="1.6212586164474487e+00" cType="1" res="-8.5882991552352905e-02" rms="3.3603230118751526e-01" purity="3.9291459321975708e-01" nType="0">
          <Node pos="l" depth="2" NCoef="0" IVar="-1" Cut="0.0000000000000000e+00" cType="1" res="-2.1351950243115425e-02" rms="3.2073637843132019e-01" purity="4.1075608134269714e-01" nType="-99"/>
          <Node pos="r" depth="2" NCoef="0" IVar="-1" Cut="0.0000000000000000e+00" cType="1" res="-7.1760512888431549e-02" rms="3.9188474416732788e-01" purity="2.8595128655433655e-01" nType="-99"/>
        </Node>
      </Node>
    </BinaryTree>
    <BinaryTree type="DecisionTree" boostWeight="1.0000000000000000e+00" itree="37">
      <Node pos="s" depth="0" NCoef="0" IVar="19" Cut="1.9356828927993774e-01" cType="1" res="8.3645066479220986e-04" rms="3.0016773939132690e-01" purity="6.0246759653091431e-01" nType="0">
        <Node pos="l" depth="1" NCoef="0" IVar="-1" Cut="0.0000000000000000e+00" cType="1" res="2.4755433201789856e-02" rms="2.5313940644264221e-01" purity="8.2640242576599121e-01" nType="-99"/>
        <Node pos="r" depth="1" NCoef="0" IVar="0" Cut="7.3836855590343475e-02" cType="0" res="-3.5788007080554962e-02" rms="3.1698232889175415e-01" purity="4.8043668270111084e-01" nType="0">
          <Node pos="l" depth="2" NCoef="0" IVar="-1" Cut="0.0000000000000000e+00" cType="1" res="3.8641872815787792e-03" rms="3.2904049754142761e-01" purity="7.4940878152847290e-01" nType="-99"/>
          <Node pos="r" depth="2" NCoef="0" IVar="-1" Cut="0.0000000000000000e+00" cType="1" res="-2.6374101638793945e-02" rms="2.9556888341903687e-01" purity="1.9366349279880524e-01" nType="-99"/>
        </Node>
      </Node>
    </BinaryTree>
    <BinaryTree type="DecisionTree" boostWeight="1.0000000000000000e+00" itree="38">
      <Node pos="s" depth="0" NCoef="0" IVar="1" Cut="8.2580971717834473e-01" cType="0" res="5.7158380514010787e-04" rms="2.9901191592216492e-01" purity="6.0246759653091431e-01" nType="0">
        <Node pos="l" depth="1" NCoef="0" IVar="-1" Cut="0.0000000000000000e+00" cType="1" res="7.1519380435347557e-03" rms="2.9900476336479187e-01" purity="6.6144013404846191e-01" nType="-99"/>
        <Node pos="r" depth="1" NCoef="0" IVar="7" Cut="2.4104797840118408e+00" cType="1" res="-1.1581501364707947e-01" rms="2.7112212777137756e-01" purity="2.6674979925155640e-01" nType="0">
          <Node pos="l" depth="2" NCoef="0" IVar="-1" Cut="0.0000000000000000e+00" cType="1" res="-3.6049190908670425e-02" rms="2.4318739771842957e-01" purity="2.7324244379997253e-01" nType="-99"/>
          <Node pos="r" depth="2" NCoef="0" IVar="-1" Cut="0.0000000000000000e+00" cType="1" res="-8.9799791574478149e-02" rms="3.8232153654098511e-01" purity="2.2201615571975708e-01" nType="-99"/>
        </Node>
      </Node>
    </BinaryTree>
    <BinaryTree type="DecisionTree" boostWeight="1.0000000000000000e+00" itree="39">
      <Node pos="s" depth="0" NCoef="0" IVar="5" Cut="-5.5458289571106434e-03" cType="0" res="4.0753904613666236e-04" rms="2.9803422093391418e-01" purity="6.0246759653091431e-01" nType="0">
        <Node pos="l" depth="1" NCoef="0" IVar="-1" Cut="0.0000000000000000e+00" cType="1" res="7.8692138195037842e-03" rms="2.8455010056495667e-01" purity="6.5120667219161987e-01" nType="-99"/>
        <Node pos="r" depth="1" NCoef="0" IVar="9" Cut="7.0059971809387207e+00" cType="1" res="-1.0516846179962158e-01" rms="3.3586984872817993e-01" purity="3.7000697851181030e-01" nType="0">
          <Node pos="l" depth="2" NCoef="0" IVar="-1" Cut="0.0000000000000000e+00" cType="1" res="-9.7798006609082222e-03" rms="3.1917777657508850e-01" purity="5.7070702314376831e-01" nType="-99"/>
          <Node pos="r" depth="2" NCoef="0" IVar="-1" Cut="0.0000000000000000e+00" cType="1" res="-4.9202308058738708e-02" rms="3.3679232001304626e-01" purity="2.4717916548252106e-01" nType="-99"/>
        </Node>
      </Node>
    </BinaryTree>
    <BinaryTree type="DecisionTree" boostWeight="1.0000000000000000e+00" itree="40">
      <Node pos="s" depth="0" NCoef="0" IVar="13" Cut="6.0103847645223141e-03" cType="1" res="3.7765729939565063e-04" rms="2.9699444770812988e-01" purity="6.0246759653091431e-01" nType="0">
        <Node pos="l" depth="1" NCoef="0" IVar="-1" Cut="0.0000000000000000e+00" cType="1" res="7.7384216710925102e-03" rms="2.8699856996536255e-01" purity="6.4940267801284790e-01" nType="-99"/>
        <Node pos="r" depth="1" NCoef="0" IVar="0" Cut="4.0565976500511169e-01" cType="0" res="-1.0293715447187424e-01" rms="3.2097947597503662e-01" purity="3.7941473722457886e-01" nType="0">
          <Node pos="l" depth="2" NCoef="0" IVar="-1" Cut="0.0000000000000000e+00" cType="1" res="3.1053146813064814e-03" rms="3.2670411467552185e-01" purity="8.6696791648864746e-01" nType="-99"/>
          <Node pos="r" depth="2" NCoef="0" IVar="-1" Cut="0.0000000000000000e+00" cType="1" res="-4.5974176377058029e-02" rms="3.0880594253540039e-01" purity="1.9665029644966125e-01" nType="-99"/>
        </Node>
      </Node>
    </BinaryTree>
    <BinaryTree type="DecisionTree" boostWeight="1.0000000000000000e+00" itree="41">
      <Node pos="s" depth="0" NCoef="0" IVar="13" Cut="-7.4128680862486362e-03" cType="0" res="3.0310326837934554e-04" rms="2.9593998193740845e-01" purity="6.0246759653091431e-01" nType="0">
        <Node pos="l" depth="1" NCoef="0" IVar="-1" Cut="0.0000000000000000e+00" cType="1" res="6.7676864564418793e-03" rms="2.8705975413322449e-01" purity="6.4363551139831543e-01" nType="-99"/>
        <Node pos="r" depth="1" NCoef="0" IVar="11" Cut="-4.8134364187717438e-03" cType="0" res="-1.0974804311990738e-01" rms="3.2163500785827637e-01" purity="3.6339291930198669e-01" nType="0">
          <Node pos="l" depth="2" NCoef="0" IVar="-1" Cut="0.0000000000000000e+00" cType="1" res="1.6241652192547917e-03" rms="2.7516546845436096e-01" purity="6.4010614156723022e-01" nType="-99"/>
          <Node pos="r" depth="2" NCoef="0" IVar="-1" Cut="0.0000000000000000e+00" cType="1" res="-5.2813556045293808e-02" rms="3.2790818810462952e-01" purity="2.3325484991073608e-01" nType="-99"/>
        </Node>
      </Node>
    </BinaryTree>
    <BinaryTree type="DecisionTree" boostWeight="1.0000000000000000e+00" itree="42">
      <Node pos="s" depth="0" NCoef="0" IVar="14" Cut="1.0418362915515900e-02" cType="1" res="2.6559020625427365e-04" rms="2.9488793015480042e-01" purity="6.0246759653091431e-01" nType="0">
        <Node pos="l" depth="1" NCoef="0" IVar="-1" Cut="0.0000000000000000e+00" cType="1" res="2.5484988465905190e-02" rms="2.3814921081066132e-01" purity="8.6188620328903198e-01" nType="-99"/>
        <Node pos="r" depth="1" NCoef="0" IVar="21" Cut="1.0073523223400116e-01" cType="0" res="-2.9495453462004662e-02" rms="3.1278154253959656e-01" purity="4.8484680056571960e-01" nType="0">
          <Node pos="l" depth="2" NCoef="0" IVar="-1" Cut="0.0000000000000000e+00" cType="1" res="3.8940936326980591e-02" rms="2.9994973540306091e-01" purity="7.5148773193359375e-01" nType="-99"/>
          <Node pos="r" depth="2" NCoef="0" IVar="-1" Cut="0.0000000000000000e+00" cType="1" res="-1.5390200540423393e-02" rms="3.1029543280601501e-01" purity="4.5219582319259644e-01" nType="-99"/>
        </Node>
      </Node>
    </BinaryTree>
    <BinaryTree type="DecisionTree" boostWeight="1.0000000000000000e+00" itree="43">
      <Node pos="s" depth="0" NCoef="0" IVar="2" Cut="9.4566994905471802e-01" cType="0" res="1.0446165106259286e-04" rms="2.9368573427200317e-01" purity="6.0246759653091431e-01" nType="0">
        <Node pos="l" depth="1" NCoef="0" IVar="-1" Cut="0.0000000000000000e+00" cType="1" res="1.4660793356597424e-02" rms="2.9927206039428711e-01" purity="8.3140921592712402e-01" nType="-99"/>
        <Node pos="r" depth="1" NCoef="0" IVar="19" Cut="1.1970643699169159e-01" cType="1" res="-4.6537458896636963e-02" rms="2.8002819418907166e-01" purity="3.4494093060493469e-01" nType="0">
          <Node pos="l" depth="2" NCoef="0" IVar="-1" Cut="0.0000000000000000e+00" cType="1" res="2.2627368569374084e-02" rms="2.6975479722023010e-01" purity="7.8609961271286011e-01" nType="-99"/>
          <Node pos="r" depth="2" NCoef="0" IVar="-1" Cut="0.0000000000000000e+00" cType="1" res="-2.2982541471719742e-02" rms="2.7747946977615356e-01" purity="2.7775886654853821e-01" nType="-99"/>
        </Node>
      </Node>
    </BinaryTree>
    <BinaryTree type="DecisionTree" boostWeight="1.0000000000000000e+00" itree="44">
      <Node pos="s" depth="0" NCoef="0" IVar="17" Cut="2.0974779501557350e-02" cType="1" res="-6.2214778154157102e-05" rms="2.9285928606987000e-01" purity="6.0246759653091431e-01" nType="0">
        <Node pos="l" depth="1" NCoef="0" IVar="-1" Cut="0.0000000000000000e+00" cType="1" res="1.7125586047768593e-02" rms="2.6039850711822510e-01" purity="7.5530940294265747e-01" nType="-99"/>
        <Node pos="r" depth="1" NCoef="0" IVar="7" Cut="2.4827477931976318e+00" cType="1" res="-3.9877083152532578e-02" rms="3.1208565831184387e-01" purity="4.7394758462905884e-01" nType="0">
          <Node pos="l" depth="2" NCoef="0" IVar="-1" Cut="0.0000000000000000e+00" cType="1" res="-9.1474037617444992e-03" rms="2.9837465286254883e-01" purity="4.8299777507781982e-01" nType="-99"/>
          <Node pos="r" depth="2" NCoef="0" IVar="-1" Cut="0.0000000000000000e+00" cType="1" res="-6.8047262728214264e-02" rms="4.0207383036613464e-01" purity="3.7761712074279785e-01" nType="-99"/>
        </Node>
      </Node>
    </BinaryTree>
    <BinaryTree type="DecisionTree" boostWeight="1.0000000000000000e+00" itree="45">
      <Node pos="s" depth="0" NCoef="0" IVar="1" Cut="8.7389844655990601e-01" cType="0" res="2.9430275390041061e-05" rms="2.9174312949180603e-01" purity="6.0246759653091431e-01" nType="0">
        <Node pos="l" depth="1" NCoef="0" IVar="-1" Cut="0.0000000000000000e+00" cType="1" res="7.2356085292994976e-03" rms="2.9385927319526672e-01" purity="6.6997015476226807e-01" nType="-99"/>
        <Node pos="r" depth="1" NCoef="0" IVar="1" Cut="6.4112764596939087e-01" cType="0" res="-8.8737487792968750e-02" rms="2.6464369893074036e-01" purity="3.0914548039436340e-01" nType="0">
          <Node pos="l" depth="2" NCoef="0" IVar="-1" Cut="0.0000000000000000e+00" cType="1" res="-2.2567236796021461e-02" rms="2.5787803530693054e-01" purity="3.8037914037704468e-01" nType="-99"/>
          <Node pos="r" depth="2" NCoef="0" IVar="-1" Cut="0.0000000000000000e+00" cType="1" res="-5.8487936854362488e-02" rms="2.6709455251693726e-01" purity="1.6348671913146973e-01" nType="-99"/>
        </Node>
      </Node>
    </BinaryTree>
    <BinaryTree type="DecisionTree" boostWeight="1.0000000000000000e+00" itree="46">
      <Node pos="s" depth="0" NCoef="0" IVar="0" Cut="4.0903195738792419e-02" cType="0" res="-7.7354467066470534e-05" rms="2.9093325138092041e-01" purity="6.0246759653091431e-01" nType="0">
        <Node pos="l" depth="1" NCoef="0" IVar="-1" Cut="0.0000000000000000e+00" cType="1" res="1.0915790684521198e-02" rms="2.8259557485580444e-01" purity="7.5454413890838623e-01" nType="-99"/>
        <Node pos="r" depth="1" NCoef="0" IVar="2" Cut="1.2495067119598389e+00" cType="1" res="-6.4188688993453979e-02" rms="2.9929333925247192e-01" purity="2.5724396109580994e-01" nType="0">
          <Node pos="l" depth="2" NCoef="0" IVar="-1" Cut="0.0000000000000000e+00" cType="1" res="-1.6062466427683830e-02" rms="2.8635817766189575e-01" purity="2.6173549890518188e-01" nType="-99"/>
          <Node pos="r" depth="2" NCoef="0" IVar="-1" Cut="0.0000000000000000e+00" cType="1" res="-5.7893298566341400e-02" rms="3.8821542263031006e-01" purity="1.9153882563114166e-01" nType="-99"/>
        </Node>
      </Node>
    </BinaryTree>
    <BinaryTree type="DecisionTree" boostWeight="1.0000000000000000e+00" itree="47">
      <Node pos="s" depth="0" NCoef="0" IVar="13" Cut="6.9052684120833874e-03" cType="1" res="-2.7248670812696218e-04" rms="2.9020312428474426e-01" purity="6.0246759653091431e-01" nType="0">
        <Node pos="l" depth="1" NCoef="0" IVar="-1" Cut="0.0000000000000000e+00" cType="1" res="6.4919488504528999e-03" rms="2.8174236416816711e-01" purity="6.4586293697357178e-01" nType="-99"/>
        <Node pos="r" depth="1" NCoef="0" IVar="11" Cut="5.6101856753230095e-03" cType="1" res="-9.7886078059673309e-02" rms="3.1483596563339233e-01" purity="3.6758163571357727e-01" nType="0">
          <Node pos="l" depth="2" NCoef="0" IVar="-1" Cut="0.0000000000000000e+00" cType="1" res="-4.4960589148104191e-03" rms="2.7665853500366211e-01" purity="5.9108912944793701e-01" nType="-99"/>
          <Node pos="r" depth="2" NCoef="0" IVar="-1" Cut="0.0000000000000000e+00" cType="1" res="-4.9500554800033569e-02" rms="3.2436317205429077e-01" purity="2.4199584126472473e-01" nType="-99"/>
        </Node>
      </Node>
    </BinaryTree>
    <BinaryTree type="DecisionTree" boostWeight="1.0000000000000000e+00" itree="48">
      <Node pos="s" depth="0" NCoef="0" IVar="6" Cut="1.7722493037581444e-02" cType="1" res="-2.6203438756056130e-04" rms="2.8931087255477905e-01" purity="6.0246759653091431e-01" nType="0">
        <Node pos="l" depth="1" NCoef="0" IVar="-1" Cut="0.0000000000000000e+00" cType="1" res="1.0484232567250729e-02" rms="2.6654061675071716e-01" purity="6.8082112073898315e-01" nType="-99"/>
        <Node pos="r" depth="1" NCoef="0" IVar="21" Cut="9.7004294395446777e-02" cType="0" res="-5.9735704213380814e-02" rms="3.2383596897125244e-01" purity="4.3902507424354553e-01" nType="0">
          <Node pos="l" depth="2" NCoef="0" IVar="-1" Cut="0.0000000000000000e+00" cType="1" res="2.2385833784937859e-02" rms="3.2478266954421997e-01" purity="6.5960180759429932e-01" nType="-99"/>
          <Node pos="r" depth="2" NCoef="0" IVar="-1" Cut="0.0000000000000000e+00" cType="1" res="-2.7318842709064484e-02" rms="3.1983518600463867e-01" purity="4.0490758419036865e-01" nType="-99"/>
        </Node>
      </Node>
    </BinaryTree>
    <BinaryTree type="DecisionTree" boostWeight="1.0000000000000000e+00" itree="49">
      <Node pos="s" depth="0" NCoef="0" IVar="19" Cut="3.6314386129379272e-01" cType="1" res="-1.8014821398537606e-04" rms="2.8833061456680298e-01" purity="6.0246759653091431e-01" nType="0">
        <Node pos="l" depth="1" NCoef="0" IVar="-1" Cut="0.0000000000000000e+00" cType="1" res="1.0164638049900532e-02" rms="2.7664449810981750e-01" purity="7.0486730337142944e-01" nType="-99"/>
        <Node pos="r" depth="1" NCoef="0" IVar="4" Cut="-4.3860669136047363e+00" cType="1" res="-6.0199961066246033e-02" rms="3.0380940437316895e-01" purity="3.7885609269142151e-01" nType="0">
          <Node pos="l" depth="2" NCoef="0" IVar="-1" Cut="0.0000000000000000e+00" cType="1" res="6.9431462325155735e-03" rms="2.9890087246894836e-01" purity="6.6708642244338989e-01" nType="-99"/>
          <Node pos="r" depth="2" NCoef="0" IVar="-1" Cut="0.0000000000000000e+00" cType="1" res="-3.1671058386564255e-02" rms="3.0057027935981750e-01" purity="2.8092983365058899e-01" nType="-99"/>
        </Node>
      </Node>
    </BinaryTree>
    <BinaryTree type="DecisionTree" boostWeight="1.0000000000000000e+00" itree="50">
      <Node pos="s" depth="0" NCoef="0" IVar="13" Cut="-7.4128680862486362e-03" cType="0" res="-1.4303222997114062e-04" rms="2.8743740916252136e-01" purity="6.0246759653091431e-01" nType="0">
        <Node pos="l" depth="1" NCoef="0" IVar="-1" Cut="0.0000000000000000e+00" cType="1" res="6.0342694632709026e-03" rms="2.7943795919418335e-01" purity="6.4363551139831543e-01" nType="-99"/>
        <Node pos="r" depth="1" NCoef="0" IVar="11" Cut="-4.8134364187717438e-03" cType="0" res="-9.5451161265373230e-02" rms="3.1353929638862610e-01" purity="3.6339291930198669e-01" nType="0">
          <Node pos="l" depth="2" NCoef="0" IVar="-1" Cut="0.0000000000000000e+00" cType="1" res="1.2515956768766046e-03" rms="2.7040264010429382e-01" purity="6.4010614156723022e-01" nType="-99"/>
          <Node pos="r" depth="2" NCoef="0" IVar="-1" Cut="0.0000000000000000e+00" cType="1" res="-4.7977957874536514e-02" rms="3.2162383198738098e-01" purity="2.3325484991073608e-01" nType="-99"/>
        </Node>
      </Node>
    </BinaryTree>
    <BinaryTree type="DecisionTree" boostWeight="1.0000000000000000e+00" itree="51">
      <Node pos="s" depth="0" NCoef="0" IVar="5" Cut="5.1397779025137424e-03" cType="1" res="-1.3122975360602140e-04" rms="2.8660428524017334e-01" purity="6.0246759653091431e-01" nType="0">
        <Node pos="l" depth="1" NCoef="0" IVar="-1" Cut="0.0000000000000000e+00" cType="1" res="6.8025859072804451e-03" rms="2.7556583285331726e-01" purity="6.5081882476806641e-01" nType="-99"/>
        <Node pos="r" depth="1" NCoef="0" IVar="9" Cut="8.0044975280761719e+00" cType="1" res="-8.1991791725158691e-02" rms="3.1879734992980957e-01" purity="3.8669669628143311e-01" nType="0">
          <Node pos="l" depth="2" NCoef="0" IVar="-1" Cut="0.0000000000000000e+00" cType="1" res="-1.0461091063916683e-02" rms="2.9923757910728455e-01" purity="5.5237954854965210e-01" nType="-99"/>
          <Node pos="r" depth="2" NCoef="0" IVar="-1" Cut="0.0000000000000000e+00" cType="1" res="-4.3175674974918365e-02" rms="3.2743459939956665e-01" purity="2.4243137240409851e-01" nType="-99"/>
        </Node>
      </Node>
    </BinaryTree>
    <BinaryTree type="DecisionTree" boostWeight="1.0000000000000000e+00" itree="52">
      <Node pos="s" depth="0" NCoef="0" IVar="1" Cut="8.7389844655990601e-01" cType="0" res="-1.1455889034550637e-04" rms="2.8588059544563293e-01" purity="6.0246759653091431e-01" nType="0">
        <Node pos="l" depth="1" NCoef="0" IVar="-1" Cut="0.0000000000000000e+00" cType="1" res="6.6761579364538193e-03" rms="2.8853520750999451e-01" purity="6.6997015476226807e-01" nType="-99"/>
        <Node pos="r" depth="1" NCoef="0" IVar="19" Cut="1.2757833302021027e-01" cType="1" res="-8.0079190433025360e-02" rms="2.5929871201515198e-01" purity="3.0914548039436340e-01" nType="0">
          <Node pos="l" depth="2" NCoef="0" IVar="-1" Cut="0.0000000000000000e+00" cType="1" res="9.2567801475524902e-03" rms="2.6999023556709290e-01" purity="7.7021169662475586e-01" nType="-99"/>
          <Node pos="r" depth="2" NCoef="0" IVar="-1" Cut="0.0000000000000000e+00" cType="1" res="-3.8984272629022598e-02" rms="2.5396379828453064e-01" purity="2.4005822837352753e-01" nType="-99"/>
        </Node>
      </Node>
    </BinaryTree>
    <BinaryTree type="DecisionTree" boostWeight="1.0000000000000000e+00" itree="53">
      <Node pos="s" depth="0" NCoef="0" IVar="0" Cut="6.6850923001766205e-02" cType="0" res="-1.9413759582675993e-04" rms="2.8520369529724121e-01" purity="6.0246759653091431e-01" nType="0">
        <Node pos="l" depth="1" NCoef="0" IVar="-1" Cut="0.0000000000000000e+00" cType="1" res="1.3239284045994282e-02" rms="2.7222758531570435e-01" purity="8.1429076194763184e-01" nType="-99"/>
        <Node pos="r" depth="1" NCoef="0" IVar="15" Cut="1.3613151386380196e-02" cType="1" res="-4.6306509524583817e-02" rms="2.9693982005119324e-01" purity="2.9695081710815430e-01" nType="0">
          <Node pos="l" depth="2" NCoef="0" IVar="-1" Cut="0.0000000000000000e+00" cType="1" res="4.9178698100149632e-03" rms="3.0669191479682922e-01" purity="4.8206436634063721e-01" nType="-99"/>
          <Node pos="r" depth="2" NCoef="0" IVar="-1" Cut="0.0000000000000000e+00" cType="1" res="-2.8125844895839691e-02" rms="2.8514486551284790e-01" purity="1.9177567958831787e-01" nType="-99"/>
        </Node>
      </Node>
    </BinaryTree>
    <BinaryTree type="DecisionTree" boostWeight="1.0000000000000000e+00" itree="54">
      <Node pos="s" depth="0" NCoef="0" IVar="5" Cut="-4.5744101516902447e-03" cType="0" res="-3.7488414091058075e-04" rms="2.8445911407470703e-01" purity="6.0246759653091431e-01" nType="0">
        <Node pos="l" depth="1" NCoef="0" IVar="-1" Cut="0.0000000000000000e+00" cType="1" res="7.0059965364634991e-03" rms="2.7135273814201355e-01" purity="6.5575033426284790e-01" nType="-99"/>
        <Node pos="r" depth="1" NCoef="0" IVar="21" Cut="1.2366569042205811e-01" cType="0" res="-7.4615500867366791e-02" rms="3.2082638144493103e-01" purity="3.9098814129829407e-01" nType="0">
          <Node pos="l" depth="2" NCoef="0" IVar="-1" Cut="0.0000000000000000e+00" cType="1" res="3.0912028625607491e-02" rms="3.1387171149253845e-01" purity="6.9697803258895874e-01" nType="-99"/>
          <Node pos="r" depth="2" NCoef="0" IVar="-1" Cut="0.0000000000000000e+00" cType="1" res="-3.2508052885532379e-02" rms="3.1719136238098145e-01" purity="3.5838159918785095e-01" nType="-99"/>
        </Node>
      </Node>
    </BinaryTree>
    <BinaryTree type="DecisionTree" boostWeight="1.0000000000000000e+00" itree="55">
      <Node pos="s" depth="0" NCoef="0" IVar="17" Cut="1.9432686269283295e-02" cType="1" res="-3.8712329114787281e-04" rms="2.8371950984001160e-01" purity="6.0246759653091431e-01" nType="0">
        <Node pos="l" depth="1" NCoef="0" IVar="-1" Cut="0.0000000000000000e+00" cType="1" res="1.6351066529750824e-02" rms="2.5064307451248169e-01" purity="7.6689738035202026e-01" nType="-99"/>
        <Node pos="r" depth="1" NCoef="0" IVar="7" Cut="2.4827477931976318e+00" cType="1" res="-3.1782969832420349e-02" rms="3.0208817124366760e-01" purity="4.8079925775527954e-01" nType="0">
          <Node pos="l" depth="2" NCoef="0" IVar="-1" Cut="0.0000000000000000e+00" cType="1" res="-7.2510628961026669e-03" rms="2.8942251205444336e-01" purity="4.9007835984230042e-01" nType="-99"/>
          <Node pos="r" depth="2" NCoef="0" IVar="-1" Cut="0.0000000000000000e+00" cType="1" res="-5.8735992759466171e-02" rms="3.9025831222534180e-01" purity="3.8167676329612732e-01" nType="-99"/>
        </Node>
      </Node>
    </BinaryTree>
    <BinaryTree type="DecisionTree" boostWeight="1.0000000000000000e+00" itree="56">
      <Node pos="s" depth="0" NCoef="0" IVar="2" Cut="9.4566994905471802e-01" cType="0" res="-2.7919531567022204e-04" rms="2.8283008933067322e-01" purity="6.0246759653091431e-01" nType="0">
        <Node pos="l" depth="1" NCoef="0" IVar="-1" Cut="0.0000000000000000e+00" cType="1" res="1.2734620831906796e-02" rms="2.8944340348243713e-01" purity="8.3140921592712402e-01" nType="-99"/>
        <Node pos="r" depth="1" NCoef="0" IVar="21" Cut="1.3058270514011383e-01" cType="0" res="-3.8563467562198639e-02" rms="2.7012407779693604e-01" purity="3.4494093060493469e-01" nType="0">
          <Node pos="l" depth="2" NCoef="0" IVar="-1" Cut="0.0000000000000000e+00" cType="1" res="5.4401874542236328e-02" rms="3.0874693393707275e-01" purity="6.6545718908309937e-01" nType="-99"/>
          <Node pos="r" depth="2" NCoef="0" IVar="-1" Cut="0.0000000000000000e+00" cType="1" res="-1.8473828211426735e-02" rms="2.6436796784400940e-01" purity="3.2664370536804199e-01" nType="-99"/>
        </Node>
      </Node>
    </BinaryTree>
    <BinaryTree type="DecisionTree" boostWeight="1.0000000000000000e+00" itree="57">
      <Node pos="s" depth="0" NCoef="0" IVar="6" Cut="1.1519619822502136e-01" cType="1" res="-4.4829864054918289e-04" rms="2.8211691975593567e-01" purity="6.0246759653091431e-01" nType="0">
        <Node pos="l" depth="1" NCoef="0" IVar="-1" Cut="0.0000000000000000e+00" cType="1" res="6.5603218972682953e-03" rms="2.7084013819694519e-01" purity="6.6181486845016479e-01" nType="-99"/>
        <Node pos="r" depth="1" NCoef="0" IVar="7" Cut="1.6212586164474487e+00" cType="1" res="-7.2218403220176697e-02" rms="3.1456014513969421e-01" purity="3.5733330249786377e-01" nType="0">
          <Node pos="l" depth="2" NCoef="0" IVar="-1" Cut="0.0000000000000000e+00" cType="1" res="-2.0336627960205078e-02" rms="3.0306953191757202e-01" purity="3.7691143155097961e-01" nType="-99"/>
          <Node pos="r" depth="2" NCoef="0" IVar="-1" Cut="0.0000000000000000e+00" cType="1" res="-5.9024106711149216e-02" rms="3.5728728771209717e-01" purity="2.4714031815528870e-01" nType="-99"/>
        </Node>
      </Node>
    </BinaryTree>
    <BinaryTree type="DecisionTree" boostWeight="1.0000000000000000e+00" itree="58">
      <Node pos="s" depth="0" NCoef="0" IVar="0" Cut="7.3836855590343475e-02" cType="0" res="-3.4749522455967963e-04" rms="2.8145533800125122e-01" purity="6.0246759653091431e-01" nType="0">
        <Node pos="l" depth="1" NCoef="0" IVar="-1" Cut="0.0000000000000000e+00" cType="1" res="1.2915734201669693e-02" rms="2.6699662208557129e-01" purity="8.2662439346313477e-01" nType="-99"/>
        <Node pos="r" depth="1" NCoef="0" IVar="2" Cut="1.4127612113952637e+00" cType="1" res="-4.0511272847652435e-02" rms="2.9482188820838928e-01" purity="3.0479353666305542e-01" nType="0">
          <Node pos="l" depth="2" NCoef="0" IVar="-1" Cut="0.0000000000000000e+00" cType="1" res="-1.0591983795166016e-02" rms="2.8537383675575256e-01" purity="3.0988949537277222e-01" nType="-99"/>
          <Node pos="r" depth="2" NCoef="0" IVar="-1" Cut="0.0000000000000000e+00" cType="1" res="-5.5262379348278046e-02" rms="3.9956632256507874e-01" purity="1.9635564088821411e-01" nType="-99"/>
        </Node>
      </Node>
    </BinaryTree>
    <BinaryTree type="DecisionTree" boostWeight="1.0000000000000000e+00" itree="59">
      <Node pos="s" depth="0" NCoef="0" IVar="13" Cut="6.9052684120833874e-03" cType="1" res="-4.5407039579004049e-04" rms="2.8093910217285156e-01" purity="6.0246759653091431e-01" nType="0">
        <Node pos="l" depth="1" NCoef="0" IVar="-1" Cut="0.0000000000000000e+00" cType="1" res="5.6353942491114140e-03" rms="2.7356579899787903e-01" purity="6.4586293697357178e-01" nType="-99"/>
        <Node pos="r" depth="1" NCoef="0" IVar="11" Cut="6.5721822902560234e-03" cType="1" res="-8.1280715763568878e-02" rms="3.0547830462455750e-01" purity="3.6758163571357727e-01" nType="0">
          <Node pos="l" depth="2" NCoef="0" IVar="-1" Cut="0.0000000000000000e+00" cType="1" res="-6.2303785234689713e-03" rms="2.7652636170387268e-01" purity="5.7360005378723145e-01" nType="-99"/>
          <Node pos="r" depth="2" NCoef="0" IVar="-1" Cut="0.0000000000000000e+00" cType="1" res="-4.4686116278171539e-02" rms="3.1563270092010498e-01" purity="2.3116809129714966e-01" nType="-99"/>
        </Node>
      </Node>
    </BinaryTree>
    <BinaryTree type="DecisionTree" boostWeight="1.0000000000000000e+00" itree="60">
      <Node pos="s" depth="0" NCoef="0" IVar="1" Cut="8.2580971717834473e-01" cType="0" res="-4.1962685645557940e-04" rms="2.8028890490531921e-01" purity="6.0246759653091431e-01" nType="0">
        <Node pos="l" depth="1" NCoef="0" IVar="-1" Cut="0.0000000000000000e+00" cType="1" res="5.2831349894404411e-03" rms="2.8271976113319397e-01" purity="6.6144013404846191e-01" nType="-99"/>
        <Node pos="r" depth="1" NCoef="0" IVar="7" Cut="2.4104797840118408e+00" cType="1" res="-8.1582479178905487e-02" rms="2.5105008482933044e-01" purity="2.6674979925155640e-01" nType="0">
          <Node pos="l" depth="2" NCoef="0" IVar="-1" Cut="0.0000000000000000e+00" cType="1" res="-2.9245838522911072e-02" rms="2.2776035964488983e-01" purity="2.7324244379997253e-01" nType="-99"/>
          <Node pos="r" depth="2" NCoef="0" IVar="-1" Cut="0.0000000000000000e+00" cType="1" res="-6.8622343242168427e-02" rms="3.5356616973876953e-01" purity="2.2201615571975708e-01" nType="-99"/>
        </Node>
      </Node>
    </BinaryTree>
    <BinaryTree type="DecisionTree" boostWeight="1.0000000000000000e+00" itree="61">
      <Node pos="s" depth="0" NCoef="0" IVar="19" Cut="1.7892867326736450e-01" cType="1" res="-4.4237091788090765e-04" rms="2.7970516681671143e-01" purity="6.0246759653091431e-01" nType="0">
        <Node pos="l" depth="1" NCoef="0" IVar="-1" Cut="0.0000000000000000e+00" cType="1" res="2.1365080028772354e-02" rms="2.3337285220623016e-01" purity="8.3898609876632690e-01" nType="-99"/>
        <Node pos="r" depth="1" NCoef="0" IVar="0" Cut="1.4569211006164551e-01" cType="0" res="-2.3379152640700340e-02" rms="2.9583331942558289e-01" purity="4.9351614713668823e-01" nType="0">
          <Node pos="l" depth="2" NCoef="0" IVar="-1" Cut="0.0000000000000000e+00" cType="1" res="8.3069577813148499e-03" rms="2.8956162929534912e-01" purity="8.5403877496719360e-01" nType="-99"/>
          <Node pos="r" depth="2" NCoef="0" IVar="-1" Cut="0.0000000000000000e+00" cType="1" res="-1.7986398190259933e-02" rms="2.9647409915924072e-01" purity="2.5777870416641235e-01" nType="-99"/>
        </Node>
      </Node>
    </BinaryTree>
    <BinaryTree type="DecisionTree" boostWeight="1.0000000000000000e+00" itree="62">
      <Node pos="s" depth="0" NCoef="0" IVar="13" Cut="-7.4128680862486362e-03" cType="0" res="-4.6218134230002761e-04" rms="2.7914443612098694e-01" purity="6.0246759653091431e-01" nType="0">
        <Node pos="l" depth="1" NCoef="0" IVar="-1" Cut="0.0000000000000000e+00" cType="1" res="5.3110346198081970e-03" rms="2.7217712998390198e-01" purity="6.4363551139831543e-01" nType="-99"/>
        <Node pos="r" depth="1" NCoef="0" IVar="9" Cut="7.0059971809387207e+00" cType="1" res="-8.0885849893093109e-02" rms="3.0437982082366943e-01" purity="3.6339291930198669e-01" nType="0">
          <Node pos="l" depth="2" NCoef="0" IVar="-1" Cut="0.0000000000000000e+00" cType="1" res="-4.0647955611348152e-03" rms="2.8945687413215637e-01" purity="5.9071987867355347e-01" nType="-99"/>
          <Node pos="r" depth="2" NCoef="0" IVar="-1" Cut="0.0000000000000000e+00" cType="1" res="-4.7544833272695541e-02" rms="3.0475953221321106e-01" purity="2.0472444593906403e-01" nType="-99"/>
        </Node>
      </Node>
    </BinaryTree>
    <BinaryTree type="DecisionTree" boostWeight="1.0000000000000000e+00" itree="63">
      <Node pos="s" depth="0" NCoef="0" IVar="5" Cut="5.1397779025137424e-03" cType="1" res="-3.9696865133009851e-04" rms="2.7848979830741882e-01" purity="6.0246759653091431e-01" nType="0">
        <Node pos="l" depth="1" NCoef="0" IVar="-1" Cut="0.0000000000000000e+00" cType="1" res="5.9308493509888649e-03" rms="2.6835685968399048e-01" purity="6.5081882476806641e-01" nType="-99"/>
        <Node pos="r" depth="1" NCoef="0" IVar="21" Cut="1.0633163154125214e-01" cType="0" res="-6.8372614681720734e-02" rms="3.1085091829299927e-01" purity="3.8669669628143311e-01" nType="0">
          <Node pos="l" depth="2" NCoef="0" IVar="-1" Cut="0.0000000000000000e+00" cType="1" res="2.5665607303380966e-02" rms="3.0713525414466858e-01" purity="6.7303681373596191e-01" nType="-99"/>
          <Node pos="r" depth="2" NCoef="0" IVar="-1" Cut="0.0000000000000000e+00" cType="1" res="-3.1760640442371368e-02" rms="3.0740895867347717e-01" purity="3.5093721747398376e-01" nType="-99"/>
        </Node>
      </Node>
    </BinaryTree>
    <BinaryTree type="DecisionTree" boostWeight="1.0000000000000000e+00" itree="64">
      <Node pos="s" depth="0" NCoef="0" IVar="5" Cut="-4.5744101516902447e-03" cType="0" res="-4.0848262142390013e-04" rms="2.7788513898849487e-01" purity="6.0246759653091431e-01" nType="0">
        <Node pos="l" depth="1" NCoef="0" IVar="-1" Cut="0.0000000000000000e+00" cType="1" res="6.2517933547496796e-03" rms="2.6566961407661438e-01" purity="6.5575033426284790e-01" nType="-99"/>
        <Node pos="r" depth="1" NCoef="0" IVar="9" Cut="7.0059971809387207e+00" cType="1" res="-6.3681103289127350e-02" rms="3.1394502520561218e-01" purity="3.9098814129829407e-01" nType="0">
          <Node pos="l" depth="2" NCoef="0" IVar="-1" Cut="0.0000000000000000e+00" cType="1" res="-1.9160666270181537e-03" rms="2.9661667346954346e-01" purity="5.8818626403808594e-01" nType="-99"/>
          <Node pos="r" depth="2" NCoef="0" IVar="-1" Cut="0.0000000000000000e+00" cType="1" res="-3.5422764718532562e-02" rms="3.1865125894546509e-01" purity="2.7486562728881836e-01" nType="-99"/>
        </Node>
      </Node>
    </BinaryTree>
    <BinaryTree type="DecisionTree" boostWeight="1.0000000000000000e+00" itree="65">
      <Node pos="s" depth="0" NCoef="0" IVar="1" Cut="8.8992798328399658e-01" cType="0" res="-3.5597660462372005e-04" rms="2.7734744548797607e-01" purity="6.0246759653091431e-01" nType="0">
        <Node pos="l" depth="1" NCoef="0" IVar="-1" Cut="0.0000000000000000e+00" cType="1" res="5.9907604008913040e-03" rms="2.8116008639335632e-01" purity="6.7207539081573486e-01" nType="-99"/>
        <Node pos="r" depth="1" NCoef="0" IVar="9" Cut="7.0059971809387207e+00" cType="1" res="-6.3017562031745911e-02" rms="2.5202751159667969e-01" purity="3.2484653592109680e-01" nType="0">
          <Node pos="l" depth="2" NCoef="0" IVar="-1" Cut="0.0000000000000000e+00" cType="1" res="-7.0695085451006889e-03" rms="2.5831046700477600e-01" purity="5.0642126798629761e-01" nType="-99"/>
          <Node pos="r" depth="2" NCoef="0" IVar="-1" Cut="0.0000000000000000e+00" cType="1" res="-4.1378233581781387e-02" rms="2.4236364662647247e-01" purity="1.9904673099517822e-01" nType="-99"/>
        </Node>
      </Node>
    </BinaryTree>
    <BinaryTree type="DecisionTree" boostWeight="1.0000000000000000e+00" itree="66">
      <Node pos="s" depth="0" NCoef="0" IVar="17" Cut="1.8276117742061615e-02" cType="1" res="-3.9042279240675271e-04" rms="2.7681416273117065e-01" purity="6.0246759653091431e-01" nType="0">
        <Node pos="l" depth="1" NCoef="0" IVar="-1" Cut="0.0000000000000000e+00" cType="1" res="1.6017593443393707e-02" rms="2.4383564293384552e-01" purity="7.7531218528747559e-01" nType="-99"/>
        <Node pos="r" depth="1" NCoef="0" IVar="7" Cut="2.4827477931976318e+00" cType="1" res="-2.6349412277340889e-02" rms="2.9391372203826904e-01" purity="4.8726564645767212e-01" nType="0">
          <Node pos="l" depth="2" NCoef="0" IVar="-1" Cut="0.0000000000000000e+00" cType="1" res="-6.2561752274632454e-03" rms="2.8251925110816956e-01" purity="4.9638941884040833e-01" nType="-99"/>
          <Node pos="r" depth="2" NCoef="0" IVar="-1" Cut="0.0000000000000000e+00" cType="1" res="-5.0628170371055603e-02" rms="3.7859302759170532e-01" purity="3.8912743330001831e-01" nType="-99"/>
        </Node>
      </Node>
    </BinaryTree>
    <BinaryTree type="DecisionTree" boostWeight="1.0000000000000000e+00" itree="67">
      <Node pos="s" depth="0" NCoef="0" IVar="0" Cut="4.0903195738792419e-02" cType="0" res="-2.8886974905617535e-04" rms="2.7609661221504211e-01" purity="6.0246759653091431e-01" nType="0">
        <Node pos="l" depth="1" NCoef="0" IVar="-1" Cut="0.0000000000000000e+00" cType="1" res="8.7997457012534142e-03" rms="2.6869171857833862e-01" purity="7.5454413890838623e-01" nType="-99"/>
        <Node pos="r" depth="1" NCoef="0" IVar="0" Cut="-2.2699719667434692e-01" cType="1" res="-4.7468602657318115e-02" rms="2.8667148947715759e-01" purity="2.5724396109580994e-01" nType="0">
          <Node pos="l" depth="2" NCoef="0" IVar="-1" Cut="0.0000000000000000e+00" cType="1" res="7.6819129288196564e-02" rms="4.1955485939979553e-01" purity="3.5013610124588013e-01" nType="-99"/>
          <Node pos="r" depth="2" NCoef="0" IVar="-1" Cut="0.0000000000000000e+00" cType="1" res="-1.9878868013620377e-02" rms="2.7499318122863770e-01" purity="2.5310635566711426e-01" nType="-99"/>
        </Node>
      </Node>
    </BinaryTree>
    <BinaryTree type="DecisionTree" boostWeight="1.0000000000000000e+00" itree="68">
      <Node pos="s" depth="0" NCoef="0" IVar="19" Cut="3.6314386129379272e-01" cType="1" res="-4.5352103188633919e-04" rms="2.7555051445960999e-01" purity="6.0246759653091431e-01" nType="0">
        <Node pos="l" depth="1" NCoef="0" IVar="-1" Cut="0.0000000000000000e+00" cType="1" res="8.2684392109513283e-03" rms="2.6588097214698792e-01" purity="7.0486730337142944e-01" nType="-99"/>
        <Node pos="r" depth="1" NCoef="0" IVar="21" Cut="1.4634992182254791e-01" cType="0" res="-4.5480784028768539e-02" rms="2.9052501916885376e-01" purity="3.7885609269142151e-01" nType="0">
          <Node pos="l" depth="2" NCoef="0" IVar="-1" Cut="0.0000000000000000e+00" cType="1" res="3.3406764268875122e-02" rms="2.8594395518302917e-01" purity="7.2536373138427734e-01" nType="-99"/>
          <Node pos="r" depth="2" NCoef="0" IVar="-1" Cut="0.0000000000000000e+00" cType="1" res="-2.2083774209022522e-02" rms="2.8822001814842224e-01" purity="3.4666526317596436e-01" nType="-99"/>
        </Node>
      </Node>
    </BinaryTree>
    <BinaryTree type="DecisionTree" boostWeight="1.0000000000000000e+00" itree="69">
      <Node pos="s" depth="0" NCoef="0" IVar="2" Cut="9.4566994905471802e-01" cType="0" res="-4.4627196621149778e-04" rms="2.7499625086784363e-01" purity="6.0246759653091431e-01" nType="0">
        <Node pos="l" depth="1" NCoef="0" IVar="-1" Cut="0.0000000000000000e+00" cType="1" res="1.1340650729835033e-02" rms="2.8267529606819153e-01" purity="8.3140921592712402e-01" nType="-99"/>
        <Node pos="r" depth="1" NCoef="0" IVar="23" Cut="8.0761556625366211e+00" cType="1" res="-3.2663661986589432e-02" rms="2.6238363981246948e-01" purity="3.4494093060493469e-01" nType="0">
          <Node pos="l" depth="2" NCoef="0" IVar="-1" Cut="0.0000000000000000e+00" cType="1" res="-6.4391188789159060e-04" rms="2.6153713464736938e-01" purity="4.2355898022651672e-01" nType="-99"/>
          <Node pos="r" depth="2" NCoef="0" IVar="-1" Cut="0.0000000000000000e+00" cType="1" res="-3.0860893428325653e-02" rms="2.5776547193527222e-01" purity="2.4033416807651520e-01" nType="-99"/>
        </Node>
      </Node>
    </BinaryTree>
    <BinaryTree type="DecisionTree" boostWeight="1.0000000000000000e+00" itree="70">
      <Node pos="s" depth="0" NCoef="0" IVar="13" Cut="4.2206179350614548e-03" cType="1" res="-4.6768801985308528e-04" rms="2.7443498373031616e-01" purity="6.0246759653091431e-01" nType="0">
        <Node pos="l" depth="1" NCoef="0" IVar="-1" Cut="0.0000000000000000e+00" cType="1" res="6.3296528533101082e-03" rms="2.6511818170547485e-01" purity="6.5541064739227295e-01" nType="-99"/>
        <Node pos="r" depth="1" NCoef="0" IVar="9" Cut="7.0059971809387207e+00" cType="1" res="-5.6016322225332260e-02" rms="2.9843366146087646e-01" purity="4.1595149040222168e-01" nType="0">
          <Node pos="l" depth="2" NCoef="0" IVar="-1" Cut="0.0000000000000000e+00" cType="1" res="4.0057269507087767e-04" rms="2.6467651128768921e-01" purity="6.2092506885528564e-01" nType="-99"/>
          <Node pos="r" depth="2" NCoef="0" IVar="-1" Cut="0.0000000000000000e+00" cType="1" res="-3.3721756190061569e-02" rms="3.1261995434761047e-01" purity="2.8644400835037231e-01" nType="-99"/>
        </Node>
      </Node>
    </BinaryTree>
    <BinaryTree type="DecisionTree" boostWeight="1.0000000000000000e+00" itree="71">
      <Node pos="s" depth="0" NCoef="0" IVar="6" Cut="8.8612465187907219e-03" cType="1" res="-4.2272909195162356e-04" rms="2.7392718195915222e-01" purity="6.0246759653091431e-01" nType="0">
        <Node pos="l" depth="1" NCoef="0" IVar="-1" Cut="0.0000000000000000e+00" cType="1" res="8.5687115788459778e-03" rms="2.5263437628746033e-01" purity="6.8095725774765015e-01" nType="-99"/>
        <Node pos="r" depth="1" NCoef="0" IVar="21" Cut="8.1147827208042145e-02" cType="0" res="-4.1598521173000336e-02" rms="3.0766841769218445e-01" purity="4.4722172617912292e-01" nType="0">
          <Node pos="l" depth="2" NCoef="0" IVar="-1" Cut="0.0000000000000000e+00" cType="1" res="1.7966106534004211e-02" rms="3.1456553936004639e-01" purity="6.4484792947769165e-01" nType="-99"/>
          <Node pos="r" depth="2" NCoef="0" IVar="-1" Cut="0.0000000000000000e+00" cType="1" res="-2.2274758666753769e-02" rms="3.0367460846900940e-01" purity="4.0943521261215210e-01" nType="-99"/>
        </Node>
      </Node>
    </BinaryTree>
    <BinaryTree type="DecisionTree" boostWeight="1.0000000000000000e+00" itree="72">
      <Node pos="s" depth="0" NCoef="0" IVar="1" Cut="9.0595757961273193e-01" cType="0" res="-3.5149283939972520e-04" rms="2.7332615852355957e-01" purity="6.0246759653091431e-01" nType="0">
        <Node pos="l" depth="1" NCoef="0" IVar="-1" Cut="0.0000000000000000e+00" cType="1" res="5.9123807586729527e-03" rms="2.7781590819358826e-01" purity="6.7349010705947876e-01" nType="-99"/>
        <Node pos="r" depth="1" NCoef="0" IVar="4" Cut="-4.6311011314392090e+00" cType="1" res="-5.5041905492544174e-02" rms="2.4880068004131317e-01" purity="3.4440472722053528e-01" nType="0">
          <Node pos="l" depth="2" NCoef="0" IVar="-1" Cut="0.0000000000000000e+00" cType="1" res="9.8695028573274612e-03" rms="2.5776663422584534e-01" purity="7.8739702701568604e-01" nType="-99"/>
          <Node pos="r" depth="2" NCoef="0" IVar="-1" Cut="0.0000000000000000e+00" cType="1" res="-3.3735968172550201e-02" rms="2.4298249185085297e-01" purity="2.4201229214668274e-01" nType="-99"/>
        </Node>
      </Node>
    </BinaryTree>
    <BinaryTree type="DecisionTree" boostWeight="1.0000000000000000e+00" itree="73">
      <Node pos="s" depth="0" NCoef="0" IVar="13" Cut="-7.4128680862486362e-03" cType="0" res="-3.7427427014335990e-04" rms="2.7283340692520142e-01" purity="6.0246759653091431e-01" nType="0">
        <Node pos="l" depth="1" NCoef="0" IVar="-1" Cut="0.0000000000000000e+00" cType="1" res="4.7649461776018143e-03" rms="2.6658052206039429e-01" purity="6.4363551139831543e-01" nType="-99"/>
        <Node pos="r" depth="1" NCoef="0" IVar="11" Cut="-5.1557612605392933e-03" cType="0" res="-6.9133579730987549e-02" rms="2.9746183753013611e-01" purity="3.6339291930198669e-01" nType="0">
          <Node pos="l" depth="2" NCoef="0" IVar="-1" Cut="0.0000000000000000e+00" cType="1" res="2.5516187306493521e-03" rms="2.5832465291023254e-01" purity="6.3268959522247314e-01" nType="-99"/>
          <Node pos="r" depth="2" NCoef="0" IVar="-1" Cut="0.0000000000000000e+00" cType="1" res="-4.0077339857816696e-02" rms="3.0834430456161499e-01" purity="2.3065458238124847e-01" nType="-99"/>
        </Node>
      </Node>
    </BinaryTree>
    <BinaryTree type="DecisionTree" boostWeight="1.0000000000000000e+00" itree="74">
      <Node pos="s" depth="0" NCoef="0" IVar="0" Cut="3.5913247615098953e-02" cType="0" res="-3.3386267023161054e-04" rms="2.7232837677001953e-01" purity="6.0246759653091431e-01" nType="0">
        <Node pos="l" depth="1" NCoef="0" IVar="-1" Cut="0.0000000000000000e+00" cType="1" res="7.5463708490133286e-03" rms="2.6593178510665894e-01" purity="7.3990321159362793e-01" nType="-99"/>
        <Node pos="r" depth="1" NCoef="0" IVar="0" Cut="-2.2707730531692505e-01" cType="1" res="-4.5534528791904449e-02" rms="2.8320544958114624e-01" purity="2.4808362126350403e-01" nType="0">
          <Node pos="l" depth="2" NCoef="0" IVar="-1" Cut="0.0000000000000000e+00" cType="1" res="6.6264599561691284e-02" rms="4.1440993547439575e-01" purity="3.5013610124588013e-01" nType="-99"/>
          <Node pos="r" depth="2" NCoef="0" IVar="-1" Cut="0.0000000000000000e+00" cType="1" res="-1.9993964582681656e-02" rms="2.7114200592041016e-01" purity="2.4308820068836212e-01" nType="-99"/>
        </Node>
      </Node>
    </BinaryTree>
    <BinaryTree type="DecisionTree" boostWeight="1.0000000000000000e+00" itree="75">
      <Node pos="s" depth="0" NCoef="0" IVar="13" Cut="6.9052684120833874e-03" cType="1" res="-4.6937714796513319e-04" rms="2.7187025547027588e-01" purity="6.0246759653091431e-01" nType="0">
        <Node pos="l" depth="1" NCoef="0" IVar="-1" Cut="0.0000000000000000e+00" cType="1" res="4.8042545095086098e-03" rms="2.6539289951324463e-01" purity="6.4586293697357178e-01" nType="-99"/>
        <Node pos="r" depth="1" NCoef="0" IVar="11" Cut="5.6101856753230095e-03" cType="1" res="-6.5141372382640839e-02" rms="2.9630187153816223e-01" purity="3.6758163571357727e-01" nType="0">
          <Node pos="l" depth="2" NCoef="0" IVar="-1" Cut="0.0000000000000000e+00" cType="1" res="-2.5105962995439768e-03" rms="2.6193639636039734e-01" purity="5.9108912944793701e-01" nType="-99"/>
          <Node pos="r" depth="2" NCoef="0" IVar="-1" Cut="0.0000000000000000e+00" cType="1" res="-3.7946645170450211e-02" rms="3.0897852778434753e-01" purity="2.4199584126472473e-01" nType="-99"/>
        </Node>
      </Node>
    </BinaryTree>
    <BinaryTree type="DecisionTree" boostWeight="1.0000000000000000e+00" itree="76">
      <Node pos="s" depth="0" NCoef="0" IVar="17" Cut="2.5601055473089218e-02" cType="1" res="-4.2643805500119925e-04" rms="2.7141693234443665e-01" purity="6.0246759653091431e-01" nType="0">
        <Node pos="l" depth="1" NCoef="0" IVar="-1" Cut="0.0000000000000000e+00" cType="1" res="1.0663477703928947e-02" rms="2.4800191819667816e-01" purity="7.2795671224594116e-01" nType="-99"/>
        <Node pos="r" depth="1" NCoef="0" IVar="7" Cut="1.7833946943283081e+00" cType="1" res="-2.9799116775393486e-02" rms="2.9356840252876282e-01" purity="4.5676690340042114e-01" nType="0">
          <Node pos="l" depth="2" NCoef="0" IVar="-1" Cut="0.0000000000000000e+00" cType="1" res="-7.1214372292160988e-03" rms="2.7916881442070007e-01" purity="4.6702158451080322e-01" nType="-99"/>
          <Node pos="r" depth="2" NCoef="0" IVar="-1" Cut="0.0000000000000000e+00" cType="1" res="-4.5854378491640091e-02" rms="3.7090194225311279e-01" purity="3.8108024001121521e-01" nType="-99"/>
        </Node>
      </Node>
    </BinaryTree>
    <BinaryTree type="DecisionTree" boostWeight="1.0000000000000000e+00" itree="77">
      <Node pos="s" depth="0" NCoef="0" IVar="0" Cut="1.4868608117103577e-01" cType="0" res="-3.1662394758313894e-04" rms="2.7085530757904053e-01" purity="6.0246759653091431e-01" nType="0">
        <Node pos="l" depth="1" NCoef="0" IVar="-1" Cut="0.0000000000000000e+00" cType="1" res="1.5480487607419491e-02" rms="2.3965087532997131e-01" purity="8.9835929870605469e-01" nType="-99"/>
        <Node pos="r" depth="1" NCoef="0" IVar="15" Cut="1.2829621322453022e-02" cType="1" res="-2.4335501715540886e-02" rms="2.9077953100204468e-01" purity="3.7024751305580139e-01" nType="0">
          <Node pos="l" depth="2" NCoef="0" IVar="-1" Cut="0.0000000000000000e+00" cType="1" res="1.2672496028244495e-02" rms="2.8040048480033875e-01" purity="5.8987331390380859e-01" nType="-99"/>
          <Node pos="r" depth="2" NCoef="0" IVar="-1" Cut="0.0000000000000000e+00" cType="1" res="-1.8461806699633598e-02" rms="2.9120272397994995e-01" purity="2.8277975320816040e-01" nType="-99"/>
        </Node>
      </Node>
    </BinaryTree>
    <BinaryTree type="DecisionTree" boostWeight="1.0000000000000000e+00" itree="78">
      <Node pos="s" depth="0" NCoef="0" IVar="1" Cut="8.0978018045425415e-01" cType="0" res="-3.3296496258117259e-04" rms="2.7035507559776306e-01" purity="6.0246759653091431e-01" nType="0">
        <Node pos="l" depth="1" NCoef="0" IVar="-1" Cut="0.0000000000000000e+00" cType="1" res="4.3386174365878105e-03" rms="2.7337837219238281e-01" purity="6.5760892629623413e-01" nType="-99"/>
        <Node pos="r" depth="1" NCoef="0" IVar="7" Cut="2.2680060863494873e+00" cType="1" res="-6.8097010254859924e-02" rms="2.3968844115734100e-01" purity="2.5637474656105042e-01" nType="0">
          <Node pos="l" depth="2" NCoef="0" IVar="-1" Cut="0.0000000000000000e+00" cType="1" res="-2.6796581223607063e-02" rms="2.1723639965057373e-01" purity="2.6317197084426880e-01" nType="-99"/>
          <Node pos="r" depth="2" NCoef="0" IVar="-1" Cut="0.0000000000000000e+00" cType="1" res="-5.8840736746788025e-02" rms="3.3109757304191589e-01" purity="2.1532993018627167e-01" nType="-99"/>
        </Node>
      </Node>
    </BinaryTree>
    <BinaryTree type="DecisionTree" boostWeight="1.0000000000000000e+00" itree="79">
      <Node pos="s" depth="0" NCoef="0" IVar="5" Cut="-5.5458289571106434e-03" cType="0" res="-3.4398041316308081e-04" rms="2.6994067430496216e-01" purity="6.0246759653091431e-01" nType="0">
        <Node pos="l" depth="1" NCoef="0" IVar="-1" Cut="0.0000000000000000e+00" cType="1" res="5.0483830273151398e-03" rms="2.5984263420104980e-01" purity="6.5120667219161987e-01" nType="-99"/>
        <Node pos="r" depth="1" NCoef="0" IVar="21" Cut="1.0024970024824142e-01" cType="0" res="-5.8112654834985733e-02" rms="3.0715918540954590e-01" purity="3.7000697851181030e-01" nType="0">
          <Node pos="l" depth="2" NCoef="0" IVar="-1" Cut="0.0000000000000000e+00" cType="1" res="2.2823242470622063e-02" rms="3.1327694654464722e-01" purity="6.4506578445434570e-01" nType="-99"/>
          <Node pos="r" depth="2" NCoef="0" IVar="-1" Cut="0.0000000000000000e+00" cType="1" res="-2.9285388067364693e-02" rms="3.0298781394958496e-01" purity="3.3093401789665222e-01" nType="-99"/>
        </Node>
      </Node>
    </BinaryTree>
    <BinaryTree type="DecisionTree" boostWeight="1.0000000000000000e+00" itree="80">
      <Node pos="s" depth="0" NCoef="0" IVar="5" Cut="4.1683590970933437e-03" cType="1" res="-3.5143975401297212e-04" rms="2.6950722932815552e-01" purity="6.0246759653091431e-01" nType="0">
        <Node pos="l" depth="1" NCoef="0" IVar="-1" Cut="0.0000000000000000e+00" cType="1" res="5.6374636478722095e-03" rms="2.5897702574729919e-01" purity="6.5480142831802368e-01" nType="-99"/>
        <Node pos="r" depth="1" NCoef="0" IVar="9" Cut="6.0074963569641113e+00" cType="1" res="-5.0078023225069046e-02" rms="3.0023375153541565e-01" purity="4.0831768512725830e-01" nType="0">
          <Node pos="l" depth="2" NCoef="0" IVar="-1" Cut="0.0000000000000000e+00" cType="1" res="5.6663113646209240e-03" rms="2.6947128772735596e-01" purity="6.5425992012023926e-01" nType="-99"/>
          <Node pos="r" depth="2" NCoef="0" IVar="-1" Cut="0.0000000000000000e+00" cType="1" res="-2.8119236230850220e-02" rms="3.0757755041122437e-01" purity="3.1801456212997437e-01" nType="-99"/>
        </Node>
      </Node>
    </BinaryTree>
    <BinaryTree type="DecisionTree" boostWeight="1.0000000000000000e+00" itree="81">
      <Node pos="s" depth="0" NCoef="0" IVar="19" Cut="4.1031596064567566e-01" cType="1" res="-3.1990115530788898e-04" rms="2.6911717653274536e-01" purity="6.0246759653091431e-01" nType="0">
        <Node pos="l" depth="1" NCoef="0" IVar="-1" Cut="0.0000000000000000e+00" cType="1" res="5.9938756749033928e-03" rms="2.6322880387306213e-01" purity="6.7945283651351929e-01" nType="-99"/>
        <Node pos="r" depth="1" NCoef="0" IVar="4" Cut="-4.3796930313110352e+00" cType="1" res="-4.5938245952129364e-02" rms="2.8235024213790894e-01" purity="3.5615879297256470e-01" nType="0">
          <Node pos="l" depth="2" NCoef="0" IVar="-1" Cut="0.0000000000000000e+00" cType="1" res="7.3130642995238304e-03" rms="2.7888733148574829e-01" purity="6.6603177785873413e-01" nType="-99"/>
          <Node pos="r" depth="2" NCoef="0" IVar="-1" Cut="0.0000000000000000e+00" cType="1" res="-2.7686070650815964e-02" rms="2.8046393394470215e-01" purity="2.6306125521659851e-01" nType="-99"/>
        </Node>
      </Node>
    </BinaryTree>
    <BinaryTree type="DecisionTree" boostWeight="1.0000000000000000e+00" itree="82">
      <Node pos="s" depth="0" NCoef="0" IVar="2" Cut="9.4566994905471802e-01" cType="0" res="-2.6848513516597450e-04" rms="2.6868247985839844e-01" purity="6.0246759653091431e-01" nType="0">
        <Node pos="l" depth="1" NCoef="0" IVar="-1" Cut="0.0000000000000000e+00" cType="1" res="1.0132884606719017e-02" rms="2.7716299891471863e-01" purity="8.3140921592712402e-01" nType="-99"/>
        <Node pos="r" depth="1" NCoef="0" IVar="21" Cut="1.1379349976778030e-01" cType="0" res="-2.7440171688795090e-02" rms="2.5610268115997314e-01" purity="3.4494093060493469e-01" nType="0">
          <Node pos="l" depth="2" NCoef="0" IVar="-1" Cut="0.0000000000000000e+00" cType="1" res="4.6959854662418365e-02" rms="3.0115377902984619e-01" purity="6.3277810811996460e-01" nType="-99"/>
          <Node pos="r" depth="2" NCoef="0" IVar="-1" Cut="0.0000000000000000e+00" cType="1" res="-1.5525664202868938e-02" rms="2.5044187903404236e-01" purity="3.2588431239128113e-01" nType="-99"/>
        </Node>
      </Node>
    </BinaryTree>
    <BinaryTree type="DecisionTree" boostWeight="1.0000000000000000e+00" itree="83">
      <Node pos="s" depth="0" NCoef="0" IVar="19" Cut="1.9275498390197754e-01" cType="1" res="-4.0247879223898053e-04" rms="2.6823416352272034e-01" purity="6.0246759653091431e-01" nType="0">
        <Node pos="l" depth="1" NCoef="0" IVar="-1" Cut="0.0000000000000000e+00" cType="1" res="1.6063071787357330e-02" rms="2.2987085580825806e-01" purity="8.2711696624755859e-01" nType="-99"/>
